<?xml version="1.0"?>
<opencv_storage>
<cascade>
  <stageType>BOOST</stageType>
  <featureType>LBP</featureType>
  <height>40</height>
  <width>20</width>
  <stageParams>
    <boostType>GAB</boostType>
    <minHitRate>9.9900001287460327e-01</minHitRate>
    <maxFalseAlarm>5.0000000000000000e-01</maxFalseAlarm>
    <weightTrimRate>9.4999999999999996e-01</weightTrimRate>
    <maxDepth>1</maxDepth>
    <maxWeakCount>100</maxWeakCount></stageParams>
  <featureParams>
    <maxCatCount>256</maxCatCount>
    <featSize>1</featSize></featureParams>
  <stageNum>30</stageNum>
  <stages>
    <!-- stage 0 -->
    <_>
      <maxWeakCount>5</maxWeakCount>
      <stageThreshold>-1.1075487136840820e+00</stageThreshold>
      <weakClassifiers>
        <_>
          <internalNodes>
            0 -1 67 -83886358 -1042 -280579 -1050625 -1 -1 -1 -17</internalNodes>
          <leafValues>
            -7.0989763736724854e-01 8.9200437068939209e-01</leafValues></_>
        <_>
          <internalNodes>
            0 -1 211 -16777234 -923795570 -1061148160 -2138659198
            -671088757 801867247 -70785214 -976224273</internalNodes>
          <leafValues>
            -6.9310671091079712e-01 7.1344631910324097e-01</leafValues></_>
        <_>
          <internalNodes>
            0 -1 377 -4114 -270270481 -932311550 -823139602 2145645377
            1900507843 1980179712 -143130829</internalNodes>
          <leafValues>
            -6.8702638149261475e-01 5.6884288787841797e-01</leafValues></_>
        <_>
          <internalNodes>
            0 -1 104 -146079998 -33283 -11021441 -525634 -67174546
            -263249 -184615937 -524303</internalNodes>
          <leafValues>
            -7.5127106904983521e-01 4.6836668252944946e-01</leafValues></_>
        <_>
          <internalNodes>
            0 -1 269 -268439573 -2131812209 -2143100920 6660770
            -738200793 1080685007 -8395194 1357905915</internalNodes>
          <leafValues>
            -6.6295349597930908e-01 5.1411533355712891e-01</leafValues></_></weakClassifiers></_>
    <!-- stage 1 -->
    <_>
      <maxWeakCount>5</maxWeakCount>
      <stageThreshold>-1.6942688226699829e+00</stageThreshold>
      <weakClassifiers>
        <_>
          <internalNodes>
            0 -1 160 -219155774 -138413057 -134742153 -17 -524305
            -16777217 -1 -1</internalNodes>
          <leafValues>
            -6.2439024448394775e-01 7.8977155685424805e-01</leafValues></_>
        <_>
          <internalNodes>
            0 -1 166 -33554514 -269486113 -532674560 -993008094
            -45879393 -967876158 -1052920 -2097201</internalNodes>
          <leafValues>
            -5.6940346956253052e-01 6.5736669301986694e-01</leafValues></_>
        <_>
          <internalNodes>
            0 -1 320 -16777234 231735278 -319298846 82765550 -143033594
            1608237055 1968697604 -722468881</internalNodes>
          <leafValues>
            -6.8759065866470337e-01 4.7885230183601379e-01</leafValues></_>
        <_>
          <internalNodes>
            0 -1 309 -961568254 -83887169 -50335753 -186650378
            -211815625 -352357917 -84936717 -754997433</internalNodes>
          <leafValues>
            -7.4070632457733154e-01 3.6457353830337524e-01</leafValues></_>
        <_>
          <internalNodes>
            0 -1 439 -8655249 -12194049 1781263714 -951058454 -164105401
            1800634179 1630659363 -181141661</internalNodes>
          <leafValues>
            -4.8633998632431030e-01 6.0021388530731201e-01</leafValues></_></weakClassifiers></_>
    <!-- stage 2 -->
    <_>
      <maxWeakCount>7</maxWeakCount>
      <stageThreshold>-1.6910661458969116e+00</stageThreshold>
      <weakClassifiers>
        <_>
          <internalNodes>
            0 -1 75 -658450 -1 2011521770 -1537 -1 -1074266113 -67387393
            -262145</internalNodes>
          <leafValues>
            -5.7277423143386841e-01 7.1592396497726440e-01</leafValues></_>
        <_>
          <internalNodes>
            0 -1 336 -65810 -523306290 -420152544 -823198002 -2109628
            -832048802 -10223804 -536870929</internalNodes>
          <leafValues>
            -5.9973365068435669e-01 5.6249147653579712e-01</leafValues></_>
        <_>
          <internalNodes>
            0 -1 257 2147483647 -1 1819780608 -957349905 2146942795
            1464844255 -11011322 -17</internalNodes>
          <leafValues>
            -4.5493450760841370e-01 6.3910555839538574e-01</leafValues></_>
        <_>
          <internalNodes>
            0 -1 358 -456792576 -213387445 -137367049 -3149337 -787525
            -102914321 -227280521 -152585497</internalNodes>
          <leafValues>
            -6.6582113504409790e-01 3.8852137327194214e-01</leafValues></_>
        <_>
          <internalNodes>
            0 -1 93 1974265504 -59258658 -829941330 -5275770 -541330736
            -190893349 783269886 -2162690</internalNodes>
          <leafValues>
            -5.6770509481430054e-01 4.3455743789672852e-01</leafValues></_>
        <_>
          <internalNodes>
            0 -1 261 -276824150 1153301103 -254336478 15655470 -2885378
            358572109 -25172154 -186646529</internalNodes>
          <leafValues>
            -5.9871357679367065e-01 4.1329047083854675e-01</leafValues></_>
        <_>
          <internalNodes>
            0 -1 392 -537423218 33747662 -993664990 575660198 -496670141
            139282948 -683195646 -716181873</internalNodes>
          <leafValues>
            -5.2234470844268799e-01 3.9610597491264343e-01</leafValues></_></weakClassifiers></_>
    <!-- stage 3 -->
    <_>
      <maxWeakCount>9</maxWeakCount>
      <stageThreshold>-1.6111885309219360e+00</stageThreshold>
      <weakClassifiers>
        <_>
          <internalNodes>
            0 -1 357 -449370365 -142606531 -142606465 -129 -16385 -129
            -8931329 -276828353</internalNodes>
          <leafValues>
            -3.4426230192184448e-01 7.2597044706344604e-01</leafValues></_>
        <_>
          <internalNodes>
            0 -1 213 -704643137 -537919570 -1118212606 -993073334
            -539492353 -1879048371 -1074266354 -537923633</internalNodes>
          <leafValues>
            -4.4207838177680969e-01 5.9787279367446899e-01</leafValues></_>
        <_>
          <internalNodes>
            0 -1 326 -470 -1500596274 -1398764544 -1882390994 2069827340
            -1131976305 2135908100 -268435457</internalNodes>
          <leafValues>
            -5.5119341611862183e-01 4.0692108869552612e-01</leafValues></_>
        <_>
          <internalNodes>
            0 -1 61 -179324018 -537657377 1934812155 -139395112
            -1145308161 -67111939 -67393797 -134479877</internalNodes>
          <leafValues>
            -6.5035521984100342e-01 3.3295577764511108e-01</leafValues></_>
        <_>
          <internalNodes>
            0 -1 312 -388237588 -1917853009 -243908086 -923998590
            1540618055 -716453425 1551333954 -721420289</internalNodes>
          <leafValues>
            -5.7893031835556030e-01 3.3876857161521912e-01</leafValues></_>
        <_>
          <internalNodes>
            0 -1 191 -268587282 -306195065 -1548998648 -1550866545
            -547422453 -269746721 -537981173 -269493877</internalNodes>
          <leafValues>
            -5.0171446800231934e-01 3.7932139635086060e-01</leafValues></_>
        <_>
          <internalNodes>
            0 -1 196 15134467 -536881527 -170395729 -203958309 15990703
            -806634334 1172045823 1081598771</internalNodes>
          <leafValues>
            -6.3565915822982788e-01 2.5864368677139282e-01</leafValues></_>
        <_>
          <internalNodes>
            0 -1 437 2145894383 -1897091122 -577914 -1374843221
            -13147545 2147434036 1176858371 -297275805</internalNodes>
          <leafValues>
            -3.9549201726913452e-01 4.6389698982238770e-01</leafValues></_>
        <_>
          <internalNodes>
            0 -1 318 -782274577 -175913481 -170137942 -271092257
            -215652753 565607129 1450567360 1969749743</internalNodes>
          <leafValues>
            -4.5246437191963196e-01 3.7511640787124634e-01</leafValues></_></weakClassifiers></_>
    <!-- stage 4 -->
    <_>
      <maxWeakCount>10</maxWeakCount>
      <stageThreshold>-1.4811156988143921e+00</stageThreshold>
      <weakClassifiers>
        <_>
          <internalNodes>
            0 -1 208 -923867954 -101187589 -1074282497 -16406 1124069375
            -620773393 2013261775 -1308938295</internalNodes>
          <leafValues>
            -4.8464912176132202e-01 6.2480944395065308e-01</leafValues></_>
        <_>
          <internalNodes>
            0 -1 372 -545390610 -247348761 -372247648 -403839510
            2068018947 824181139 2000758530 -143133701</internalNodes>
          <leafValues>
            -5.1238465309143066e-01 4.8365813493728638e-01</leafValues></_>
        <_>
          <internalNodes>
            0 -1 236 -34603013 -412106753 -2102456790 -1548776785
            -335609857 -872415233 -33616853 -272650609</internalNodes>
          <leafValues>
            -3.8859659433364868e-01 5.0781023502349854e-01</leafValues></_>
        <_>
          <internalNodes>
            0 -1 7 4718847 1977034711 -1657833985 -72478897 -1342185473
            -101720066 1605353393 -37756993</internalNodes>
          <leafValues>
            -3.6570170521736145e-01 5.2160370349884033e-01</leafValues></_>
        <_>
          <internalNodes>
            0 -1 262 -210241537 299859887 1919807138 1089463206
            -1302086929 1569952298 -11031802 -771758097</internalNodes>
          <leafValues>
            -4.4021925330162048e-01 4.2030829191207886e-01</leafValues></_>
        <_>
          <internalNodes>
            0 -1 202 1932730628 -1212696265 1570411455 867627892
            -1300956243 -1918072721 830668541 -1285193093</internalNodes>
          <leafValues>
            -6.1053258180618286e-01 2.8088325262069702e-01</leafValues></_>
        <_>
          <internalNodes>
            0 -1 444 -680806422 -392826240 -2099270014 -1905820738
            1383932480 47034470 -127455484 -478679289</internalNodes>
          <leafValues>
            -4.9432939291000366e-01 3.4455603361129761e-01</leafValues></_>
        <_>
          <internalNodes>
            0 -1 263 870317503 -179891977 88647174 -305411089 320279549
            2314635 -430707954 2001730383</internalNodes>
          <leafValues>
            -4.1775107383728027e-01 4.0836146473884583e-01</leafValues></_>
        <_>
          <internalNodes>
            0 -1 558 1148191756 -539083649 -1126637570 -6558209
            -392717396 -1745293430 -82658629 -1431803681</internalNodes>
          <leafValues>
            -4.0276083350181580e-01 4.0315255522727966e-01</leafValues></_>
        <_>
          <internalNodes>
            0 -1 155 2083157720 -560271650 -1109569 -7275096 -936386316
            -184713738 -3211573 -270729377</internalNodes>
          <leafValues>
            -3.3021941781044006e-01 4.8879399895668030e-01</leafValues></_></weakClassifiers></_>
    <!-- stage 5 -->
    <_>
      <maxWeakCount>12</maxWeakCount>
      <stageThreshold>-1.3097715377807617e+00</stageThreshold>
      <weakClassifiers>
        <_>
          <internalNodes>
            0 -1 317 -1048658 -34603265 -488135006 15527598 -524337
            -1073741826 -143133440 -134218769</internalNodes>
          <leafValues>
            -3.3727461099624634e-01 6.4707076549530029e-01</leafValues></_>
        <_>
          <internalNodes>
            0 -1 308 -352342237 -16513 -4194305 -4202703 -285233217
            -276824209 -20577 -268898484</internalNodes>
          <leafValues>
            -3.8175973296165466e-01 4.9707594513893127e-01</leafValues></_>
        <_>
          <internalNodes>
            0 -1 339 -268505204 -1057554449 -286331090 -822151441
            -77594813 -1065353505 -2097297 -4097</internalNodes>
          <leafValues>
            -5.4301238059997559e-01 3.6075004935264587e-01</leafValues></_>
        <_>
          <internalNodes>
            0 -1 165 -527873 -4353 -137282930 -638060561 -536871041
            -1613234177 -33555025 -2621553</internalNodes>
          <leafValues>
            -3.3328920602798462e-01 5.3426557779312134e-01</leafValues></_>
        <_>
          <internalNodes>
            0 -1 56 15353039 1374632923 2098679807 -571391506 1304166399
            -6554226 1174044667 1364191215</internalNodes>
          <leafValues>
            -5.2129429578781128e-01 3.0201831459999084e-01</leafValues></_>
        <_>
          <internalNodes>
            0 -1 441 -802845 1858879075 -319131934 -1899024438
            -138979471 -33724587 -335546621 -369623041</internalNodes>
          <leafValues>
            -3.7032604217529297e-01 4.3976995348930359e-01</leafValues></_>
        <_>
          <internalNodes>
            0 -1 192 -1497418752 1549598576 -842981556 -1621252660
            1104002320 1436937539 1811939308 -873009256</internalNodes>
          <leafValues>
            -5.4027563333511353e-01 2.6560595631599426e-01</leafValues></_>
        <_>
          <internalNodes>
            0 -1 59 4063280 -1678525509 -2089045769 2063007597
            1426042366 -1 -852680705 -453529621</internalNodes>
          <leafValues>
            -3.2801514863967896e-01 4.4639232754707336e-01</leafValues></_>
        <_>
          <internalNodes>
            0 -1 580 -149034266 -425996565 -352916990 -523441957
            -281547007 1979169660 -295178934 -218103841</internalNodes>
          <leafValues>
            -3.9331635832786560e-01 3.8287758827209473e-01</leafValues></_>
        <_>
          <internalNodes>
            0 -1 434 -3162130 -677764898 -468939392 -74468882 1124341070
            1920253198 367431680 894959599</internalNodes>
          <leafValues>
            -5.9293806552886963e-01 2.4140992760658264e-01</leafValues></_>
        <_>
          <internalNodes>
            0 -1 299 516881092 -747703297 1080229408 -1997635961
            1944177631 -758929173 -262676922 1156003703</internalNodes>
          <leafValues>
            -5.6852817535400391e-01 2.4094757437705994e-01</leafValues></_>
        <_>
          <internalNodes>
            0 -1 174 -1497161822 -2052796514 -1260527864 -35333633
            -218202113 1153665450 2013001997 1172826767</internalNodes>
          <leafValues>
            -4.9720808863639832e-01 2.6916113495826721e-01</leafValues></_></weakClassifiers></_>
    <!-- stage 6 -->
    <_>
      <maxWeakCount>13</maxWeakCount>
      <stageThreshold>-1.5074914693832397e+00</stageThreshold>
      <weakClassifiers>
        <_>
          <internalNodes>
            0 -1 73 -176180242 -1 -1327191328 -705168409 -142606341 -1
            -673726468 -524297</internalNodes>
          <leafValues>
            -4.5148026943206787e-01 5.8611112833023071e-01</leafValues></_>
        <_>
          <internalNodes>
            0 -1 476 -202639445 -1411055886 749430882 -274350558
            -716087293 2067038046 1398227202 -746068057</internalNodes>
          <leafValues>
            -3.4821745753288269e-01 4.7961309552192688e-01</leafValues></_>
        <_>
          <internalNodes>
            0 -1 199 66049 2134368255 809683967 -820936193 429765309
            -1091502855 425830847 -1405302273</internalNodes>
          <leafValues>
            -4.6797454357147217e-01 3.4778788685798645e-01</leafValues></_>
        <_>
          <internalNodes>
            0 -1 319 -67126294 545775818 1174602702 15661258 -1275878494
            381826576 -1803872440 -1058013205</internalNodes>
          <leafValues>
            -4.8523676395416260e-01 3.2884371280670166e-01</leafValues></_>
        <_>
          <internalNodes>
            0 -1 93 -139528056 -25493634 -9462273 -8421385 -536950052
            -36702243 -268439570 -2097153</internalNodes>
          <leafValues>
            -3.5029637813568115e-01 4.1265085339546204e-01</leafValues></_>
        <_>
          <internalNodes>
            0 -1 532 -1157649886 -153157818 -431857014 -259883711
            -219440378 -221620241 -508043793 -186662929</internalNodes>
          <leafValues>
            -3.7696221470832825e-01 3.6670684814453125e-01</leafValues></_>
        <_>
          <internalNodes>
            0 -1 383 1743780606 2009593671 -2010673978 -403050769
            -1622035625 1393053717 -414977276 2003039031</internalNodes>
          <leafValues>
            -4.3552535772323608e-01 3.1091824173927307e-01</leafValues></_>
        <_>
          <internalNodes>
            0 -1 8 -1058930449 -705031705 353464319 1574633704 -57556993
            -15074647 -977311747 905659375</internalNodes>
          <leafValues>
            -4.5355242490768433e-01 2.8946560621261597e-01</leafValues></_>
        <_>
          <internalNodes>
            0 -1 169 -1323492417 820578239 -908883038 822076590
            272699499 1145807699 -100684523 1155006335</internalNodes>
          <leafValues>
            -4.5955380797386169e-01 2.8439405560493469e-01</leafValues></_>
        <_>
          <internalNodes>
            0 -1 310 -289098428 -186795143 -510152205 -253103679
            -795414017 -1837067877 -690250389 -1060838971</internalNodes>
          <leafValues>
            -5.9141564369201660e-01 2.2865055501461029e-01</leafValues></_>
        <_>
          <internalNodes>
            0 -1 182 -72484190 -450633558 1275406338 -909119446
            -481560863 1210804295 390297412 -711728461</internalNodes>
          <leafValues>
            -3.7303462624549866e-01 3.5543364286422729e-01</leafValues></_>
        <_>
          <internalNodes>
            0 -1 403 1910434884 -204162132 -121000324 -472649749
            -73967276 2007238663 -1256882384 2000681343</internalNodes>
          <leafValues>
            -5.2712088823318481e-01 2.5617718696594238e-01</leafValues></_>
        <_>
          <internalNodes>
            0 -1 464 7340112 -127985441 956393791 1366580575 -1068966727
            -1996807538 -2004707589 -1150803177</internalNodes>
          <leafValues>
            -4.0308997035026550e-01 3.3280456066131592e-01</leafValues></_></weakClassifiers></_>
    <!-- stage 7 -->
    <_>
      <maxWeakCount>15</maxWeakCount>
      <stageThreshold>-1.1417759656906128e+00</stageThreshold>
      <weakClassifiers>
        <_>
          <internalNodes>
            0 -1 365 -135858432 -145295569 1610610687 -1217398841
            -134744065 -16828425 1996421115 -168314937</internalNodes>
          <leafValues>
            -3.8400945067405701e-01 5.8047318458557129e-01</leafValues></_>
        <_>
          <internalNodes>
            0 -1 340 -100728836 -204537859 -268648452 -134221843
            -1343356929 -285345922 -34340897 -1048833</internalNodes>
          <leafValues>
            -2.5037252902984619e-01 5.7263010740280151e-01</leafValues></_>
        <_>
          <internalNodes>
            0 -1 394 -68945238 -2074684785 -1060126720 -1024986228
            -74992829 171041259 -1878531582 -1060132289</internalNodes>
          <leafValues>
            -3.9494943618774414e-01 3.5727423429489136e-01</leafValues></_>
        <_>
          <internalNodes>
            0 -1 207 -491788307 -206440560 -812271781 -711474911
            -2084445197 -980172150 218747387 2211971</internalNodes>
          <leafValues>
            -4.3517288565635681e-01 3.1453776359558105e-01</leafValues></_>
        <_>
          <internalNodes>
            0 -1 508 1993408506 -288357810 -787414857 -1979494052
            1383113411 843059729 1349849875 1903686499</internalNodes>
          <leafValues>
            -4.3568289279937744e-01 3.1616866588592529e-01</leafValues></_>
        <_>
          <internalNodes>
            0 -1 302 858223872 1937199735 -1727258113 937838950
            1614998943 -1851309909 67125423 925196515</internalNodes>
          <leafValues>
            -6.6963404417037964e-01 1.5934146940708160e-01</leafValues></_>
        <_>
          <internalNodes>
            0 -1 352 -2078273384 2142523224 738081557 -7299706
            1830057384 -277315916 461437640 -5255768</internalNodes>
          <leafValues>
            -3.1399145722389221e-01 4.0575474500656128e-01</leafValues></_>
        <_>
          <internalNodes>
            0 -1 378 1997668047 -1047183153 -251962996 -441460786
            1405997482 1507091030 1405297154 1364721391</internalNodes>
          <leafValues>
            -4.1959539055824280e-01 2.9945608973503113e-01</leafValues></_>
        <_>
          <internalNodes>
            0 -1 4 86674636 -1089855040 -1525739380 -547928894
            -888480545 -71458899 -2096898561 -1885355841</internalNodes>
          <leafValues>
            -3.6256030201911926e-01 3.4492367506027222e-01</leafValues></_>
        <_>
          <internalNodes>
            0 -1 92 1823386542 -322387740 -2045753077 -809203425
            1925968109 1200146442 463129866 -809816421</internalNodes>
          <leafValues>
            -4.4365403056144714e-01 2.9628458619117737e-01</leafValues></_>
        <_>
          <internalNodes>
            0 -1 11 -1060853590 -1874032243 150708896 -706351153
            2143081471 -338047313 -673653841 368943487</internalNodes>
          <leafValues>
            -5.1717370748519897e-01 2.2310496866703033e-01</leafValues></_>
        <_>
          <internalNodes>
            0 -1 259 -783057409 1901812703 2009187816 1616432874
            151065002 1113792719 -514084310 1365764863</internalNodes>
          <leafValues>
            -3.8833001255989075e-01 3.4132933616638184e-01</leafValues></_>
        <_>
          <internalNodes>
            0 -1 245 1310812 -1126384513 -1589320963 -1084403695
            1083748543 -1933907557 269824188 209992056</internalNodes>
          <leafValues>
            -3.6375656723976135e-01 3.6490359902381897e-01</leafValues></_>
        <_>
          <internalNodes>
            0 -1 284 -992247064 -1058247806 -1070165024 -1259340924
            -225711230 42617102 1738961587 2004349879</internalNodes>
          <leafValues>
            -4.6987003087997437e-01 2.5615838170051575e-01</leafValues></_>
        <_>
          <internalNodes>
            0 -1 443 1506518146 -1976569216 1387325440 1317397902
            1102279522 160047875 -1304069088 1098365475</internalNodes>
          <leafValues>
            -5.1504743099212646e-01 2.4178978800773621e-01</leafValues></_></weakClassifiers></_>
    <!-- stage 8 -->
    <_>
      <maxWeakCount>14</maxWeakCount>
      <stageThreshold>-1.2286120653152466e+00</stageThreshold>
      <weakClassifiers>
        <_>
          <internalNodes>
            0 -1 99 -169496082 -134218385 -42617857 -3585 -142608385 -1
            -176686081 -526337</internalNodes>
          <leafValues>
            -2.3769758641719818e-01 6.1028444766998291e-01</leafValues></_>
        <_>
          <internalNodes>
            0 -1 343 -2097153 -1342178641 -826865120 -1439719254 -413939
            -411045889 -581078 -22033</internalNodes>
          <leafValues>
            -3.2551681995391846e-01 4.6848666667938232e-01</leafValues></_>
        <_>
          <internalNodes>
            0 -1 382 -168296502 1809564127 -496014966 -855641362
            1901293125 1678191606 2003250944 -143130757</internalNodes>
          <leafValues>
            -5.6962752342224121e-01 2.4607673287391663e-01</leafValues></_>
        <_>
          <internalNodes>
            0 -1 298 -1910624967 -100804133 -14944387 -42339929
            -11805985 -3353965 -788275713 -1925508034</internalNodes>
          <leafValues>
            -4.5660102367401123e-01 2.9688844084739685e-01</leafValues></_>
        <_>
          <internalNodes>
            0 -1 265 -681609238 13466570 -394825824 1087283886
            -1558097298 472285595 -277360058 1978662911</internalNodes>
          <leafValues>
            -5.5101245641708374e-01 2.1956583857536316e-01</leafValues></_>
        <_>
          <internalNodes>
            0 -1 426 -445651193 -145238993 -664351937 1363517790
            -439632386 -386601525 1388700411 1964360742</internalNodes>
          <leafValues>
            -4.3050834536552429e-01 2.7343747019767761e-01</leafValues></_>
        <_>
          <internalNodes>
            0 -1 176 -5260374 -353135958 -1154831840 -300945430
            -69206220 56075237 1674949168 -681576489</internalNodes>
          <leafValues>
            -3.9315888285636902e-01 3.1024393439292908e-01</leafValues></_>
        <_>
          <internalNodes>
            0 -1 335 -1417691346 -2144391683 -10155122 -1501698322
            2008495925 7296615 -12879097 1742205743</internalNodes>
          <leafValues>
            -5.3331887722015381e-01 2.2295849025249481e-01</leafValues></_>
        <_>
          <internalNodes>
            0 -1 544 -858793781 -267125809 -1095083382 577436398
            -645933489 336164165 -1144539490 -14680081</internalNodes>
          <leafValues>
            -2.6071500778198242e-01 4.7691518068313599e-01</leafValues></_>
        <_>
          <internalNodes>
            0 -1 5 17363076 -222386967 -638716513 -582755140 -1073760515
            -537012225 -82949 -1081213522</internalNodes>
          <leafValues>
            -2.7540805935859680e-01 4.2971777915954590e-01</leafValues></_>
        <_>
          <internalNodes>
            0 -1 253 -286349532 -12996395 -211593857 -20674862
            1985609727 -1835297807 -345771701 -1862301039</internalNodes>
          <leafValues>
            -5.1074641942977905e-01 2.2966276109218597e-01</leafValues></_>
        <_>
          <internalNodes>
            0 -1 366 2108534524 -981347971 -759762016 -1605633361
            1510890199 743809 -96177598 1366817635</internalNodes>
          <leafValues>
            -4.9143564701080322e-01 2.4500453472137451e-01</leafValues></_>
        <_>
          <internalNodes>
            0 -1 293 1378353652 -755065956 -2004600579 -714054788
            -1571372356 -52706567 -1417348373 -543490321</internalNodes>
          <leafValues>
            -3.3370462059974670e-01 3.5398662090301514e-01</leafValues></_>
        <_>
          <internalNodes>
            0 -1 34 1163243511 2140167577 1988000494 2029248461
            -1593595395 -1390410773 -1295697411 1155379051</internalNodes>
          <leafValues>
            -3.6098206043243408e-01 3.3966398239135742e-01</leafValues></_></weakClassifiers></_>
    <!-- stage 9 -->
    <_>
      <maxWeakCount>17</maxWeakCount>
      <stageThreshold>-1.1016957759857178e+00</stageThreshold>
      <weakClassifiers>
        <_>
          <internalNodes>
            0 -1 375 -580911122 -16777233 -71704 -16777233 -134219872
            1969160191 1979643712 -167774209</internalNodes>
          <leafValues>
            -2.4615886807441711e-01 5.8832204341888428e-01</leafValues></_>
        <_>
          <internalNodes>
            0 -1 290 -1050625 771730319 -289437150 -2098222421 -528385
            -1343520769 -137027541 -337646661</internalNodes>
          <leafValues>
            -2.8009116649627686e-01 4.6728295087814331e-01</leafValues></_>
        <_>
          <internalNodes>
            0 -1 301 288436537 -671746049 -1146355713 -1090802689
            -67247137 -34537473 -1141395521 -1149505537</internalNodes>
          <leafValues>
            -3.2163453102111816e-01 3.7723609805107117e-01</leafValues></_>
        <_>
          <internalNodes>
            0 -1 577 -6514 -1034454305 654191234 1079439591 -547379706
            2008316484 -434635002 -220725409</internalNodes>
          <leafValues>
            -3.5838776826858521e-01 3.5030665993690491e-01</leafValues></_>
        <_>
          <internalNodes>
            0 -1 387 1970274174 -150560566 -119116120 -1883247106
            2097093964 1403929435 -613589756 -8945801</internalNodes>
          <leafValues>
            -4.9448019266128540e-01 2.1527630090713501e-01</leafValues></_>
        <_>
          <internalNodes>
            0 -1 316 1540881390 -1309478586 -1418202390 15651566
            1237545741 466690591 1475835716 1962803123</internalNodes>
          <leafValues>
            -5.7668465375900269e-01 1.9495953619480133e-01</leafValues></_>
        <_>
          <internalNodes>
            0 -1 96 4850095 1373636271 1351111443 -76867665 -873596941
            -537139267 -528403279 -671198834</internalNodes>
          <leafValues>
            -4.1755840182304382e-01 2.6022964715957642e-01</leafValues></_>
        <_>
          <internalNodes>
            0 -1 272 -136350270 82771870 -1410692608 -2131851124
            -506881265 6010747 603372315 1090513806</internalNodes>
          <leafValues>
            -5.9337025880813599e-01 1.6020007431507111e-01</leafValues></_>
        <_>
          <internalNodes>
            0 -1 178 -336613854 208338476 -967908608 -1538357661
            2076930915 35692703 1442821184 -179051055</internalNodes>
          <leafValues>
            -4.7922083735466003e-01 2.1040640771389008e-01</leafValues></_>
        <_>
          <internalNodes>
            0 -1 349 478814480 1604117041 387838549 -379882532
            -640425147 -139879975 -1077093420 -1073767942</internalNodes>
          <leafValues>
            -3.6693617701530457e-01 2.9363065958023071e-01</leafValues></_>
        <_>
          <internalNodes>
            0 -1 430 -1307639791 -585758159 629232135 -1815933799
            -1190614116 -55902078 -1106539079 -2010104320</internalNodes>
          <leafValues>
            -3.4504711627960205e-01 3.0038183927536011e-01</leafValues></_>
        <_>
          <internalNodes>
            0 -1 474 -1143051682 1517755423 -620584146 -119923817
            -1485371375 -151880065 -161751857 -688455942</internalNodes>
          <leafValues>
            -3.6006522178649902e-01 2.9207280278205872e-01</leafValues></_>
        <_>
          <internalNodes>
            0 -1 330 2146383855 555740078 -293919062 -261097010
            1366666561 -1533701802 -202115230 -1263009801</internalNodes>
          <leafValues>
            -3.4643149375915527e-01 3.0469408631324768e-01</leafValues></_>
        <_>
          <internalNodes>
            0 -1 59 7348243 1966256637 1368243741 -1506372747
            -2018687497 -201328145 1780834045 1081511784</internalNodes>
          <leafValues>
            -3.1439703702926636e-01 3.3365139365196228e-01</leafValues></_>
        <_>
          <internalNodes>
            0 -1 39 265229758 -1495078162 -772639498 -1063740204
            1795129087 -1426719745 -587217074 -279055001</internalNodes>
          <leafValues>
            -3.4353917837142944e-01 3.0964618921279907e-01</leafValues></_>
        <_>
          <internalNodes>
            0 -1 167 -1628555 -1 1069560998 -172036097 -34080775
            -33718689 -851393073 -172490977</internalNodes>
          <leafValues>
            -2.9649302363395691e-01 3.7593713402748108e-01</leafValues></_>
        <_>
          <internalNodes>
            0 -1 268 939247606 843512767 -161749210 583954286 -989602422
            370652127 -76939736 -747643649</internalNodes>
          <leafValues>
            -4.8784056305885315e-01 2.1263289451599121e-01</leafValues></_></weakClassifiers></_>
    <!-- stage 10 -->
    <_>
      <maxWeakCount>20</maxWeakCount>
      <stageThreshold>-1.1952807903289795e+00</stageThreshold>
      <weakClassifiers>
        <_>
          <internalNodes>
            0 -1 309 -1024712192 -19267585 -4105 -591010058 -671088641
            -285262145 -84953095 -218677563</internalNodes>
          <leafValues>
            -4.4206008315086365e-01 5.1314544677734375e-01</leafValues></_>
        <_>
          <internalNodes>
            0 -1 288 -2126352 -555746825 -318849108 -1542 -1155666572
            -106503373 -135155875 -67114257</internalNodes>
          <leafValues>
            -3.9087817072868347e-01 3.3395671844482422e-01</leafValues></_>
        <_>
          <internalNodes>
            0 -1 417 822654480 1368469432 1037928221 -572527107
            -1112736068 -1158115588 -52494372 -1521155</internalNodes>
          <leafValues>
            -2.5602376461029053e-01 4.2386990785598755e-01</leafValues></_>
        <_>
          <internalNodes>
            0 -1 436 -581965329 5108110 1078184078 -424742738 1406757446
            919104274 1912055298 -219154558</internalNodes>
          <leafValues>
            -3.2608377933502197e-01 3.2979503273963928e-01</leafValues></_>
        <_>
          <internalNodes>
            0 -1 134 539099473 -1309245083 -1750671365 1542772117
            -2081269008 -67111617 1639842747 -977534211</internalNodes>
          <leafValues>
            -3.0597877502441406e-01 3.5247084498405457e-01</leafValues></_>
        <_>
          <internalNodes>
            0 -1 546 -131604818 -221626645 -286279136 -1026625873
            -1092702331 1669197667 -408224593 -203688193</internalNodes>
          <leafValues>
            -2.9065749049186707e-01 3.4846875071525574e-01</leafValues></_>
        <_>
          <internalNodes>
            0 -1 369 -1978990157 -537585452 -1007560705 -35843788
            -1160928579 -221723231 264889851 -1941176312</internalNodes>
          <leafValues>
            -3.3894178271293640e-01 3.0842259526252747e-01</leafValues></_>
        <_>
          <internalNodes>
            0 -1 389 -767297600 -1464900886 -788166624 15682478
            -388951258 751254283 148310562 -975329509</internalNodes>
          <leafValues>
            -4.3917179107666016e-01 2.4419775605201721e-01</leafValues></_>
        <_>
          <internalNodes>
            0 -1 51 -1934980534 -354641668 -467998522 -1429981824
            -825696585 -1599522566 -1113295668 -34625058</internalNodes>
          <leafValues>
            -5.4354631900787354e-01 1.8027409911155701e-01</leafValues></_>
        <_>
          <internalNodes>
            0 -1 531 -214279668 -86025453 -286855281 2013428041
            -457484985 -1395139837 -1352147793 -681074901</internalNodes>
          <leafValues>
            -3.3274748921394348e-01 2.9414936900138855e-01</leafValues></_>
        <_>
          <internalNodes>
            0 -1 466 41551938 -654944393 1913159647 -1822568993
            -795209256 -1738962625 807107514 -1703797482</internalNodes>
          <leafValues>
            -3.6660468578338623e-01 2.7039146423339844e-01</leafValues></_>
        <_>
          <internalNodes>
            0 -1 175 -728933238 1492350559 888271364 -1075904633
            1001143127 -691959740 1766403455 1086799330</internalNodes>
          <leafValues>
            -4.9765747785568237e-01 2.1427419781684875e-01</leafValues></_>
        <_>
          <internalNodes>
            0 -1 246 469897264 -685558684 855527901 -713702923
            -1357017926 -1687402607 629522939 -1891626768</internalNodes>
          <leafValues>
            -3.0739846825599670e-01 3.1539085507392883e-01</leafValues></_>
        <_>
          <internalNodes>
            0 -1 612 1998308506 -1740169809 -1291916692 2018037486
            2138770394 -160559851 -84505906 -495210598</internalNodes>
          <leafValues>
            -2.7220237255096436e-01 3.6484643816947937e-01</leafValues></_>
        <_>
          <internalNodes>
            0 -1 271 462009057 -1595819120 -985553592 1208876588
            675109340 677714291 830804061 1433271062</internalNodes>
          <leafValues>
            -3.6178216338157654e-01 2.8354254364967346e-01</leafValues></_>
        <_>
          <internalNodes>
            0 -1 31 -1840963329 1742295132 -1319781470 -387720657
            806465979 -356351848 1861347829 -915541031</internalNodes>
          <leafValues>
            -3.6119565367698669e-01 2.7998930215835571e-01</leafValues></_>
        <_>
          <internalNodes>
            0 -1 64 -217958620 -714113284 -950063655 -606356772
            1171193819 -2107177 -406346795 -1109440700</internalNodes>
          <leafValues>
            -2.8349441289901733e-01 3.6994537711143494e-01</leafValues></_>
        <_>
          <internalNodes>
            0 -1 453 -539224231 -170425923 -1994971903 154505103
            -478736580 1163349052 773458187 1585151566</internalNodes>
          <leafValues>
            -3.7635123729705811e-01 2.7223774790763855e-01</leafValues></_>
        <_>
          <internalNodes>
            0 -1 201 859027204 -25692033 -1380972033 -1210715804
            560118951 -17508165 -239790402 -1117134602</internalNodes>
          <leafValues>
            -5.4343914985656738e-01 1.8667790293693542e-01</leafValues></_>
        <_>
          <internalNodes>
            0 -1 30 -270308442 -1566323193 1877895154 1999484154
            -316808262 -370279450 722192881 -1009269041</internalNodes>
          <leafValues>
            -3.4946188330650330e-01 3.1221747398376465e-01</leafValues></_></weakClassifiers></_>
    <!-- stage 11 -->
    <_>
      <maxWeakCount>20</maxWeakCount>
      <stageThreshold>-1.0277131795883179e+00</stageThreshold>
      <weakClassifiers>
        <_>
          <internalNodes>
            0 -1 260 -38 278626223 -1174410622 15380202 -53282 889061375
            -8395062 1155530239</internalNodes>
          <leafValues>
            -1.9478528201580048e-01 5.4028612375259399e-01</leafValues></_>
        <_>
          <internalNodes>
            0 -1 91 -1140855617 -2297985 -1349540561 -278417809
            -805439489 -25 799854351 -816906966</internalNodes>
          <leafValues>
            -2.4691575765609741e-01 4.3346565961837769e-01</leafValues></_>
        <_>
          <internalNodes>
            0 -1 12 34800177 905187542 1146753431 389415189 299004671
            -795430 1260980475 1400646269</internalNodes>
          <leafValues>
            -3.3023962378501892e-01 3.3426031470298767e-01</leafValues></_>
        <_>
          <internalNodes>
            0 -1 468 -190318857 1467421422 -778851409 1938531274
            360715703 269166734 -1316441153 1074366155</internalNodes>
          <leafValues>
            -3.0555462837219238e-01 3.3331152796745300e-01</leafValues></_>
        <_>
          <internalNodes>
            0 -1 379 1939742655 -586088423 538268042 -1712766841
            -151385772 -201913921 -745017174 -440935443</internalNodes>
          <leafValues>
            -3.5007914900779724e-01 2.5171956419944763e-01</leafValues></_>
        <_>
          <internalNodes>
            0 -1 171 -1739604350 -282072082 -1239193824 -37752159
            1358288309 -995330055 -580991930 -168823393</internalNodes>
          <leafValues>
            -2.4290469288825989e-01 3.7690007686614990e-01</leafValues></_>
        <_>
          <internalNodes>
            0 -1 594 313788446 -543347745 -138482806 1068636443
            -80721464 -866133 -341672054 -1885327718</internalNodes>
          <leafValues>
            -3.4681156277656555e-01 2.6353284716606140e-01</leafValues></_>
        <_>
          <internalNodes>
            0 -1 112 1106376151 -1747117614 -1279381344 -3079809
            -2130633537 587333795 -148137122 1664269551</internalNodes>
          <leafValues>
            -3.5889831185340881e-01 2.7106949687004089e-01</leafValues></_>
        <_>
          <internalNodes>
            0 -1 461 -769593128 -103533520 -1008838659 -69772328
            -1599562564 -1122992016 -1180943988 -1946111672</internalNodes>
          <leafValues>
            -3.1265193223953247e-01 3.0139580368995667e-01</leafValues></_>
        <_>
          <internalNodes>
            0 -1 399 -37748850 208638267 1524507176 -856759666 459780869
            1078026536 1427047175 -1050152993</internalNodes>
          <leafValues>
            -3.7751936912536621e-01 2.6111474633216858e-01</leafValues></_>
        <_>
          <internalNodes>
            0 -1 304 -2063593008 -80740112 -1650159241 -37895115
            -1210910022 -1364126492 183540171 -988806976</internalNodes>
          <leafValues>
            -2.9428532719612122e-01 3.4797051548957825e-01</leafValues></_>
        <_>
          <internalNodes>
            0 -1 227 -280511678 475968764 287315752 -134334997
            1485552435 -466058992 -106320981 1149155171</internalNodes>
          <leafValues>
            -4.5300883054733276e-01 2.1360068023204803e-01</leafValues></_>
        <_>
          <internalNodes>
            0 -1 6 -1373471560 -1538927604 33982896 -1497591419
            -70259986 973066168 -1614085970 1057989700</internalNodes>
          <leafValues>
            -4.9489441514015198e-01 1.9116751849651337e-01</leafValues></_>
        <_>
          <internalNodes>
            0 -1 557 33558608 -784512928 39392351 1507810494 -1744131952
            -1900386050 135304942 974688697</internalNodes>
          <leafValues>
            -3.3046352863311768e-01 2.6898333430290222e-01</leafValues></_>
        <_>
          <internalNodes>
            0 -1 386 143472518 1675489442 640625802 -1509169114
            1379303176 292767767 860355331 1127730039</internalNodes>
          <leafValues>
            -5.0546491146087646e-01 1.9359655678272247e-01</leafValues></_>
        <_>
          <internalNodes>
            0 -1 3 -1006323456 -112188166 -1618153551 -572939013
            -1414792705 -343942690 -939659125 -1677780738</internalNodes>
          <leafValues>
            -2.9625067114830017e-01 3.2520279288291931e-01</leafValues></_>
        <_>
          <internalNodes>
            0 -1 322 1504706559 -2119706813 -1347670548 1751483055
            2113785564 1173741038 1979451982 -153638289</internalNodes>
          <leafValues>
            -2.4490629136562347e-01 3.8322275876998901e-01</leafValues></_>
        <_>
          <internalNodes>
            0 -1 9 -2131850774 2031796740 1305494011 1977178568
            1616574399 -45504101 577992875 568029323</internalNodes>
          <leafValues>
            -5.1127195358276367e-01 1.9133415818214417e-01</leafValues></_>
        <_>
          <internalNodes>
            0 -1 606 710888294 2010871766 -967676402 1852286602
            -15507712 -1222034688 1918487832 -498804905</internalNodes>
          <leafValues>
            -4.4491967558860779e-01 2.1138399839401245e-01</leafValues></_>
        <_>
          <internalNodes>
            0 -1 297 -2076176363 -646013744 962802169 -717380251
            -1914138470 -403272263 707580351 -1966327368</internalNodes>
          <leafValues>
            -2.2261229157447815e-01 4.1613870859146118e-01</leafValues></_></weakClassifiers></_>
    <!-- stage 12 -->
    <_>
      <maxWeakCount>22</maxWeakCount>
      <stageThreshold>-1.1636372804641724e+00</stageThreshold>
      <weakClassifiers>
        <_>
          <internalNodes>
            0 -1 17 -2099771360 -16781346 1885391360 -604132390 -262273
            -268435457 -288505927 -1999117343</internalNodes>
          <leafValues>
            -3.8720539212226868e-01 4.9433898925781250e-01</leafValues></_>
        <_>
          <internalNodes>
            0 -1 296 1073742044 -184807844 792112511 -1135108 -981201188
            -1078083620 1072889263 -19378248</internalNodes>
          <leafValues>
            -2.5317487120628357e-01 3.7742042541503906e-01</leafValues></_>
        <_>
          <internalNodes>
            0 -1 97 2891795 918499447 1416930933 -608698884 328144119
            -2629633 8865713 -1470236680</internalNodes>
          <leafValues>
            -2.8467875719070435e-01 3.3233439922332764e-01</leafValues></_>
        <_>
          <internalNodes>
            0 -1 164 863959551 -1980673977 -641626578 1189066439 9102203
            1081344 -209847505 -9440434</internalNodes>
          <leafValues>
            -3.4692421555519104e-01 2.8037786483764648e-01</leafValues></_>
        <_>
          <internalNodes>
            0 -1 574 -17832310 1795136494 -901559228 1121926909
            -1279027963 -199545677 -428490102 -134742273</internalNodes>
          <leafValues>
            -3.1683024764060974e-01 3.0491593480110168e-01</leafValues></_>
        <_>
          <internalNodes>
            0 -1 371 -2140495727 -139743462 1531248625 -207777031
            -1450528787 -1971150711 1401135097 -845084656</internalNodes>
          <leafValues>
            -3.1126278638839722e-01 2.8541627526283264e-01</leafValues></_>
        <_>
          <internalNodes>
            0 -1 337 -372346976 -523478057 -1818037788 -973159425
            -1152169659 542587186 -570630353 -1845493777</internalNodes>
          <leafValues>
            -4.9395579099655151e-01 1.7265707254409790e-01</leafValues></_>
        <_>
          <internalNodes>
            0 -1 571 -388644 -687972993 -485333458 976419530 -881909976
            -656582639 -638298974 -54894610</internalNodes>
          <leafValues>
            -3.2491606473922729e-01 2.6791414618492126e-01</leafValues></_>
        <_>
          <internalNodes>
            0 -1 381 -1653604441 147299691 -67240222 -1460667705
            1459053382 217579519 -167912702 -688916529</internalNodes>
          <leafValues>
            -2.5649252533912659e-01 3.4203052520751953e-01</leafValues></_>
        <_>
          <internalNodes>
            0 -1 501 -219021231 -89038920 -159482245 2016793469
            -1338716536 -654727576 -520570150 -2011138023</internalNodes>
          <leafValues>
            -2.7798539400100708e-01 3.3371144533157349e-01</leafValues></_>
        <_>
          <internalNodes>
            0 -1 195 2627633 -202222512 363608945 -699179 -1531856655
            -837218958 203735027 -1937502768</internalNodes>
          <leafValues>
            -2.4133647978305817e-01 3.6767953634262085e-01</leafValues></_>
        <_>
          <internalNodes>
            0 -1 550 -203446705 -310379925 -1196655050 1644886778
            -8534066 813505905 -73842 -11542609</internalNodes>
          <leafValues>
            -1.9672262668609619e-01 4.3638613820075989e-01</leafValues></_>
        <_>
          <internalNodes>
            0 -1 80 -704768145 1431310421 1807741228 -235022465
            138992573 -1861744440 -518128407 -317224595</internalNodes>
          <leafValues>
            -3.6992341279983521e-01 2.5360819697380066e-01</leafValues></_>
        <_>
          <internalNodes>
            0 -1 226 -8017006 -196088202 -2022873340 -772161811
            -956893246 -1068015675 369095490 -201331241</internalNodes>
          <leafValues>
            -2.4293935298919678e-01 3.8792335987091064e-01</leafValues></_>
        <_>
          <internalNodes>
            0 -1 593 1831998996 -2359517 -752159373 -550805573
            -1611604167 -310127325 -90046550 -567300294</internalNodes>
          <leafValues>
            -3.1165137887001038e-01 3.0631849169731140e-01</leafValues></_>
        <_>
          <internalNodes>
            0 -1 452 -672079905 -1317238870 804763419 27599179
            -704691972 -76251138 728170635 -2645286</internalNodes>
          <leafValues>
            -2.1818546950817108e-01 3.9679196476936340e-01</leafValues></_>
        <_>
          <internalNodes>
            0 -1 513 -881728850 457872284 1074172810 -295767622
            1081719875 606014014 1675997447 -479732805</internalNodes>
          <leafValues>
            -3.0598399043083191e-01 3.1015813350677490e-01</leafValues></_>
        <_>
          <internalNodes>
            0 -1 27 113814198 -1027682562 373790014 -1009190728
            -1887984209 -1968002663 -1537932148 -827341087</internalNodes>
          <leafValues>
            -3.3147552609443665e-01 2.7317699790000916e-01</leafValues></_>
        <_>
          <internalNodes>
            0 -1 465 1624526869 343362943 -594454017 914112607
            -522847075 -36107188 -1052701793 822166315</internalNodes>
          <leafValues>
            -4.1531231999397278e-01 2.1349564194679260e-01</leafValues></_>
        <_>
          <internalNodes>
            0 -1 128 18879920 -712428896 481849525 1604129233 304126894
            -1410397522 1023606719 -1696656228</internalNodes>
          <leafValues>
            -2.6307913661003113e-01 3.4613022208213806e-01</leafValues></_>
        <_>
          <internalNodes>
            0 -1 152 -287332408 -2104880250 341163952 -236986024
            -1554994958 -2134801020 -1313763056 -649080429</internalNodes>
          <leafValues>
            -2.9482370615005493e-01 2.9578563570976257e-01</leafValues></_>
        <_>
          <internalNodes>
            0 -1 613 -142624030 -645976118 -285324584 1383918331
            -1082260224 -531183856 -665124982 -75499746</internalNodes>
          <leafValues>
            -2.6482129096984863e-01 3.2726114988327026e-01</leafValues></_></weakClassifiers></_>
    <!-- stage 13 -->
    <_>
      <maxWeakCount>25</maxWeakCount>
      <stageThreshold>-1.1251168251037598e+00</stageThreshold>
      <weakClassifiers>
        <_>
          <internalNodes>
            0 -1 70 -218533142 1560215551 1877636852 -1605901 2146959355
            -1342177281 -524290 -403177514</internalNodes>
          <leafValues>
            -4.5705521106719971e-01 4.8859825730323792e-01</leafValues></_>
        <_>
          <internalNodes>
            0 -1 344 -1519272965 -1409309761 -2019612133 -1414059869
            -947777 -33947665 -50396613 -138691653</internalNodes>
          <leafValues>
            -2.3296530544757843e-01 3.9252203702926636e-01</leafValues></_>
        <_>
          <internalNodes>
            0 -1 429 -176298233 1465252115 -605236865 -732848113
            -1596149521 -2139586471 541389038 1933672966</internalNodes>
          <leafValues>
            -4.1138115525245667e-01 2.4037179350852966e-01</leafValues></_>
        <_>
          <internalNodes>
            0 -1 397 1372520446 -1962738938 -1806822464 495510506
            1394491356 890881569 -606243048 -67371041</internalNodes>
          <leafValues>
            -3.5642054677009583e-01 2.4494630098342896e-01</leafValues></_>
        <_>
          <internalNodes>
            0 -1 592 41681924 -33868297 2055011839 -40683073 -1653428358
            -147822 -99304470 -1080001622</internalNodes>
          <leafValues>
            -3.2093682885169983e-01 2.7124074101448059e-01</leafValues></_>
        <_>
          <internalNodes>
            0 -1 475 -27682 -1027082450 1917591564 -2066881396
            1909782275 863215866 -1670031548 -176947362</internalNodes>
          <leafValues>
            -3.9845785498619080e-01 2.1164323389530182e-01</leafValues></_>
        <_>
          <internalNodes>
            0 -1 65 565375392 -139730703 1476350839 -675367754 632271863
            -269491713 502719484 -1091702668</internalNodes>
          <leafValues>
            -2.3388235270977020e-01 3.5435187816619873e-01</leafValues></_>
        <_>
          <internalNodes>
            0 -1 540 -1678788918 1224060927 -1644024288 -1562329346
            -536887563 107462559 -8407410 -211816785</internalNodes>
          <leafValues>
            -2.6035445928573608e-01 3.2558122277259827e-01</leafValues></_>
        <_>
          <internalNodes>
            0 -1 244 -2079413955 -172971147 -83829825 -575471343
            -1285311747 -67520121 -369036524 -384826886</internalNodes>
          <leafValues>
            -3.1166288256645203e-01 2.6897320151329041e-01</leafValues></_>
        <_>
          <internalNodes>
            0 -1 270 -210535428 409236143 1515205408 8321166 286314727
            1082736661 2099747627 -243271729</internalNodes>
          <leafValues>
            -3.9976981282234192e-01 2.0239533483982086e-01</leafValues></_>
        <_>
          <internalNodes>
            0 -1 94 671092880 -1719336944 491722971 1473335313
            -1332509989 -1423394094 268982235 1494813848</internalNodes>
          <leafValues>
            -3.2161971926689148e-01 2.6116481423377991e-01</leafValues></_>
        <_>
          <internalNodes>
            0 -1 119 -1075352670 -1366903831 -1567907680 -257451224
            -605432969 1313784530 1471637088 -984683695</internalNodes>
          <leafValues>
            -3.8011515140533447e-01 2.2212940454483032e-01</leafValues></_>
        <_>
          <internalNodes>
            0 -1 413 -550177316 -167950612 87295484 1602029897
            -545739798 142775261 487111323 -172260625</internalNodes>
          <leafValues>
            -2.4292062222957611e-01 3.4794872999191284e-01</leafValues></_>
        <_>
          <internalNodes>
            0 -1 582 -211827541 1753188218 -83852678 841022219
            -1152056690 -26260383 -208233847 -631570722</internalNodes>
          <leafValues>
            -2.3691119253635406e-01 3.5460138320922852e-01</leafValues></_>
        <_>
          <internalNodes>
            0 -1 256 830260636 -486420384 1769023012 1129147566
            1158623293 276856866 1933968902 609744231</internalNodes>
          <leafValues>
            -5.5639922618865967e-01 1.5820297598838806e-01</leafValues></_>
        <_>
          <internalNodes>
            0 -1 26 655299003 -141601035 -77077656 -540673184 -282591329
            -340499203 -1041823479 -573050386</internalNodes>
          <leafValues>
            -2.0566195249557495e-01 4.3316486477851868e-01</leafValues></_>
        <_>
          <internalNodes>
            0 -1 516 2056455944 1958079583 -904903672 1655764815
            -1746006782 588530527 -1325409006 1894084471</internalNodes>
          <leafValues>
            -5.1273751258850098e-01 1.7206943035125732e-01</leafValues></_>
        <_>
          <internalNodes>
            0 -1 198 537002584 -556396453 -217123361 -1969714951
            -2117486148 -72701699 -804899416 -1907049712</internalNodes>
          <leafValues>
            -2.9739856719970703e-01 2.8499457240104675e-01</leafValues></_>
        <_>
          <internalNodes>
            0 -1 248 -525863069 -11276365 1879048191 -4212741 1174271749
            -239075459 1911919431 1345443009</internalNodes>
          <leafValues>
            -2.7799916267395020e-01 3.0179381370544434e-01</leafValues></_>
        <_>
          <internalNodes>
            0 -1 601 -35846497 -1724149773 2076073302 2138066750
            -1141563396 -1075976853 -1075971864 -12928309</internalNodes>
          <leafValues>
            -1.9173674285411835e-01 4.3787613511085510e-01</leafValues></_>
        <_>
          <internalNodes>
            0 -1 154 -1434415228 -1965699187 -1487598427 233809359
            355590641 261339899 -133293110 -1111538161</internalNodes>
          <leafValues>
            -3.5805848240852356e-01 2.4015016853809357e-01</leafValues></_>
        <_>
          <internalNodes>
            0 -1 187 1401658410 187409056 1147269264 -141823676
            482293780 -2144015344 1159218640 -848846146</internalNodes>
          <leafValues>
            -3.0481234192848206e-01 2.7658769488334656e-01</leafValues></_>
        <_>
          <internalNodes>
            0 -1 238 -32875 -75661383 -18518779 -1079100509 -1086326740
            890746639 792132654 -1893030961</internalNodes>
          <leafValues>
            -2.5265362858772278e-01 3.3771941065788269e-01</leafValues></_>
        <_>
          <internalNodes>
            0 -1 628 872091679 2079291772 -1147119873 1203724111
            -110722270 -565432604 -417270338 -285027597</internalNodes>
          <leafValues>
            -2.3648796975612640e-01 3.6643838882446289e-01</leafValues></_>
        <_>
          <internalNodes>
            0 -1 273 -167647400 -1989897782 -1673250254 1828122488
            1128366240 740933715 1942819542 212859366</internalNodes>
          <leafValues>
            -4.7485351562500000e-01 1.8846249580383301e-01</leafValues></_></weakClassifiers></_>
    <!-- stage 14 -->
    <_>
      <maxWeakCount>24</maxWeakCount>
      <stageThreshold>-1.0197678804397583e+00</stageThreshold>
      <weakClassifiers>
        <_>
          <internalNodes>
            0 -1 189 -201462272 -218103826 -805380242 -483390 2130179568
            -723451917 -176333345 -89132069</internalNodes>
          <leafValues>
            -4.2577676475048065e-02 5.5145549774169922e-01</leafValues></_>
        <_>
          <internalNodes>
            0 -1 352 -2080368624 -238801032 1946057085 -1612800578
            -849027332 -491884 -269942792 -30692712</internalNodes>
          <leafValues>
            -2.3019258677959442e-01 3.4852731227874756e-01</leafValues></_>
        <_>
          <internalNodes>
            0 -1 463 -311089389 -169965219 -53169953 -719717681
            -1010304289 -1064713654 -712775505 -948526762</internalNodes>
          <leafValues>
            -3.8241937756538391e-01 2.1996229887008667e-01</leafValues></_>
        <_>
          <internalNodes>
            0 -1 536 -287487478 -96550169 -889263030 -1301122642
            -1409294586 919041383 -795547425 -256919169</internalNodes>
          <leafValues>
            -3.3429154753684998e-01 2.3213410377502441e-01</leafValues></_>
        <_>
          <internalNodes>
            0 -1 411 -268250384 -1163884328 -1270044207 -775871876
            -1043926884 -60774782 -192619589 -535105</internalNodes>
          <leafValues>
            -1.9404818117618561e-01 4.0481251478195190e-01</leafValues></_>
        <_>
          <internalNodes>
            0 -1 493 3145797 -665321601 -96217601 -216113699 -2087151670
            -65598883 -98034241 -1695995266</internalNodes>
          <leafValues>
            -2.9715430736541748e-01 2.6624307036399841e-01</leafValues></_>
        <_>
          <internalNodes>
            0 -1 109 1809839217 1913996567 2039980192 -604702222
            -1987362123 -1902567166 -411617036 -514920073</internalNodes>
          <leafValues>
            -4.1138511896133423e-01 1.9538317620754242e-01</leafValues></_>
        <_>
          <internalNodes>
            0 -1 440 -1590289 1286593999 -822116638 -1469055537
            1873671687 -1619533833 -1032336125 -825237529</internalNodes>
          <leafValues>
            -2.6267486810684204e-01 3.1557083129882812e-01</leafValues></_>
        <_>
          <internalNodes>
            0 -1 367 -1808787952 -193841865 -632850851 67530629
            -2002483072 -1597133671 1211676346 -1878521320</internalNodes>
          <leafValues>
            -3.0337655544281006e-01 2.6891145110130310e-01</leafValues></_>
        <_>
          <internalNodes>
            0 -1 144 774840906 -991906161 -1289095568 -168340512
            -165727309 1694087095 2010479008 1979184742</internalNodes>
          <leafValues>
            -3.7668088078498840e-01 2.0997905731201172e-01</leafValues></_>
        <_>
          <internalNodes>
            0 -1 547 -1392573942 1615911438 -1501672958 276999770
            2084389184 1430481990 -1602993326 1885837438</internalNodes>
          <leafValues>
            -5.2161872386932373e-01 1.4303763210773468e-01</leafValues></_>
        <_>
          <internalNodes>
            0 -1 161 579985521 -250716045 1295012305 -681290512 95646198
            -1207716894 1143883205 1090523571</internalNodes>
          <leafValues>
            -3.7052303552627563e-01 2.1433831751346588e-01</leafValues></_>
        <_>
          <internalNodes>
            0 -1 237 -590598145 -391186881 -292149205 -1453520625
            1342102899 1308622847 -277115597 -8396849</internalNodes>
          <leafValues>
            -2.6847854256629944e-01 2.9859954118728638e-01</leafValues></_>
        <_>
          <internalNodes>
            0 -1 43 -1506922575 -1937592832 1683889649 -1407286024
            -1496612881 -1791891276 1339532148 -1131565864</internalNodes>
          <leafValues>
            -3.6417499184608459e-01 2.0942558348178864e-01</leafValues></_>
        <_>
          <internalNodes>
            0 -1 282 -54582720 1700467829 -453660882 -1879673490
            113179172 913598817 1300456236 1196289396</internalNodes>
          <leafValues>
            -5.6540465354919434e-01 1.5408684313297272e-01</leafValues></_>
        <_>
          <internalNodes>
            0 -1 553 -1975313842 72696181 1077985454 1111547294
            -129537778 1421897828 -1594053432 -262754565</internalNodes>
          <leafValues>
            -3.2584884762763977e-01 2.4953578412532806e-01</leafValues></_>
        <_>
          <internalNodes>
            0 -1 570 779824642 -495586257 437420108 -1335942233
            -943342910 1684361697 -79630598 -261883009</internalNodes>
          <leafValues>
            -3.0178281664848328e-01 2.7161356806755066e-01</leafValues></_>
        <_>
          <internalNodes>
            0 -1 69 765980964 2045472442 -315786256 -134223106
            -1890623683 -1579224321 -838922019 -478442236</internalNodes>
          <leafValues>
            -2.6673534512519836e-01 2.9858794808387756e-01</leafValues></_>
        <_>
          <internalNodes>
            0 -1 598 1620707406 -562817195 598638446 131621870 -16877940
            -33964585 -89481506 -23558118</internalNodes>
          <leafValues>
            -2.7422648668289185e-01 3.0264571309089661e-01</leafValues></_>
        <_>
          <internalNodes>
            0 -1 398 -1292461382 -114953785 -860819720 1618843635
            2033415132 2075007745 -80197800 1399699563</internalNodes>
          <leafValues>
            -3.6915287375450134e-01 2.1784700453281403e-01</leafValues></_>
        <_>
          <internalNodes>
            0 -1 60 1217179466 -1602767371 810370111 2129658090
            -1826520078 719753408 2063082154 -1414881045</internalNodes>
          <leafValues>
            -5.3369617462158203e-01 1.5254572033882141e-01</leafValues></_>
        <_>
          <internalNodes>
            0 -1 230 -185505014 1893945707 -177310940 634203110
            -341501060 72249821 670137186 83884875</internalNodes>
          <leafValues>
            -5.3155338764190674e-01 1.4159509539604187e-01</leafValues></_>
        <_>
          <internalNodes>
            0 -1 249 -708898569 -153012208 -101231239 -680172524
            -1327040270 -566052893 401928630 -1921775999</internalNodes>
          <leafValues>
            -2.0304955542087555e-01 4.2607063055038452e-01</leafValues></_>
        <_>
          <internalNodes>
            0 -1 217 -5165334 751281646 1940037440 -825229643 1471372594
            360138612 1699477280 1373616461</internalNodes>
          <leafValues>
            -3.4781786799430847e-01 2.4406722187995911e-01</leafValues></_></weakClassifiers></_>
    <!-- stage 15 -->
    <_>
      <maxWeakCount>25</maxWeakCount>
      <stageThreshold>-1.0390224456787109e+00</stageThreshold>
      <weakClassifiers>
        <_>
          <internalNodes>
            0 -1 315 1341063150 -487653401 -755080472 552533998
            -302057536 -136380428 2012477252 -201588785</internalNodes>
          <leafValues>
            -3.1785714626312256e-01 4.9913436174392700e-01</leafValues></_>
        <_>
          <internalNodes>
            0 -1 125 -52975602 -19082762 727813391 -1355972223
            -622748161 1594860261 -553501427 1326168367</internalNodes>
          <leafValues>
            -3.5719200968742371e-01 2.4786849319934845e-01</leafValues></_>
        <_>
          <internalNodes>
            0 -1 142 -225 -1073807377 -536923218 -524305 2013257695
            2013265915 -973668353 -16786083</internalNodes>
          <leafValues>
            -2.8801938891410828e-01 2.9527246952056885e-01</leafValues></_>
        <_>
          <internalNodes>
            0 -1 450 -210763777 -1075446851 -1342227824 -1142248790
            -545320372 -1384173763 -539623348 -111156758</internalNodes>
          <leafValues>
            -2.7668720483779907e-01 3.0959895253181458e-01</leafValues></_>
        <_>
          <internalNodes>
            0 -1 368 -202463532 20518079 -105655305 -471289089 809923415
            3342459 1984397079 897038255</internalNodes>
          <leafValues>
            -3.6340939998626709e-01 2.1396312117576599e-01</leafValues></_>
        <_>
          <internalNodes>
            0 -1 538 -67244530 -536873190 -1475843410 307927654
            -1363678714 125385264 -1352492850 -495453558</internalNodes>
          <leafValues>
            -3.5205999016761780e-01 2.0393139123916626e-01</leafValues></_>
        <_>
          <internalNodes>
            0 -1 462 402653392 -679929615 222329841 2068654577 918856427
            -1120984912 515417082 -1919413016</internalNodes>
          <leafValues>
            -2.8782156109809875e-01 2.7808770537376404e-01</leafValues></_>
        <_>
          <internalNodes>
            0 -1 185 -1208224022 -5266816 -1263758302 -548418832
            1530766227 231337585 1170568580 -576723539</internalNodes>
          <leafValues>
            -2.3525881767272949e-01 3.4252363443374634e-01</leafValues></_>
        <_>
          <internalNodes>
            0 -1 55 6357201 1568937511 454432073 -855635812 788594595
            -72951542 1325513393 228196571</internalNodes>
          <leafValues>
            -4.0918743610382080e-01 2.0392559468746185e-01</leafValues></_>
        <_>
          <internalNodes>
            0 -1 445 -755664928 29614476 -1450540794 652731971 300167971
            1227037011 1941435235 -188223317</internalNodes>
          <leafValues>
            -3.7769737839698792e-01 2.0537775754928589e-01</leafValues></_>
        <_>
          <internalNodes>
            0 -1 459 -260041264 1971129863 490605165 2139039224
            -1605697537 -330007700 -600261893 -1851925</internalNodes>
          <leafValues>
            -2.1835988759994507e-01 3.8260081410408020e-01</leafValues></_>
        <_>
          <internalNodes>
            0 -1 78 -1969084510 -58699892 282194902 -579016068
            1807477175 -353556204 72262816 -732441834</internalNodes>
          <leafValues>
            -2.9461163282394409e-01 2.7049660682678223e-01</leafValues></_>
        <_>
          <internalNodes>
            0 -1 275 1915396270 1779409540 1646225568 1122353160
            1371240341 1081128194 1897871237 1464727114</internalNodes>
          <leafValues>
            -4.3548294901847839e-01 1.7580726742744446e-01</leafValues></_>
        <_>
          <internalNodes>
            0 -1 510 540004011 -1429599990 -1073658608 -200433201
            651140067 1613163266 -458000637 -973078561</internalNodes>
          <leafValues>
            -2.7860468626022339e-01 2.6798450946807861e-01</leafValues></_>
        <_>
          <internalNodes>
            0 -1 469 8258062 852531709 1406533469 963041622 -1039021640
            -1647503781 1376083384 843784202</internalNodes>
          <leafValues>
            -3.5875785350799561e-01 2.1656243503093719e-01</leafValues></_>
        <_>
          <internalNodes>
            0 -1 13 143167704 -1436481416 1495449079 -104766992
            -1492472641 -1344656471 -1685268241 -1681157160</internalNodes>
          <leafValues>
            -2.4014604091644287e-01 3.3943018317222595e-01</leafValues></_>
        <_>
          <internalNodes>
            0 -1 191 -1498090532 -305450337 -89947090 -2019217457
            1133469549 -886865014 -68211409 -844668937</internalNodes>
          <leafValues>
            -3.5289919376373291e-01 2.2307571768760681e-01</leafValues></_>
        <_>
          <internalNodes>
            0 -1 472 -151266955 813315071 -89128965 2067758966
            -251728386 -1812465811 -252379142 -253479044</internalNodes>
          <leafValues>
            -2.2963276505470276e-01 3.4040343761444092e-01</leafValues></_>
        <_>
          <internalNodes>
            0 -1 37 -1374805344 -1939325916 -1823763375 -1968299481
            -1345589133 -1941199709 407047220 485448917</internalNodes>
          <leafValues>
            -5.0965678691864014e-01 1.4902365207672119e-01</leafValues></_>
        <_>
          <internalNodes>
            0 -1 331 939438071 -605558153 -1242648692 -1118545
            -413139521 -1082820761 715442107 1902569087</internalNodes>
          <leafValues>
            -2.3858146369457245e-01 3.2925584912300110e-01</leafValues></_>
        <_>
          <internalNodes>
            0 -1 212 -94948353 867668871 381755532 1886580452 33554474
            163578698 -1459416384 1442305727</internalNodes>
          <leafValues>
            -2.7515074610710144e-01 2.8351622819900513e-01</leafValues></_>
        <_>
          <internalNodes>
            0 -1 148 1885218086 846607836 -1904533972 -2088778554
            -1950667937 -455186172 -101856846 1725302731</internalNodes>
          <leafValues>
            -5.1303952932357788e-01 1.5450677275657654e-01</leafValues></_>
        <_>
          <internalNodes>
            0 -1 596 -965082088 -546803524 548101229 -1613795054
            1608392541 -246099673 1264255947 1223639226</internalNodes>
          <leafValues>
            -4.2199054360389709e-01 1.9470471143722534e-01</leafValues></_>
        <_>
          <internalNodes>
            0 -1 117 124907065 457745392 -2132942750 1462337680
            -1435107613 571094591 170854653 -114465289</internalNodes>
          <leafValues>
            -2.6019242405891418e-01 3.1312152743339539e-01</leafValues></_>
        <_>
          <internalNodes>
            0 -1 639 -1647886628 -74760325 -690996690 1549228899
            -703021520 -137971182 -1432321933 -905388464</internalNodes>
          <leafValues>
            -3.0319121479988098e-01 2.6396039128303528e-01</leafValues></_></weakClassifiers></_>
    <!-- stage 16 -->
    <_>
      <maxWeakCount>26</maxWeakCount>
      <stageThreshold>-1.1159045696258545e+00</stageThreshold>
      <weakClassifiers>
        <_>
          <internalNodes>
            0 -1 201 857880064 -8946889 -12701921 930472812 1060284335
            -8912901 2004219535 -1251608714</internalNodes>
          <leafValues>
            -3.1618145108222961e-01 4.8481497168540955e-01</leafValues></_>
        <_>
          <internalNodes>
            0 -1 478 -170393605 1129304366 1079607680 -1785878065
            1441081090 1801832967 1400463362 -210240601</internalNodes>
          <leafValues>
            -2.7579522132873535e-01 3.1165832281112671e-01</leafValues></_>
        <_>
          <internalNodes>
            0 -1 354 822668508 1471180792 -105316867 -142954652
            366259964 -1111136523 -1695367192 -392111040</internalNodes>
          <leafValues>
            -2.6724427938461304e-01 3.1565040349960327e-01</leafValues></_>
        <_>
          <internalNodes>
            0 -1 405 -174982145 -1691700326 -2049022960 145392146
            1662717272 719016579 -757137332 -142085493</internalNodes>
          <leafValues>
            -2.7995556592941284e-01 2.8158721327781677e-01</leafValues></_>
        <_>
          <internalNodes>
            0 -1 204 -454037521 -178921215 -511351019 -250338939
            1133899727 -6111191 1303085435 295813281</internalNodes>
          <leafValues>
            -3.4558030962944031e-01 2.1032333374023438e-01</leafValues></_>
        <_>
          <internalNodes>
            0 -1 162 1475256156 338534528 1107428289 544995627
            -1422221179 162441344 -146683767 1431933379</internalNodes>
          <leafValues>
            -4.2194476723670959e-01 1.5389063954353333e-01</leafValues></_>
        <_>
          <internalNodes>
            0 -1 633 1486095444 -12904725 1229538047 -579738121
            -1310409711 -94934374 -1908359169 -1857019698</internalNodes>
          <leafValues>
            -2.9920709133148193e-01 2.4381066858768463e-01</leafValues></_>
        <_>
          <internalNodes>
            0 -1 241 1143933188 -1138965066 1865027341 1202585387
            -1708788875 974707277 -1088479425 1605085951</internalNodes>
          <leafValues>
            -3.7993001937866211e-01 1.8984429538249969e-01</leafValues></_>
        <_>
          <internalNodes>
            0 -1 157 287453491 2138087799 -36309121 1571959077
            -1812016394 -1073811499 -27512837 -1942158233</internalNodes>
          <leafValues>
            -2.4178987741470337e-01 3.0857455730438232e-01</leafValues></_>
        <_>
          <internalNodes>
            0 -1 396 1502908366 173998 -381599488 1623712715 -944281754
            1149047102 321878594 -1069159454</internalNodes>
          <leafValues>
            -4.3833354115486145e-01 1.8518808484077454e-01</leafValues></_>
        <_>
          <internalNodes>
            0 -1 432 -14942210 -1850671076 564113834 1234243586
            357829838 537792234 1965367556 1431808990</internalNodes>
          <leafValues>
            -4.5424273610115051e-01 1.5579974651336670e-01</leafValues></_>
        <_>
          <internalNodes>
            0 -1 512 1054223880 1060988702 2014445676 382864709
            1467445284 609531677 -2123187221 81042403</internalNodes>
          <leafValues>
            -4.4610068202018738e-01 1.6704380512237549e-01</leafValues></_>
        <_>
          <internalNodes>
            0 -1 84 1629204648 1155209713 -1203755648 1618866954
            1368822117 2071044988 1561638412 550288330</internalNodes>
          <leafValues>
            -5.9148347377777100e-01 1.1634602397680283e-01</leafValues></_>
        <_>
          <internalNodes>
            0 -1 430 -1213257838 -28113664 957472125 -1824109047
            -1077564002 -1399311876 84978328 -2146429438</internalNodes>
          <leafValues>
            -3.1868106126785278e-01 2.3649758100509644e-01</leafValues></_>
        <_>
          <internalNodes>
            0 -1 415 1343489224 -390372 578881305 501024629 -1295776770
            -1322966909 582036191 326705179</internalNodes>
          <leafValues>
            -2.7615320682525635e-01 2.6582986116409302e-01</leafValues></_>
        <_>
          <internalNodes>
            0 -1 499 1140031566 -134742017 -138477639 866670522
            -1598376711 -286333082 -470878326 -234574518</internalNodes>
          <leafValues>
            -2.5053852796554565e-01 3.1075409054756165e-01</leafValues></_>
        <_>
          <internalNodes>
            0 -1 228 -1678771541 -206970293 -120086366 -1756365184
            2007459829 -2130672722 1170399552 -536874618</internalNodes>
          <leafValues>
            -2.0466718077659607e-01 3.7378188967704773e-01</leafValues></_>
        <_>
          <internalNodes>
            0 -1 25 -1440492133 -827530024 -856179312 -911839336
            -1410531329 -302075970 442075086 -1981987704</internalNodes>
          <leafValues>
            -2.6244291663169861e-01 2.9831480979919434e-01</leafValues></_>
        <_>
          <internalNodes>
            0 -1 380 436187823 888365952 -245993202 552524782 -794040028
            2098549124 -249417468 -171568217</internalNodes>
          <leafValues>
            -3.3305129408836365e-01 2.3235581815242767e-01</leafValues></_>
        <_>
          <internalNodes>
            0 -1 114 -1026743130 620572910 -402670840 -591928932
            1404305398 564540281 365123378 1153680959</internalNodes>
          <leafValues>
            -4.2454195022583008e-01 1.7525522410869598e-01</leafValues></_>
        <_>
          <internalNodes>
            0 -1 428 -1609563048 -1808783686 2046884955 102096271
            -1064781672 -1469106962 -1878086692 -1608500949</internalNodes>
          <leafValues>
            -2.9811102151870728e-01 2.5238487124443054e-01</leafValues></_>
        <_>
          <internalNodes>
            0 -1 482 -92388476 1027590398 525617194 815094238 1725677568
            374729841 1837574850 1349385298</internalNodes>
          <leafValues>
            -4.9689534306526184e-01 1.6173711419105530e-01</leafValues></_>
        <_>
          <internalNodes>
            0 -1 610 316016156 -151949253 843852802 978592573 -28175768
            -572257383 -283867670 1647970138</internalNodes>
          <leafValues>
            -3.8871517777442932e-01 1.9438134133815765e-01</leafValues></_>
        <_>
          <internalNodes>
            0 -1 90 532641212 -91477720 365393529 -1246369664 719694565
            -1987229684 333516992 218070220</internalNodes>
          <leafValues>
            -3.4033361077308655e-01 2.2445635497570038e-01</leafValues></_>
        <_>
          <internalNodes>
            0 -1 518 -606647450 293558091 -2109429048 -770461030
            -788559040 625210369 -151085050 1969747595</internalNodes>
          <leafValues>
            -3.5389360785484314e-01 2.1594224870204926e-01</leafValues></_>
        <_>
          <internalNodes>
            0 -1 348 1365252432 -624542595 94947789 1701606245
            -512189964 -499936543 -1937921096 -874145362</internalNodes>
          <leafValues>
            -3.2137715816497803e-01 2.4718403816223145e-01</leafValues></_></weakClassifiers></_>
    <!-- stage 17 -->
    <_>
      <maxWeakCount>26</maxWeakCount>
      <stageThreshold>-8.6533641815185547e-01</stageThreshold>
      <weakClassifiers>
        <_>
          <internalNodes>
            0 -1 307 8563643 -4219149 -570559265 -34080595 150975991
            -1494245378 1140594045 75895008</internalNodes>
          <leafValues>
            -4.6752430498600006e-02 5.3568941354751587e-01</leafValues></_>
        <_>
          <internalNodes>
            0 -1 266 2105530862 817274126 1867883630 543615726
            -1862201139 60506282 -643968098 830458799</internalNodes>
          <leafValues>
            -4.8154544830322266e-01 1.7738944292068481e-01</leafValues></_>
        <_>
          <internalNodes>
            0 -1 8 15663310 1441837481 1410682847 495337928 -109985793
            -4460375 1083787750 -1141258517</internalNodes>
          <leafValues>
            -4.5232352614402771e-01 1.5416868031024933e-01</leafValues></_>
        <_>
          <internalNodes>
            0 -1 402 -633604166 732100410 -700281292 -1414993184
            1899986776 1036742683 -204113576 -9961733</internalNodes>
          <leafValues>
            -3.0510815978050232e-01 2.3242825269699097e-01</leafValues></_>
        <_>
          <internalNodes>
            0 -1 295 1427762960 -644426235 -1646155299 1966710456
            -1082668043 -1208120415 -300306568 -1076106328</internalNodes>
          <leafValues>
            -2.6828914880752563e-01 2.7130663394927979e-01</leafValues></_>
        <_>
          <internalNodes>
            0 -1 543 -1292124502 284802367 -1094820338 42744574
            -269709430 1181695831 -542115317 -213389313</internalNodes>
          <leafValues>
            -2.4948349595069885e-01 2.9092922806739807e-01</leafValues></_>
        <_>
          <internalNodes>
            0 -1 111 123872650 -705975674 366724120 -7872697 1116408825
            1810447299 -1987366556 87288611</internalNodes>
          <leafValues>
            -3.2658362388610840e-01 2.1175350248813629e-01</leafValues></_>
        <_>
          <internalNodes>
            0 -1 172 -286010398 -1396126770 -371969008 -568920912
            286890482 5029921 1943246132 -671681808</internalNodes>
          <leafValues>
            -3.2885947823524475e-01 2.0947326719760895e-01</leafValues></_>
        <_>
          <internalNodes>
            0 -1 357 -466115291 -216227692 -253169419 -104036197
            -120211202 -707243825 -791112693 -511965689</internalNodes>
          <leafValues>
            -3.8747796416282654e-01 1.7919643223285675e-01</leafValues></_>
        <_>
          <internalNodes>
            0 -1 420 -802942768 -571143767 1000371185 2103261176
            -1356484961 -81240158 526172107 -1112004456</internalNodes>
          <leafValues>
            -2.1401238441467285e-01 3.2926151156425476e-01</leafValues></_>
        <_>
          <internalNodes>
            0 -1 605 164235588 2142980607 -356098254 1515863934
            -1420752896 -1078765207 -80578420 104357640</internalNodes>
          <leafValues>
            -4.9536412954330444e-01 1.4231930673122406e-01</leafValues></_>
        <_>
          <internalNodes>
            0 -1 126 -287537628 -825593696 256249647 766329475
            1457305093 -1040154021 1241205804 1597992095</internalNodes>
          <leafValues>
            -4.8816698789596558e-01 1.4762192964553833e-01</leafValues></_>
        <_>
          <internalNodes>
            0 -1 617 1179648 1532578956 1232100759 1602963485
            -1172565992 -1074919384 -1701532998 187848201</internalNodes>
          <leafValues>
            -3.6549013853073120e-01 1.8037180602550507e-01</leafValues></_>
        <_>
          <internalNodes>
            0 -1 503 -445657873 1502696234 -267801775 -1775613392
            840110134 -1863421294 -1969036742 697274</internalNodes>
          <leafValues>
            -2.6977089047431946e-01 2.5226560235023499e-01</leafValues></_>
        <_>
          <internalNodes>
            0 -1 106 1627758338 606908967 825355453 -69343040 755805062
            -1011113618 199787724 21172376</internalNodes>
          <leafValues>
            -3.8775819540023804e-01 1.7678757011890411e-01</leafValues></_>
        <_>
          <internalNodes>
            0 -1 32 -1606397829 -1521004208 -625178848 -1143955202
            -1039051905 1822572689 1608366487 1087357852</internalNodes>
          <leafValues>
            -3.7147510051727295e-01 1.7759728431701660e-01</leafValues></_>
        <_>
          <internalNodes>
            0 -1 15 589980962 -1783639306 1427241173 -604211628
            -542377985 -823397379 -1669177869 -1881242832</internalNodes>
          <leafValues>
            -2.7074402570724487e-01 2.9418367147445679e-01</leafValues></_>
        <_>
          <internalNodes>
            0 -1 549 316214858 1952889302 1855572514 -1068454806
            -1764883128 1917132037 2077154574 1383989211</internalNodes>
          <leafValues>
            -3.8247692584991455e-01 1.8324846029281616e-01</leafValues></_>
        <_>
          <internalNodes>
            0 -1 100 -1405222752 1967342557 560884360 -1378946846
            355030233 -1207860261 -1330340912 1717023575</internalNodes>
          <leafValues>
            -7.3595452308654785e-01 9.7432449460029602e-02</leafValues></_>
        <_>
          <internalNodes>
            0 -1 74 736246688 -495987314 2067648384 -82583036 -521608215
            734730700 -1997290104 -855654208</internalNodes>
          <leafValues>
            -3.2853272557258606e-01 2.2000592947006226e-01</leafValues></_>
        <_>
          <internalNodes>
            0 -1 638 -145014435 -8421383 -13955841 2132686703 -92497580
            -8545192 -1137652134 -1350017958</internalNodes>
          <leafValues>
            -2.2518526017665863e-01 3.0240449309349060e-01</leafValues></_>
        <_>
          <internalNodes>
            0 -1 276 -1993366806 1845890045 -26950524 1625915290
            -1802629085 545260315 1965826272 1373332667</internalNodes>
          <leafValues>
            -3.5583183169364929e-01 1.9947633147239685e-01</leafValues></_>
        <_>
          <internalNodes>
            0 -1 411 -249245568 -656375760 -1834373039 -581450528
            -311122772 212533216 -80217154 -715065361</internalNodes>
          <leafValues>
            -2.1891655027866364e-01 3.1972095370292664e-01</leafValues></_>
        <_>
          <internalNodes>
            0 -1 486 -305577306 -770471784 -1482898260 1226824835
            -1825276336 -446230172 -1415448883 -747504289</internalNodes>
          <leafValues>
            -2.7141293883323669e-01 2.6455953717231750e-01</leafValues></_>
        <_>
          <internalNodes>
            0 -1 243 134225936 425197664 454281213 -1084419655 692098769
            -314457376 436314559 186122817</internalNodes>
          <leafValues>
            -3.7537419795989990e-01 1.9091974198818207e-01</leafValues></_>
        <_>
          <internalNodes>
            0 -1 435 1993786560 713208010 1086606081 147259606
            -1499299356 596676770 -68945405 -58203733</internalNodes>
          <leafValues>
            -3.6456269025802612e-01 1.8848714232444763e-01</leafValues></_></weakClassifiers></_>
    <!-- stage 18 -->
    <_>
      <maxWeakCount>30</maxWeakCount>
      <stageThreshold>-1.0681054592132568e+00</stageThreshold>
      <weakClassifiers>
        <_>
          <internalNodes>
            0 -1 254 -286347354 -150995014 -268439689 -40965 83869695
            -88129537 -453063557 1173278189</internalNodes>
          <leafValues>
            -2.6174709200859070e-02 5.2827751636505127e-01</leafValues></_>
        <_>
          <internalNodes>
            0 -1 404 -101208786 148821931 -347959764 -454054421
            -142607033 78338323 2113388351 -981475873</internalNodes>
          <leafValues>
            -2.9312935471534729e-01 2.5029340386390686e-01</leafValues></_>
        <_>
          <internalNodes>
            0 -1 127 -837890886 -1128333314 -1019324675 -4081673
            -920798724 -184680705 -1136142851 -2228257</internalNodes>
          <leafValues>
            -2.4205954372882843e-01 2.7471917867660522e-01</leafValues></_>
        <_>
          <internalNodes>
            0 -1 575 -134231858 -25460738 -1527890304 543320950
            -1083711870 863457151 -553189690 -210245938</internalNodes>
          <leafValues>
            -2.3731465637683868e-01 2.8196454048156738e-01</leafValues></_>
        <_>
          <internalNodes>
            0 -1 103 15017009 2079846909 1128314167 518226941 285191157
            -3362576 -215934473 -1906603909</internalNodes>
          <leafValues>
            -2.6882445812225342e-01 2.5951296091079712e-01</leafValues></_>
        <_>
          <internalNodes>
            0 -1 376 1356799150 -149946045 -753062106 -454683154
            1470331287 43003037 1904055076 2004351663</internalNodes>
          <leafValues>
            -4.7275885939598083e-01 1.4518927037715912e-01</leafValues></_>
        <_>
          <internalNodes>
            0 -1 591 -868218812 -44090927 -640415361 972442293
            -377332676 -284513426 689446399 455231014</internalNodes>
          <leafValues>
            -3.1721535325050354e-01 2.0130369067192078e-01</leafValues></_>
        <_>
          <internalNodes>
            0 -1 77 1405314047 1695887633 -244664352 -757991947
            -1476164433 -1383497719 -1275595011 -1637639049</internalNodes>
          <leafValues>
            -2.9506441950798035e-01 2.1363991498947144e-01</leafValues></_>
        <_>
          <internalNodes>
            0 -1 300 318633980 1364414974 307429219 107835835 1360204743
            268435457 1884763087 100626291</internalNodes>
          <leafValues>
            -2.8449186682701111e-01 2.2641316056251526e-01</leafValues></_>
        <_>
          <internalNodes>
            0 -1 467 -1845489416 -96709832 1265917949 362624217
            -1676886856 -1366644096 -1151427617 -1677718912</internalNodes>
          <leafValues>
            -2.4257968366146088e-01 2.7009579539299011e-01</leafValues></_>
        <_>
          <internalNodes>
            0 -1 565 240914460 2003998474 -627582121 -679800830
            -96925951 1282015726 2084566874 2033206031</internalNodes>
          <leafValues>
            -3.9888092875480652e-01 1.6034531593322754e-01</leafValues></_>
        <_>
          <internalNodes>
            0 -1 231 -3409717 -546392024 1404478176 -678460951
            2077228851 254252369 1406370691 -673187894</internalNodes>
          <leafValues>
            -1.7223456501960754e-01 3.9047077298164368e-01</leafValues></_>
        <_>
          <internalNodes>
            0 -1 325 -213392626 35838543 -1656617600 546220680
            1880845126 1133784454 -1784986874 2011165391</internalNodes>
          <leafValues>
            -4.1617122292518616e-01 1.6335669159889221e-01</leafValues></_>
        <_>
          <internalNodes>
            0 -1 471 -74313123 -6929066 2100418749 1884689227 -209603592
            -641002943 -1064199973 -2012075424</internalNodes>
          <leafValues>
            -2.5054448843002319e-01 2.8389108180999756e-01</leafValues></_>
        <_>
          <internalNodes>
            0 -1 455 1912664264 -101678368 992030929 1439769797
            -606685824 -1630477312 -1021251378 -750562918</internalNodes>
          <leafValues>
            -1.9695174694061279e-01 3.4101739525794983e-01</leafValues></_>
        <_>
          <internalNodes>
            0 -1 504 -797720487 -117741449 586301083 540800953
            -387217486 -147523715 -21447218 -388959887</internalNodes>
          <leafValues>
            -2.0590184628963470e-01 3.3498850464820862e-01</leafValues></_>
        <_>
          <internalNodes>
            0 -1 89 -607904000 2129957551 2111213378 -176885702
            1420413830 -723074910 -171066402 1168996572</internalNodes>
          <leafValues>
            -4.0484309196472168e-01 1.7059421539306641e-01</leafValues></_>
        <_>
          <internalNodes>
            0 -1 630 2141133407 -102939499 308416383 1745803724
            -1561836390 -142713752 -205491558 -124667169</internalNodes>
          <leafValues>
            -1.8828326463699341e-01 3.5390439629554749e-01</leafValues></_>
        <_>
          <internalNodes>
            0 -1 1 67142578 -1244814984 296874487 -543878939 -1446059073
            -1088909089 531609551 494211261</internalNodes>
          <leafValues>
            -2.8916430473327637e-01 2.4014472961425781e-01</leafValues></_>
        <_>
          <internalNodes>
            0 -1 597 -556400036 -96791361 1483915005 -1874963563
            -1780313448 -1159778538 -1968009217 -1632451045</internalNodes>
          <leafValues>
            -2.2235742211341858e-01 3.1912818551063538e-01</leafValues></_>
        <_>
          <internalNodes>
            0 -1 220 -1106543446 1794100364 462046336 -1074140440
            201679739 8698238 1345418432 1421988608</internalNodes>
          <leafValues>
            -3.4611380100250244e-01 2.0753292739391327e-01</leafValues></_>
        <_>
          <internalNodes>
            0 -1 281 -762923680 209587692 1483654722 -2097692126
            -1290396841 1149629389 -2675829 16725753</internalNodes>
          <leafValues>
            -5.6653130054473877e-01 1.2960384786128998e-01</leafValues></_>
        <_>
          <internalNodes>
            0 -1 537 -317755482 -457453588 -1291965782 1391645910
            -17045874 1114111932 -512688486 -143138081</internalNodes>
          <leafValues>
            -2.3955988883972168e-01 2.9959690570831299e-01</leafValues></_>
        <_>
          <internalNodes>
            0 -1 205 -1558055371 2008855024 -872425997 -1460235
            1508740605 -69950987 -1631034755 -729399216</internalNodes>
          <leafValues>
            -2.4247759580612183e-01 2.9248669743537903e-01</leafValues></_>
        <_>
          <internalNodes>
            0 -1 637 1580338261 -2681990 997600237 1465263895
            -1021823680 -164170733 404228684 1780497666</internalNodes>
          <leafValues>
            -3.7017193436622620e-01 1.9277977943420410e-01</leafValues></_>
        <_>
          <internalNodes>
            0 -1 410 -796753776 -800816774 822352081 -1678274676
            -1604798702 -1337132276 1245769627 -1960633846</internalNodes>
          <leafValues>
            -2.3710387945175171e-01 3.0142644047737122e-01</leafValues></_>
        <_>
          <internalNodes>
            0 -1 141 1389626645 -895199927 1458838178 -527844404 1147583
            -97894383 -394315 1371513564</internalNodes>
          <leafValues>
            -3.9299070835113525e-01 1.9002026319503784e-01</leafValues></_>
        <_>
          <internalNodes>
            0 -1 170 174210730 -828480649 1637030580 -149442048
            1030470120 522783027 -470468312 1673104185</internalNodes>
          <leafValues>
            -3.5409298539161682e-01 2.1888840198516846e-01</leafValues></_>
        <_>
          <internalNodes>
            0 -1 414 1629510100 -1133639315 97016533 -644385924
            -1080784992 -265175926 -1679717907 -1948386470</internalNodes>
          <leafValues>
            -2.8914704918861389e-01 2.5245571136474609e-01</leafValues></_>
        <_>
          <internalNodes>
            0 -1 449 -1013305430 34122627 -1767983352 -869039122
            -85772428 1342329267 720745264 1162017759</internalNodes>
          <leafValues>
            -4.3680760264396667e-01 1.6889573633670807e-01</leafValues></_></weakClassifiers></_>
    <!-- stage 19 -->
    <_>
      <maxWeakCount>29</maxWeakCount>
      <stageThreshold>-1.1181344985961914e+00</stageThreshold>
      <weakClassifiers>
        <_>
          <internalNodes>
            0 -1 341 -882102492 1324810229 -33574916 -476291 -1613275547
            1357184487 -738853121 -100670497</internalNodes>
          <leafValues>
            3.0056037008762360e-02 5.4953795671463013e-01</leafValues></_>
        <_>
          <internalNodes>
            0 -1 424 -1571348451 -203737876 -310331907 -682864455
            -456082465 -1865412408 -817680821 -1994582437</internalNodes>
          <leafValues>
            -3.8102814555168152e-01 1.9481493532657623e-01</leafValues></_>
        <_>
          <internalNodes>
            0 -1 406 -807799043 -137554535 -1397381120 -1416656193
            -88729747 1891584351 -21036498 -93378449</internalNodes>
          <leafValues>
            -2.9245340824127197e-01 2.1279394626617432e-01</leafValues></_>
        <_>
          <internalNodes>
            0 -1 418 -781922092 -35373604 -1141233923 -1724302
            -2135638340 -1108582416 -59183122 -1374143312</internalNodes>
          <leafValues>
            -2.2439964115619659e-01 2.6591241359710693e-01</leafValues></_>
        <_>
          <internalNodes>
            0 -1 509 1534248655 1198393053 -1450993640 1070219994
            386035367 537021210 1985302599 1365768579</internalNodes>
          <leafValues>
            -2.8823524713516235e-01 2.1186845004558563e-01</leafValues></_>
        <_>
          <internalNodes>
            0 -1 361 1909539129 -698428067 -1940840995 -1631269688
            -1748041539 -829912114 -1154626673 -125302710</internalNodes>
          <leafValues>
            -2.7849644422531128e-01 2.1689559519290924e-01</leafValues></_>
        <_>
          <internalNodes>
            0 -1 614 -218897697 -564668521 -1566387611 1345388267
            -33993142 -415237027 -352403750 -76819489</internalNodes>
          <leafValues>
            -1.6762217879295349e-01 3.8327226042747498e-01</leafValues></_>
        <_>
          <internalNodes>
            0 -1 24 -1574123604 -1896843204 -1388138857 91693173
            -1410860370 -811063028 695923452 388282129</internalNodes>
          <leafValues>
            -4.1269087791442871e-01 1.5491105616092682e-01</leafValues></_>
        <_>
          <internalNodes>
            0 -1 327 -293838089 -83886081 805236398 -100945233
            2136841823 2002603845 1954541055 1936193371</internalNodes>
          <leafValues>
            -2.1641784906387329e-01 3.0165049433708191e-01</leafValues></_>
        <_>
          <internalNodes>
            0 -1 180 -1658604742 -1936993334 -814504896 -143930044
            522648883 694602171 1531011328 -951716011</internalNodes>
          <leafValues>
            -2.7105394005775452e-01 2.2683329880237579e-01</leafValues></_>
        <_>
          <internalNodes>
            0 -1 627 993483359 -570569419 1862187999 1500003662
            -611065896 -268855619 -328504 -1087719166</internalNodes>
          <leafValues>
            -2.1204549074172974e-01 2.9924309253692627e-01</leafValues></_>
        <_>
          <internalNodes>
            0 -1 544 1939565164 1651988527 -1321183526 841519686
            1496275081 1983335495 -1790634354 2136857098</internalNodes>
          <leafValues>
            -2.9591813683509827e-01 2.1644055843353271e-01</leafValues></_>
        <_>
          <internalNodes>
            0 -1 455 -264130310 -773035104 -1264258855 -650016662
            -723866230 -292428153 -1207790678 -178797173</internalNodes>
          <leafValues>
            -1.7547641694545746e-01 3.6639010906219482e-01</leafValues></_>
        <_>
          <internalNodes>
            0 -1 345 551847805 603792895 -1411699919 -375580417
            890633791 -37964424 2113741074 -272692625</internalNodes>
          <leafValues>
            -2.2665306925773621e-01 2.8292316198348999e-01</leafValues></_>
        <_>
          <internalNodes>
            0 -1 607 796722384 -705465358 -1362377112 712379078
            -632879616 -149093610 -417350048 -244142587</internalNodes>
          <leafValues>
            -3.8576164841651917e-01 1.6908739507198334e-01</leafValues></_>
        <_>
          <internalNodes>
            0 -1 456 -240791344 1609117632 1971458451 -671638935
            -65123176 69485709 323019003 -6569795</internalNodes>
          <leafValues>
            -1.5485182404518127e-01 3.9168235659599304e-01</leafValues></_>
        <_>
          <internalNodes>
            0 -1 118 645727874 -1322823057 -1385756032 -1209710132
            1637424053 -779110350 1907024536 -982915750</internalNodes>
          <leafValues>
            -4.9122112989425659e-01 1.2973827123641968e-01</leafValues></_>
        <_>
          <internalNodes>
            0 -1 135 -1068494288 -1222012807 1121268543 938996221
            -1513290826 -335015269 57132292 -452844033</internalNodes>
          <leafValues>
            -2.4585624039173126e-01 2.6072806119918823e-01</leafValues></_>
        <_>
          <internalNodes>
            0 -1 323 -687646280 954552406 -109053018 15366636 -804236860
            810635427 -1322241792 280361191</internalNodes>
          <leafValues>
            -5.1171982288360596e-01 1.3405178487300873e-01</leafValues></_>
        <_>
          <internalNodes>
            0 -1 136 1663828264 -36787226 1715976575 -6312360
            -1091108423 -17610643 -1468040727 -1711863792</internalNodes>
          <leafValues>
            -3.0787056684494019e-01 2.1486218273639679e-01</leafValues></_>
        <_>
          <internalNodes>
            0 -1 608 1355499534 1534144508 49195626 -1325467937
            1433891588 -1056247455 1107882512 -232626801</internalNodes>
          <leafValues>
            -3.6166420578956604e-01 1.7705391347408295e-01</leafValues></_>
        <_>
          <internalNodes>
            0 -1 303 -2013197771 -1652375338 -784048260 -1948707775
            -1574912619 -472358541 1352106196 50332432</internalNodes>
          <leafValues>
            -3.9962738752365112e-01 1.7402029037475586e-01</leafValues></_>
        <_>
          <internalNodes>
            0 -1 561 -1459704113 -44297714 -1090890904 1731417670
            1557515769 1539766219 -401363014 -585977718</internalNodes>
          <leafValues>
            -2.0801693201065063e-01 3.5012874007225037e-01</leafValues></_>
        <_>
          <internalNodes>
            0 -1 224 -240145217 2079300890 973022898 -8388818 1995371903
            1132707141 -688459036 -674768665</internalNodes>
          <leafValues>
            -1.8448559939861298e-01 3.7393641471862793e-01</leafValues></_>
        <_>
          <internalNodes>
            0 -1 530 1154461255 135423158 1099413749 603994782
            -994925612 -1092865237 -1146814788 8446466</internalNodes>
          <leafValues>
            -3.1172212958335876e-01 2.2725650668144226e-01</leafValues></_>
        <_>
          <internalNodes>
            0 -1 158 -53528582 69450630 -146079480 475524903 797672112
            -1750622208 -50085879 1428513538</internalNodes>
          <leafValues>
            -3.2621735334396362e-01 2.1027870476245880e-01</leafValues></_>
        <_>
          <internalNodes>
            0 -1 183 5689314 -1034463617 -1891494998 129156394
            -1565493711 1118447538 -15189227 1088356006</internalNodes>
          <leafValues>
            -4.9555444717407227e-01 1.4555190503597260e-01</leafValues></_>
        <_>
          <internalNodes>
            0 -1 52 -1807197712 -62875384 -116093472 245798488
            -1467317556 -358578153 -503596555 -640423251</internalNodes>
          <leafValues>
