<?xml version="1.0"?>
<opencv_storage>
<stage23>
  <maxWeakCount>32</maxWeakCount>
  <stageThreshold>-9.2641031742095947e-01</stageThreshold>
  <weakClassifiers>
    <_>
      <internalNodes>
        0 -1 9487 -1360392302 16711157 1861940908 -1565069766 -436969547
        -2078246913 -556695610 78633871</internalNodes>
      <leafValues>
        -1.1058376729488373e-01 4.9123594164848328e-01</leafValues></_>
    <_>
      <internalNodes>
        0 -1 8734 -1057490029 -152568913 -34078721 -20683 551550837
        -1110704204 24638965 24502641</internalNodes>
      <leafValues>
        -2.3516471683979034e-01 2.5914108753204346e-01</leafValues></_>
    <_>
      <internalNodes>
        0 -1 9613 1077937300 -46219395 -272746625 -36815636 893408748
        -1078137003 1062956942 -9802716</internalNodes>
      <leafValues>
        -2.3145671188831329e-01 2.6486110687255859e-01</leafValues></_>
    <_>
      <internalNodes>
        0 -1 12080 1943388591 1657078220 1075406926 -533998452 160784887
        1369718977 1903391490 -766519328</internalNodes>
      <leafValues>
        -2.7266409993171692e-01 2.2245207428932190e-01</leafValues></_>
    <_>
      <internalNodes>
        0 -1 7334 805312275 1595772287 898879709 492082425 1039921631
        -1113287330 969499578 -1095317249</internalNodes>
      <leafValues>
        -2.8343650698661804e-01 2.1875298023223877e-01</leafValues></_>
    <_>
      <internalNodes>
        0 -1 14913 -19943794 -1071222705 -599868222 578198118 1383943680
        123882825 -540124924 -212338561</internalNodes>
      <leafValues>
        -3.7350142002105713e-01 1.4158986508846283e-01</leafValues></_>
    <_>
      <internalNodes>
        0 -1 13056 1942573212 1893007640 1078016392 1942590100
        2073647005 231368867 1211455296 932534987</internalNodes>
      <leafValues>
        -3.7364414334297180e-01 1.5096724033355713e-01</leafValues></_>
    <_>
      <internalNodes>
        0 -1 5980 27300112 -549186476 -2029551727 1971127536 -1424443215
        -1181140093 234929151 -1995964284</internalNodes>
      <leafValues>
        -2.4839529395103455e-01 2.3866003751754761e-01</leafValues></_>
    <_>
      <internalNodes>
        0 -1 10352 -530546686 73704588 -1603181150 -521617492
        -1959558747 86177443 -88926782 1718024711</internalNodes>
      <leafValues>
        -5.7517647743225098e-01 9.9533945322036743e-02</leafValues></_>
    <_>
      <internalNodes>
        0 -1 9253 1606132642 -6246898 -370350880 -72637524 -42584654
        1192959830 -145231391 -740299781</internalNodes>
      <leafValues>
        -1.8325819075107574e-01 3.2627698779106140e-01</leafValues></_>
    <_>
      <internalNodes>
        0 -1 13798 2011449536 1507195694 867058708 404414347 -1229015166
        336624175 -274431431 1097781115</internalNodes>
      <leafValues>
        -3.0210354924201965e-01 1.9927790760993958e-01</leafValues></_>
    <_>
      <internalNodes>
        0 -1 16149 892863060 1737432439 281098495 2004424127 -551746416
        -1081645074 1802808000 993016584</internalNodes>
      <leafValues>
        -4.4082131981849670e-01 1.3507704436779022e-01</leafValues></_>
    <_>
      <internalNodes>
        0 -1 10649 -1593515948 1478373272 -1387396007 635283231
        764189883 -581038172 484205885 -1885817319</internalNodes>
      <leafValues>
        -2.2649422287940979e-01 2.6158598065376282e-01</leafValues></_>
    <_>
      <internalNodes>
        0 -1 11366 -724270142 -2132869746 -1328633600 75490250 684269925
        525181323 -782651577 1171351598</internalNodes>
      <leafValues>
        -4.1356542706489563e-01 1.4791221916675568e-01</leafValues></_>
    <_>
      <internalNodes>
        0 -1 5521 454016331 1288040398 1072603928 1963899828 -1219512427
        705158901 1608462578 -458390050</internalNodes>
      <leafValues>
        -2.4115841090679169e-01 2.5411128997802734e-01</leafValues></_>
    <_>
      <internalNodes>
        0 -1 1626 7381042 435329312 -2128598571 1448316229 385411191
        -227045193 -1507587376 543957625</internalNodes>
      <leafValues>
        -3.0898386240005493e-01 2.0126214623451233e-01</leafValues></_>
    <_>
      <internalNodes>
        0 -1 11513 -427348043 1371301327 -2000609248 -439673699
        2063546975 -25556617 -12295162 1110650382</internalNodes>
      <leafValues>
        -3.3071264624595642e-01 1.8939960002899170e-01</leafValues></_>
    <_>
      <internalNodes>
        0 -1 9003 -1615396608 556084116 -427581975 543209914 -1514100538
        1565215107 789064611 1358422971</internalNodes>
      <leafValues>
        -3.6080503463745117e-01 1.6237750649452209e-01</leafValues></_>
    <_>
      <internalNodes>
        0 -1 11778 -1861725968 -119533379 -1806445347 1979453533
        -2079271695 -190042960 -255792239 453511216</internalNodes>
      <leafValues>
        -2.7231603860855103e-01 2.2816261649131775e-01</leafValues></_>
    <_>
      <internalNodes>
        0 -1 13126 1493140002 -2040886170 1887013898 1373723054
        377104935 1850464771 -186045905 -766143489</internalNodes>
      <leafValues>
        -2.8546378016471863e-01 2.1687777340412140e-01</leafValues></_>
    <_>
      <internalNodes>
        0 -1 11697 -552927588 -1782419552 -260476931 -2056162706
        362724540 -1539019268 -809591508 -288446424</internalNodes>
      <leafValues>
        -2.3119354248046875e-01 2.7976164221763611e-01</leafValues></_>
    <_>
      <internalNodes>
        0 -1 14285 1024001544 1033215511 -473158840 1001965756
        1914129062 325967644 -2055744514 1296517486</internalNodes>
      <leafValues>
        -3.3863765001296997e-01 1.8952625989913940e-01</leafValues></_>
    <_>
      <internalNodes>
        0 -1 254 791360174 8918394 1813818520 -2013801158 1731964811
        540740525 67734794 4533004</internalNodes>
      <leafValues>
        -4.5750898122787476e-01 1.3478040695190430e-01</leafValues></_>
    <_>
      <internalNodes>
        0 -1 16359 -612676534 2042975451 -94586281 -618148486 1786250952
        -287500527 -1740466178 -13575269</internalNodes>
      <leafValues>
        -2.0605354011058807e-01 3.1235930323600769e-01</leafValues></_>
    <_>
      <internalNodes>
        0 -1 7148 -1660080064 -275226338 -999889620 642166500 52442196
        543492273 1630628116 1389562112</internalNodes>
      <leafValues>
        -6.0984385013580322e-01 1.1252911388874054e-01</leafValues></_>
    <_>
      <internalNodes>
        0 -1 0 17342896 1923973368 103830869 293417045 -1910339863
        -1937440320 655407807 261690372</internalNodes>
      <leafValues>
        -3.0366566777229309e-01 2.0440891385078430e-01</leafValues></_>
    <_>
      <internalNodes>
        0 -1 14906 819924294 163108239 -1060802938 -1570708942
        1864656133 13788233 -2097019312 1881620214</internalNodes>
      <leafValues>
        -5.2405816316604614e-01 1.2075404822826385e-01</leafValues></_>
    <_>
      <internalNodes>
        0 -1 1293 44080872 -1995042192 -2134729377 1270805652
        -1671907540 -1650538503 533788263 -1920463204</internalNodes>
      <leafValues>
        -3.7685319781303406e-01 1.6919179260730743e-01</leafValues></_>
    <_>
      <internalNodes>
        0 -1 1801 -1876708560 -1139632564 814451792 -1813916452
        1175284595 -1947243266 109780993 164960260</internalNodes>
      <leafValues>
        -3.3482149243354797e-01 1.9032438099384308e-01</leafValues></_>
    <_>
      <internalNodes>
        0 -1 14395 2074841819 1340070087 -1074071121 2019813883
        321618926 1044020815 -41946898 -582043393</internalNodes>
      <leafValues>
        -1.4862802624702454e-01 4.1646057367324829e-01</leafValues></_>
    <_>
      <internalNodes>
        0 -1 11630 -843458563 335125411 1320270959 -1141132757 -34245939
        -1078069259 1965577866 -724721093</internalNodes>
      <leafValues>
        -1.9161666929721832e-01 3.3642220497131348e-01</leafValues></_>
    <_>
      <internalNodes>
        0 -1 8057 -66645274 -393867308 455789196 62501320 -619179883
        849479897 -1155571121 364054896</internalNodes>
      <leafValues>
        -4.7883296012878418e-01 1.3722412288188934e-01</leafValues></_></weakClassifiers></stage23>
</opencv_storage>
