<?xml version="1.0"?>
<opencv_storage>
<stage29>
  <maxWeakCount>35</maxWeakCount>
  <stageThreshold>-9.8444807529449463e-01</stageThreshold>
  <weakClassifiers>
    <_>
      <internalNodes>
        0 -1 1613 33620016 633777979 1228018015 385138677 1338317943
        -1416138865 1308888472 1196953069</internalNodes>
      <leafValues>
        1.9174519926309586e-02 5.0940424203872681e-01</leafValues></_>
    <_>
      <internalNodes>
        0 -1 13726 -2099280256 1488293183 105666830 -924972674 980493200
        1879477279 -1298029174 1363003851</internalNodes>
      <leafValues>
        -2.8553709387779236e-01 2.0606046915054321e-01</leafValues></_>
    <_>
      <internalNodes>
        0 -1 11054 1224759566 303104040 280881646 -1052092946
        -2138420769 276830364 859271936 1939307151</internalNodes>
      <leafValues>
        -4.2186385393142700e-01 1.3293246924877167e-01</leafValues></_>
    <_>
      <internalNodes>
        0 -1 10657 858292212 1440105920 1476843997 -2075647904
        -2117551460 1501563088 1528442048 -1406131136</internalNodes>
      <leafValues>
        -3.1602349877357483e-01 1.7451602220535278e-01</leafValues></_>
    <_>
      <internalNodes>
        0 -1 15498 -88807222 -228619277 -627320306 -1605402134 -13650364
        1343295317 -283423825 -615528609</internalNodes>
      <leafValues>
        -2.3522895574569702e-01 2.4689030647277832e-01</leafValues></_>
    <_>
      <internalNodes>
        0 -1 96 -1879311201 -1641137482 -554730280 -1141363058
        -2061908601 -1088753665 1241482685 -1084633733</internalNodes>
      <leafValues>
        -1.9092683494091034e-01 2.9343369603157043e-01</leafValues></_>
    <_>
      <internalNodes>
        0 -1 11672 -83300142 -170017772 930134376 -707438403 -446566260
        -1075172062 -1007839011 -573576789</internalNodes>
      <leafValues>
        -1.9159951806068420e-01 3.2992789149284363e-01</leafValues></_>
    <_>
      <internalNodes>
        0 -1 1374 -1393377355 909281630 -465981781 -958542139 1889070009
        126853609 -240820422 1319816783</internalNodes>
      <leafValues>
        -2.4043314158916473e-01 2.4960847198963165e-01</leafValues></_>
    <_>
      <internalNodes>
        0 -1 7422 934450545 -14091152 -1549676173 -43555596 -1887776349
        -601680161 1398363440 -356248575</internalNodes>
      <leafValues>
        -1.8362385034561157e-01 3.2496479153633118e-01</leafValues></_>
    <_>
      <internalNodes>
        0 -1 4206 -523231368 585965684 -2068753366 226373821 1006698582
        -444164072 -1143835830 1174181292</internalNodes>
      <leafValues>
        -3.8025328516960144e-01 1.5749788284301758e-01</leafValues></_>
    <_>
      <internalNodes>
        0 -1 14914 -152433468 1130061867 -913308030 170945050 253843008
        1867213097 -751604030 1667772402</internalNodes>
      <leafValues>
        -3.9963406324386597e-01 1.4986525475978851e-01</leafValues></_>
    <_>
      <internalNodes>
        0 -1 14578 1709738474 923696389 -1718976686 -1885296115
        -1008771727 30368093 -53835958 1227581691</internalNodes>
      <leafValues>
        -2.5892132520675659e-01 2.2691152989864349e-01</leafValues></_>
    <_>
      <internalNodes>
        0 -1 7335 488796930 1026887729 -1658320131 835825697 739870943
        -1476193232 542468333 1630699615</internalNodes>
      <leafValues>
        -5.2022987604141235e-01 1.1067872494459152e-01</leafValues></_>
    <_>
      <internalNodes>
        0 -1 4812 -75408103 -1145650244 -852011269 -3176268 -1224766479
        -604455474 263832825 -1380381676</internalNodes>
      <leafValues>
        -2.2864788770675659e-01 2.6498961448669434e-01</leafValues></_>
    <_>
      <internalNodes>
        0 -1 12205 -1294264148 9818824 -1003412736 -1569750319
        -737533631 739121221 -201493758 -1755991706</internalNodes>
      <leafValues>
        -3.8051542639732361e-01 1.6533857583999634e-01</leafValues></_>
    <_>
      <internalNodes>
        0 -1 8162 -1287656599 -14200867 -546330451 -39464315 1174380391
        500580170 2010927232 -134484178</internalNodes>
      <leafValues>
        -1.5941554307937622e-01 3.7655693292617798e-01</leafValues></_>
    <_>
      <internalNodes>
        0 -1 10725 -789417744 -618051259 511079675 1029512696 -164914087
        -19226891 -1103573077 -1372569058</internalNodes>
      <leafValues>
        -1.7072258889675140e-01 3.4353899955749512e-01</leafValues></_>
    <_>
      <internalNodes>
        0 -1 4703 1625325994 69225161 -1874622111 270764980 -343105400
        -1524566646 -2025488248 903386232</internalNodes>
      <leafValues>
        -4.4430330395698547e-01 1.4259889721870422e-01</leafValues></_>
    <_>
      <internalNodes>
        0 -1 11727 -2145648108 -1832114060 827931870 861202695
        -1466728832 -55754726 -130434786 -2040526078</internalNodes>
      <leafValues>
        -3.2222989201545715e-01 1.9104146957397461e-01</leafValues></_>
    <_>
      <internalNodes>
        0 -1 439 217339835 -1665483372 -1206296731 -839920444
        -1366033350 -1485336857 120582430 -2048229008</internalNodes>
      <leafValues>
        -2.3455907404422760e-01 2.6959267258644104e-01</leafValues></_>
    <_>
      <internalNodes>
        0 -1 3293 -207241331 -1574241468 -1246262123 -209265468
        1438493826 -1986791466 -1480946033 -969436724</internalNodes>
      <leafValues>
        -2.2172428667545319e-01 2.8748401999473572e-01</leafValues></_>
    <_>
      <internalNodes>
        0 -1 10640 -188710774 1929144847 140642896 -147642826
        -2040984341 103133583 2016473386 -205533478</internalNodes>
      <leafValues>
        -2.0211364328861237e-01 3.0390229821205139e-01</leafValues></_>
    <_>
      <internalNodes>
        0 -1 972 176588618 -2010177791 722075742 40501452 667007410
        -2020118256 1971407104 1091107676</internalNodes>
      <leafValues>
        -4.2561686038970947e-01 1.4810256659984589e-01</leafValues></_>
    <_>
      <internalNodes>
        0 -1 11751 1442101432 290668731 274100397 76435606 1636909847
        276897928 12456707 541816609</internalNodes>
      <leafValues>
        -4.3078637123107910e-01 1.5153267979621887e-01</leafValues></_>
    <_>
      <internalNodes>
        0 -1 13906 -122441537 -84189825 -479974716 -66347777 -59361233
        1111645800 -1838040673 -1032338518</internalNodes>
      <leafValues>
        -1.8505093455314636e-01 3.5874405503273010e-01</leafValues></_>
    <_>
      <internalNodes>
        0 -1 12987 -1385693470 -202408758 888727300 1546202878 379540162
        803596154 -536643629 -1197357845</internalNodes>
      <leafValues>
        -2.4479486048221588e-01 2.6428961753845215e-01</leafValues></_>
    <_>
      <internalNodes>
        0 -1 15060 -647888045 823925603 -398534963 -1421816634
        -1343865081 -1155113099 -849323298 -1425199147</internalNodes>
      <leafValues>
        -2.1170036494731903e-01 3.0359396338462830e-01</leafValues></_>
    <_>
      <internalNodes>
        0 -1 15821 -1783969697 -674539427 -1442087307 822339914
        -347366690 -17049514 2061692618 -752691297</internalNodes>
      <leafValues>
        -1.6195552051067352e-01 3.9615330100059509e-01</leafValues></_>
    <_>
      <internalNodes>
        0 -1 1220 859516882 -1625401790 1084288849 1837159344 2002501340
        -216688420 535152865 466374792</internalNodes>
      <leafValues>
        -2.9465407133102417e-01 2.2323741018772125e-01</leafValues></_>
    <_>
      <internalNodes>
        0 -1 15182 1418788875 -1719120296 -1029006341 -1268776871
        955113164 -677769397 -1275920654 -919590830</internalNodes>
      <leafValues>
        -2.6790285110473633e-01 2.3543840646743774e-01</leafValues></_>
    <_>
      <internalNodes>
        0 -1 4229 -839948653 1726046370 112505401 -139466192 -1450090730
        2002843511 1347261440 828233282</internalNodes>
      <leafValues>
        -2.5007751584053040e-01 2.5916081666946411e-01</leafValues></_>
    <_>
      <internalNodes>
        0 -1 13290 607151680 2134704527 -1205895126 -620287482
        -1025865695 1249091994 -660701047 21436448</internalNodes>
      <leafValues>
        -4.5703029632568359e-01 1.4074482023715973e-01</leafValues></_>
    <_>
      <internalNodes>
        0 -1 13239 -720269104 -212500937 -1268754326 -641335409
        -757427072 -1125831636 -462169414 1182466459</internalNodes>
      <leafValues>
        -2.1841418743133545e-01 2.9347065091133118e-01</leafValues></_>
    <_>
      <internalNodes>
        0 -1 8504 -1019109852 2127644368 -304807125 -1490381367
        -111037381 1884807251 638418434 153325583</internalNodes>
      <leafValues>
        -4.1578015685081482e-01 1.6094753146171570e-01</leafValues></_>
    <_>
      <internalNodes>
        0 -1 12345 -784623962 37930222 1766131426 -389446970 -771675836
        1249970981 -1417944282 611783506</internalNodes>
      <leafValues>
        -5.1626747846603394e-01 1.2536814808845520e-01</leafValues></_></weakClassifiers></stage29>
</opencv_storage>
