<?xml version="1.0"?>
<opencv_storage>
<stage6>
  <maxWeakCount>13</maxWeakCount>
  <stageThreshold>-1.5074914693832397e+00</stageThreshold>
  <weakClassifiers>
    <_>
      <internalNodes>
        0 -1 2057 -176180242 -1 -1327191328 -705168409 -142606341 -1
        -673726468 -524297</internalNodes>
      <leafValues>
        -4.5148026943206787e-01 5.8611112833023071e-01</leafValues></_>
    <_>
      <internalNodes>
        0 -1 12887 -202639445 -1411055886 749430882 -274350558
        -716087293 2067038046 1398227202 -746068057</internalNodes>
      <leafValues>
        -3.4821745753288269e-01 4.7961309552192688e-01</leafValues></_>
    <_>
      <internalNodes>
        0 -1 7334 66049 2134368255 809683967 -820936193 429765309
        -1091502855 425830847 -1405302273</internalNodes>
      <leafValues>
        -4.6797454357147217e-01 3.4778788685798645e-01</leafValues></_>
    <_>
      <internalNodes>
        0 -1 10043 -67126294 545775818 1174602702 15661258 -1275878494
        381826576 -1803872440 -1058013205</internalNodes>
      <leafValues>
        -4.8523676395416260e-01 3.2884371280670166e-01</leafValues></_>
    <_>
      <internalNodes>
        0 -1 3101 -139528056 -25493634 -9462273 -8421385 -536950052
        -36702243 -268439570 -2097153</internalNodes>
      <leafValues>
        -3.5029637813568115e-01 4.1265085339546204e-01</leafValues></_>
    <_>
      <internalNodes>
        0 -1 14283 -1157649886 -153157818 -431857014 -259883711
        -219440378 -221620241 -508043793 -186662929</internalNodes>
      <leafValues>
        -3.7696221470832825e-01 3.6670684814453125e-01</leafValues></_>
    <_>
      <internalNodes>
        0 -1 11212 1743780606 2009593671 -2010673978 -403050769
        -1622035625 1393053717 -414977276 2003039031</internalNodes>
      <leafValues>
        -4.3552535772323608e-01 3.1091824173927307e-01</leafValues></_>
    <_>
      <internalNodes>
        0 -1 55 -1058930449 -705031705 353464319 1574633704 -57556993
        -15074647 -977311747 905659375</internalNodes>
      <leafValues>
        -4.5355242490768433e-01 2.8946560621261597e-01</leafValues></_>
    <_>
      <internalNodes>
        0 -1 6531 -1323492417 820578239 -908883038 822076590 272699499
        1145807699 -100684523 1155006335</internalNodes>
      <leafValues>
        -4.5955380797386169e-01 2.8439405560493469e-01</leafValues></_>
    <_>
      <internalNodes>
        0 -1 9787 -289098428 -186795143 -510152205 -253103679 -795414017
        -1837067877 -690250389 -1060838971</internalNodes>
      <leafValues>
        -5.9141564369201660e-01 2.2865055501461029e-01</leafValues></_>
    <_>
      <internalNodes>
        0 -1 6931 -72484190 -450633558 1275406338 -909119446 -481560863
        1210804295 390297412 -711728461</internalNodes>
      <leafValues>
        -3.7303462624549866e-01 3.5543364286422729e-01</leafValues></_>
    <_>
      <internalNodes>
        0 -1 11528 1910434884 -204162132 -121000324 -472649749 -73967276
        2007238663 -1256882384 2000681343</internalNodes>
      <leafValues>
        -5.2712088823318481e-01 2.5617718696594238e-01</leafValues></_>
    <_>
      <internalNodes>
        0 -1 12494 7340112 -127985441 956393791 1366580575 -1068966727
        -1996807538 -2004707589 -1150803177</internalNodes>
      <leafValues>
        -4.0308997035026550e-01 3.3280456066131592e-01</leafValues></_></weakClassifiers></stage6>
</opencv_storage>
