<?xml version="1.0"?>
<opencv_storage>
<stage20>
  <maxWeakCount>33</maxWeakCount>
  <stageThreshold>-1.1422592401504517e+00</stageThreshold>
  <weakClassifiers>
    <_>
      <internalNodes>
        0 -1 3190 1954068992 1811398772 -1827667627 2139439690
        2050356018 -1448463252 1110485178 -1162526664</internalNodes>
      <leafValues>
        -5.9356725215911865e-01 4.4931462407112122e-01</leafValues></_>
    <_>
      <internalNodes>
        0 -1 12332 -579867652 -1414595156 -96194820 -1434911766
        1593791700 -293642377 -35711928 -49</internalNodes>
      <leafValues>
        -2.3963318765163422e-01 2.8004258871078491e-01</leafValues></_>
    <_>
      <internalNodes>
        0 -1 14097 -1330215209 78620139 1524887295 430648511 279975523
        -2131950432 -912357153 67871627</internalNodes>
      <leafValues>
        -2.5008469820022583e-01 2.4770325422286987e-01</leafValues></_>
    <_>
      <internalNodes>
        0 -1 1427 -1621541765 -237713965 -1385749105 796536359
        -476997135 997048827 -609613299 1204784207</internalNodes>
      <leafValues>
        -2.7211651206016541e-01 2.2905583679676056e-01</leafValues></_>
    <_>
      <internalNodes>
        0 -1 10700 -2130835380 -17353889 -1589952545 -1652574225
        -1594847078 -1090596866 -1468809318 -878747905</internalNodes>
      <leafValues>
        -2.1305519342422485e-01 2.8743633627891541e-01</leafValues></_>
    <_>
      <internalNodes>
        0 -1 5696 -1154762309 -871576918 -1993346528 -704653784
        803667825 49774525 84869249 -538971905</internalNodes>
      <leafValues>
        -2.3053945600986481e-01 2.8581774234771729e-01</leafValues></_>
    <_>
      <internalNodes>
        0 -1 14941 -486633761 -1628451159 -100013442 1343797947
        -67657848 1424951050 -76169516 -212871554</internalNodes>
      <leafValues>
        -2.2503039240837097e-01 2.6608836650848389e-01</leafValues></_>
    <_>
      <internalNodes>
        0 -1 9238 -690094166 1536447448 83550638 931018238 1067144529
        866263792 2004497450 808465270</internalNodes>
      <leafValues>
        -4.2901995778083801e-01 1.4169014990329742e-01</leafValues></_>
    <_>
      <internalNodes>
        0 -1 15614 -2038953380 -567541001 428532989 1027357967 -90923174
        -272822614 -55518246 438840282</internalNodes>
      <leafValues>
        -3.2564517855644226e-01 1.8075305223464966e-01</leafValues></_>
    <_>
      <internalNodes>
        0 -1 14490 -54549344 -690469080 1348775528 551025118 -148543660
        1430089054 -1004473650 -831016486</internalNodes>
      <leafValues>
        -2.5874623656272888e-01 2.2492945194244385e-01</leafValues></_>
    <_>
      <internalNodes>
        0 -1 8697 -837310530 -10894954 -787370059 -1526082040 -699715081
        -942621868 -674606095 23200439</internalNodes>
      <leafValues>
        -2.9194054007530212e-01 2.0314760506153107e-01</leafValues></_>
    <_>
      <internalNodes>
        0 -1 1576 623176756 -34425619 1709123965 -2017730372 298681307
        -296058153 -879797795 -1391244247</internalNodes>
      <leafValues>
        -2.8216463327407837e-01 2.1411560475826263e-01</leafValues></_>
    <_>
      <internalNodes>
        0 -1 15001 2132798111 1465131148 484980442 304137315 -608323444
        -281864686 -132056358 -620565505</internalNodes>
      <leafValues>
        -1.8069818615913391e-01 3.4781265258789062e-01</leafValues></_>
    <_>
      <internalNodes>
        0 -1 10086 1039924719 -383038047 799878756 1350412910 2113690837
        1576902124 1979534574 -162411922</internalNodes>
      <leafValues>
        -2.0175217092037201e-01 2.9989004135131836e-01</leafValues></_>
    <_>
      <internalNodes>
        0 -1 8081 -1286493526 -137446198 1779939668 -773345361
        -567364159 1089929024 -280631584 -672401702</internalNodes>
      <leafValues>
        -2.0559190213680267e-01 3.0689924955368042e-01</leafValues></_>
    <_>
      <internalNodes>
        0 -1 9249 225854720 -1038375802 1325098498 1999106462
        -1490062506 156633453 -461553051 1984101728</internalNodes>
      <leafValues>
        -4.9780610203742981e-01 1.3717694580554962e-01</leafValues></_>
    <_>
      <internalNodes>
        0 -1 14924 -1667937127 -17338371 -939938945 1696623280 -32822162
        -51044609 -917607477 -1183150209</internalNodes>
      <leafValues>
        -2.2461362183094025e-01 2.8134879469871521e-01</leafValues></_>
    <_>
      <internalNodes>
        0 -1 10673 -1609547693 -50781456 -4178475 -1662440995
        -1198673748 -88487952 421974967 -1408684765</internalNodes>
      <leafValues>
        -2.0173525810241699e-01 3.1870174407958984e-01</leafValues></_>
    <_>
      <internalNodes>
        0 -1 8931 -1010413074 816337197 -1716725080 543565486 196792
        386203777 -1726807160 1105676943</internalNodes>
      <leafValues>
        -5.4495781660079956e-01 1.2427389621734619e-01</leafValues></_>
    <_>
      <internalNodes>
        0 -1 316 -1937891941 -142973542 -337939017 -191276808 -820007793
        -141374439 -1895703441 -581249810</internalNodes>
      <leafValues>
        -2.1344456076622009e-01 3.0195724964141846e-01</leafValues></_>
    <_>
      <internalNodes>
        0 -1 10652 1355547664 -1748759427 1222381566 -1088670980
        1632903358 12413469 -1897394018 -480632248</internalNodes>
      <leafValues>
        -2.7109703421592712e-01 2.2720706462860107e-01</leafValues></_>
    <_>
      <internalNodes>
        0 -1 2321 -1502646002 -2067198942 344358162 -1832324316
        -22153545 -1238713510 1104073877 -689973213</internalNodes>
      <leafValues>
        -3.1519484519958496e-01 2.0863531529903412e-01</leafValues></_>
    <_>
      <internalNodes>
        0 -1 1344 -1972687356 266421198 -2032226780 680439458 -744295506
        249268969 -72657500 1183255495</internalNodes>
      <leafValues>
        -5.7537972927093506e-01 1.0402693599462509e-01</leafValues></_>
    <_>
      <internalNodes>
        0 -1 14822 1055655944 -1766778817 786800912 -1562206578
        -767268862 1646537495 -596450622 1654029522</internalNodes>
      <leafValues>
        -4.4604873657226562e-01 1.3794499635696411e-01</leafValues></_>
    <_>
      <internalNodes>
        0 -1 15123 219021402 -1324414689 1302906170 -33409991 -620215312
        -241411561 948457784 -1020555481</internalNodes>
      <leafValues>
        -3.2440501451492310e-01 1.9286423921585083e-01</leafValues></_>
    <_>
      <internalNodes>
        0 -1 7883 1360079807 -422346588 -1070325482 85976399 1073787636
        -2071920438 1073329161 1106108366</internalNodes>
      <leafValues>
        -2.9577475786209106e-01 2.1720099449157715e-01</leafValues></_>
    <_>
      <internalNodes>
        0 -1 13376 -361257725 -72045537 1149542639 -1454077745
        -1866432285 -494425081 -2038059281 2230530</internalNodes>
      <leafValues>
        -3.0727249383926392e-01 2.0040911436080933e-01</leafValues></_>
    <_>
      <internalNodes>
        0 -1 4046 -1316003048 -1115623758 118700340 -138680252
        -279397509 1055101525 43538600 -678489223</internalNodes>
      <leafValues>
        -2.5509291887283325e-01 2.5335985422134399e-01</leafValues></_>
    <_>
      <internalNodes>
        0 -1 7470 -2146905695 -9010455 1006336960 -572944112 -1434589023
        -1127644208 1166428209 -842480607</internalNodes>
      <leafValues>
        -2.3194774985313416e-01 2.8063765168190002e-01</leafValues></_>
    <_>
      <internalNodes>
        0 -1 12453 -1837043632 -789322110 825849 -585506055 -730599240
        -459801505 -104789301 -888196149</internalNodes>
      <leafValues>
        -1.8440611660480499e-01 3.5092446208000183e-01</leafValues></_>
    <_>
      <internalNodes>
        0 -1 14377 -201638229 1517535050 -1091633650 -1325994324
        -793183603 1853779831 -1644697382 -148308034</internalNodes>
      <leafValues>
        -1.9777186214923859e-01 3.2423582673072815e-01</leafValues></_>
    <_>
      <internalNodes>
        0 -1 1471 509089950 -559764902 530091549 894791876 1002682043
        -1775072093 456751059 -33574760</internalNodes>
      <leafValues>
        -2.2005413472652435e-01 2.9241916537284851e-01</leafValues></_>
    <_>
      <internalNodes>
        0 -1 1614 4456458 1976220147 1512597535 233447913 199013879
        965974690 940715192 1563640025</internalNodes>
      <leafValues>
        -5.2720254659652710e-01 1.3098867237567902e-01</leafValues></_></weakClassifiers></stage20>
</opencv_storage>
