<?xml version="1.0"?>
<opencv_storage>
<stage25>
  <maxWeakCount>33</maxWeakCount>
  <stageThreshold>-1.0134922266006470e+00</stageThreshold>
  <weakClassifiers>
    <_>
      <internalNodes>
        0 -1 9833 -320459776 -16872514 -88076 -243394834 -1208021002
        -676581377 -866230405 -419508976</internalNodes>
      <leafValues>
        -1.6736152768135071e-01 4.7719207406044006e-01</leafValues></_>
    <_>
      <internalNodes>
        0 -1 10307 1414248376 -1516187474 -1845307394 1164302318
        1403233172 1098920079 -640157416 1553834847</internalNodes>
      <leafValues>
        -3.0160281062126160e-01 2.0911455154418945e-01</leafValues></_>
    <_>
      <internalNodes>
        0 -1 14054 7342148 -119787169 -1307877409 467188173 -1467369320
        -573967023 -1140662342 -1988948370</internalNodes>
      <leafValues>
        -2.7811026573181152e-01 2.0162656903266907e-01</leafValues></_>
    <_>
      <internalNodes>
        0 -1 6497 -1702642249 -680289895 -635473014 -67153508 201380727
        -1928625990 -773783556 -226175145</internalNodes>
      <leafValues>
        -2.4766695499420166e-01 2.2520312666893005e-01</leafValues></_>
    <_>
      <internalNodes>
        0 -1 11822 -498274624 -490521697 -714221133 1185741311
        1370089255 -2079244157 -1200150441 -1032326221</internalNodes>
      <leafValues>
        -3.2268911600112915e-01 1.8402805924415588e-01</leafValues></_>
    <_>
      <internalNodes>
        0 -1 8160 -429410144 -223962416 1053150240 -1198354 -1794915278
        1987562814 1666086657 -154145059</internalNodes>
      <leafValues>
        -2.4368937313556671e-01 2.2712963819503784e-01</leafValues></_>
    <_>
      <internalNodes>
        0 -1 4547 -2076444578 -677592963 -482146549 -1614085565
        109772798 -533667693 543366443 1342617929</internalNodes>
      <leafValues>
        -2.8746211528778076e-01 1.8310253322124481e-01</leafValues></_>
    <_>
      <internalNodes>
        0 -1 14741 1997947399 -1414067947 -1270464693 923276586
        -1358680306 -1691016343 -1608731912 -299696229</internalNodes>
      <leafValues>
        -2.4402444064617157e-01 2.3720784485340118e-01</leafValues></_>
    <_>
      <internalNodes>
        0 -1 15 1089401120 -1942437642 869874875 498861521 -2144602375
        -1077956194 -1916974177 -293840530</internalNodes>
      <leafValues>
        -2.7295717597007751e-01 2.1526372432708740e-01</leafValues></_>
    <_>
      <internalNodes>
        0 -1 2494 254718645 -1468028428 1073766140 780390554 -1157062600
        750416217 -1458310755 301678026</internalNodes>
      <leafValues>
        -3.3060723543167114e-01 1.8306852877140045e-01</leafValues></_>
    <_>
      <internalNodes>
        0 -1 4188 -1790498176 -1108839262 1815097656 -269569360
        -96935405 -2077480957 142030044 -45482172</internalNodes>
      <leafValues>
        -2.7572402358055115e-01 2.0309868454933167e-01</leafValues></_>
    <_>
      <internalNodes>
        0 -1 8732 -1576611149 -115326944 -801155295 -579771166
        -1935607823 -1200310300 1273911027 -871356972</internalNodes>
      <leafValues>
        -2.3282234370708466e-01 2.4601387977600098e-01</leafValues></_>
    <_>
      <internalNodes>
        0 -1 8130 -1137254409 -38330438 1974652014 -851796 -177864709
        1337360227 -8462342 -102285365</internalNodes>
      <leafValues>
        -1.2606789171695709e-01 4.5398324728012085e-01</leafValues></_>
    <_>
      <internalNodes>
        0 -1 6022 285553122 424939680 1612206129 968376762 -260472397
        -1196416848 549011580 -542424598</internalNodes>
      <leafValues>
        -3.7330147624015808e-01 1.7312759160995483e-01</leafValues></_>
    <_>
      <internalNodes>
        0 -1 1539 -394231774 -1038479236 -476837564 -1907601120
        -912149761 1619528361 1363780797 -1396987109</internalNodes>
      <leafValues>
        -4.8616299033164978e-01 1.2938955426216125e-01</leafValues></_>
    <_>
      <internalNodes>
        0 -1 11347 1937285566 -750414965 -200853842 -1931917061
        1755921884 1083197443 1632446524 2021333835</internalNodes>
      <leafValues>
        -3.6452463269233704e-01 1.6552461683750153e-01</leafValues></_>
    <_>
      <internalNodes>
        0 -1 14942 235946158 1516060189 -262627372 275313234 -70582244
        992349291 -614491582 -771564977</internalNodes>
      <leafValues>
        -3.2524323463439941e-01 1.8743625283241272e-01</leafValues></_>
    <_>
      <internalNodes>
        0 -1 3186 2760722 -258517731 217092341 437293558 281615606
        -739667584 1638533779 1113354336</internalNodes>
      <leafValues>
        -3.0204805731773376e-01 1.9879946112632751e-01</leafValues></_>
    <_>
      <internalNodes>
        0 -1 9522 -1342127332 776519037 -1621613150 -1377918422
        -939101827 545964213 -304252090 81360928</internalNodes>
      <leafValues>
        -4.2818135023117065e-01 1.4299543201923370e-01</leafValues></_>
    <_>
      <internalNodes>
        0 -1 10084 2005646872 467788213 810680846 1212197566 370231434
        1392521354 1502728306 -799544738</internalNodes>
      <leafValues>
        -3.0075910687446594e-01 2.0810516178607941e-01</leafValues></_>
    <_>
      <internalNodes>
        0 -1 14587 1247333481 1594632255 235166171 943533020 -645103662
        -90485605 1041895375 940056890</internalNodes>
      <leafValues>
        -2.8055143356323242e-01 2.1607185900211334e-01</leafValues></_>
    <_>
      <internalNodes>
        0 -1 12015 1393295568 340051140 63185793 1176306319 -266214014
        1653147046 -1926991325 1108149275</internalNodes>
      <leafValues>
        -3.0261054635047913e-01 2.0435500144958496e-01</leafValues></_>
    <_>
      <internalNodes>
        0 -1 15826 980650586 -42661798 -1676028393 273825887 2011365896
        -808037656 1023317720 -79497152</internalNodes>
      <leafValues>
        -2.6705574989318848e-01 2.3106308281421661e-01</leafValues></_>
    <_>
      <internalNodes>
        0 -1 14362 1766034304 -1873493585 -1659728512 853715710
        -1648147575 269685026 -1495120084 1392800290</internalNodes>
      <leafValues>
        -3.7959483265876770e-01 1.6837570071220398e-01</leafValues></_>
    <_>
      <internalNodes>
        0 -1 761 -1416751128 -2098539648 1296476969 -678233984
        -1920732189 -1529432470 -2048945724 1300925270</internalNodes>
      <leafValues>
        -3.1286507844924927e-01 2.0991680026054382e-01</leafValues></_>
    <_>
      <internalNodes>
        0 -1 8303 1938765247 989592498 -155359861 -407408158 -1770037376
        141378806 -1164054021 -780143323</internalNodes>
      <leafValues>
        -2.1868145465850830e-01 2.9505646228790283e-01</leafValues></_>
    <_>
      <internalNodes>
        0 -1 16243 1066536976 -1696655730 667562253 -603696677 -8449636
        -364607409 -1443888524 509354186</internalNodes>
      <leafValues>
        -4.6252298355102539e-01 1.3216567039489746e-01</leafValues></_>
    <_>
      <internalNodes>
        0 -1 12922 -555476300 -816885675 50446414 1326203846 1147611392
        1433227052 -1571450526 57731652</internalNodes>
      <leafValues>
        -5.1624566316604614e-01 1.2494364380836487e-01</leafValues></_>
    <_>
      <internalNodes>
        0 -1 16120 -1439952816 -642640551 100810199 2038903289
        -1836965286 -1653593808 3309544 140003328</internalNodes>
      <leafValues>
        -3.3550140261650085e-01 1.9115704298019409e-01</leafValues></_>
    <_>
      <internalNodes>
        0 -1 14322 -1845613544 1943788997 1100187538 -1072663462
        -797111616 57174037 709410595 1330142878</internalNodes>
      <leafValues>
        -3.8316044211387634e-01 1.6724102199077606e-01</leafValues></_>
    <_>
      <internalNodes>
        0 -1 15540 -560746462 -605067706 -260771254 -264276248
        -106807296 627825777 -177489189 -78645557</internalNodes>
      <leafValues>
        -2.2628110647201538e-01 2.8444832563400269e-01</leafValues></_>
    <_>
      <internalNodes>
        0 -1 2145 -1968675342 -2047061324 -1757319818 836131398 34207623
        -893189343 -1848981620 2482448</internalNodes>
      <leafValues>
        -4.0287300944328308e-01 1.6876856982707977e-01</leafValues></_>
    <_>
      <internalNodes>
        0 -1 15783 1916679354 1959809475 -248904532 1573838716
        -1053790588 -967752169 -1753576806 -260737538</internalNodes>
      <leafValues>
        -2.3762653768062592e-01 2.7681353688240051e-01</leafValues></_></weakClassifiers></stage25>
</opencv_storage>
