<?xml version="1.0"?>
<opencv_storage>
<stage8>
  <maxWeakCount>14</maxWeakCount>
  <stageThreshold>-1.2286120653152466e+00</stageThreshold>
  <weakClassifiers>
    <_>
      <internalNodes>
        0 -1 3192 -169496082 -134218385 -42617857 -3585 -142608385 -1
        -176686081 -526337</internalNodes>
      <leafValues>
        -2.3769758641719818e-01 6.1028444766998291e-01</leafValues></_>
    <_>
      <internalNodes>
        0 -1 10563 -2097153 -1342178641 -826865120 -1439719254 -413939
        -411045889 -581078 -22033</internalNodes>
      <leafValues>
        -3.2551681995391846e-01 4.6848666667938232e-01</leafValues></_>
    <_>
      <internalNodes>
        0 -1 11208 -168296502 1809564127 -496014966 -855641362
        1901293125 1678191606 2003250944 -143130757</internalNodes>
      <leafValues>
        -5.6962752342224121e-01 2.4607673287391663e-01</leafValues></_>
    <_>
      <internalNodes>
        0 -1 9635 -1910624967 -100804133 -14944387 -42339929 -11805985
        -3353965 -788275713 -1925508034</internalNodes>
      <leafValues>
        -4.5660102367401123e-01 2.9688844084739685e-01</leafValues></_>
    <_>
      <internalNodes>
        0 -1 9016 -681609238 13466570 -394825824 1087283886 -1558097298
        472285595 -277360058 1978662911</internalNodes>
      <leafValues>
        -5.5101245641708374e-01 2.1956583857536316e-01</leafValues></_>
    <_>
      <internalNodes>
        0 -1 11755 -445651193 -145238993 -664351937 1363517790
        -439632386 -386601525 1388700411 1964360742</internalNodes>
      <leafValues>
        -4.3050834536552429e-01 2.7343747019767761e-01</leafValues></_>
    <_>
      <internalNodes>
        0 -1 6821 -5260374 -353135958 -1154831840 -300945430 -69206220
        56075237 1674949168 -681576489</internalNodes>
      <leafValues>
        -3.9315888285636902e-01 3.1024393439292908e-01</leafValues></_>
    <_>
      <internalNodes>
        0 -1 10416 -1417691346 -2144391683 -10155122 -1501698322
        2008495925 7296615 -12879097 1742205743</internalNodes>
      <leafValues>
        -5.3331887722015381e-01 2.2295849025249481e-01</leafValues></_>
    <_>
      <internalNodes>
        0 -1 14378 -858793781 -267125809 -1095083382 577436398
        -645933489 336164165 -1144539490 -14680081</internalNodes>
      <leafValues>
        -2.6071500778198242e-01 4.7691518068313599e-01</leafValues></_>
    <_>
      <internalNodes>
        0 -1 28 17363076 -222386967 -638716513 -582755140 -1073760515
        -537012225 -82949 -1081213522</internalNodes>
      <leafValues>
        -2.7540805935859680e-01 4.2971777915954590e-01</leafValues></_>
    <_>
      <internalNodes>
        0 -1 8746 -286349532 -12996395 -211593857 -20674862 1985609727
        -1835297807 -345771701 -1862301039</internalNodes>
      <leafValues>
        -5.1074641942977905e-01 2.2966276109218597e-01</leafValues></_>
    <_>
      <internalNodes>
        0 -1 10736 2108534524 -981347971 -759762016 -1605633361
        1510890199 743809 -96177598 1366817635</internalNodes>
      <leafValues>
        -4.9143564701080322e-01 2.4500453472137451e-01</leafValues></_>
    <_>
      <internalNodes>
        0 -1 9603 1378353652 -755065956 -2004600579 -714054788
        -1571372356 -52706567 -1417348373 -543490321</internalNodes>
      <leafValues>
        -3.3370462059974670e-01 3.5398662090301514e-01</leafValues></_>
    <_>
      <internalNodes>
        0 -1 682 1163243511 2140167577 1988000494 2029248461 -1593595395
        -1390410773 -1295697411 1155379051</internalNodes>
      <leafValues>
        -3.6098206043243408e-01 3.3966398239135742e-01</leafValues></_></weakClassifiers></stage8>
</opencv_storage>
