<?xml version="1.0"?>
<opencv_storage>
<stage11>
  <maxWeakCount>20</maxWeakCount>
  <stageThreshold>-1.0277131795883179e+00</stageThreshold>
  <weakClassifiers>
    <_>
      <internalNodes>
        0 -1 8975 -38 278626223 -1174410622 15380202 -53282 889061375
        -8395062 1155530239</internalNodes>
      <leafValues>
        -1.9478528201580048e-01 5.4028612375259399e-01</leafValues></_>
    <_>
      <internalNodes>
        0 -1 2987 -1140855617 -2297985 -1349540561 -278417809 -805439489
        -25 799854351 -816906966</internalNodes>
      <leafValues>
        -2.4691575765609741e-01 4.3346565961837769e-01</leafValues></_>
    <_>
      <internalNodes>
        0 -1 66 34800177 905187542 1146753431 389415189 299004671
        -795430 1260980475 1400646269</internalNodes>
      <leafValues>
        -3.3023962378501892e-01 3.3426031470298767e-01</leafValues></_>
    <_>
      <internalNodes>
        0 -1 12537 -190318857 1467421422 -778851409 1938531274 360715703
        269166734 -1316441153 1074366155</internalNodes>
      <leafValues>
        -3.0555462837219238e-01 3.3331152796745300e-01</leafValues></_>
    <_>
      <internalNodes>
        0 -1 11154 1939742655 -586088423 538268042 -1712766841
        -151385772 -201913921 -745017174 -440935443</internalNodes>
      <leafValues>
        -3.5007914900779724e-01 2.5171956419944763e-01</leafValues></_>
    <_>
      <internalNodes>
        0 -1 6741 -1739604350 -282072082 -1239193824 -37752159
        1358288309 -995330055 -580991930 -168823393</internalNodes>
      <leafValues>
        -2.4290469288825989e-01 3.7690007686614990e-01</leafValues></_>
    <_>
      <internalNodes>
        0 -1 15122 313788446 -543347745 -138482806 1068636443 -80721464
        -866133 -341672054 -1885327718</internalNodes>
      <leafValues>
        -3.4681156277656555e-01 2.6353284716606140e-01</leafValues></_>
    <_>
      <internalNodes>
        0 -1 3802 1106376151 -1747117614 -1279381344 -3079809
        -2130633537 587333795 -148137122 1664269551</internalNodes>
      <leafValues>
        -3.5889831185340881e-01 2.7106949687004089e-01</leafValues></_>
    <_>
      <internalNodes>
        0 -1 12477 -769593128 -103533520 -1008838659 -69772328
        -1599562564 -1122992016 -1180943988 -1946111672</internalNodes>
      <leafValues>
        -3.1265193223953247e-01 3.0139580368995667e-01</leafValues></_>
    <_>
      <internalNodes>
        0 -1 11498 -37748850 208638267 1524507176 -856759666 459780869
        1078026536 1427047175 -1050152993</internalNodes>
      <leafValues>
        -3.7751936912536621e-01 2.6111474633216858e-01</leafValues></_>
    <_>
      <internalNodes>
        0 -1 9724 -2063593008 -80740112 -1650159241 -37895115
        -1210910022 -1364126492 183540171 -988806976</internalNodes>
      <leafValues>
        -2.9428532719612122e-01 3.4797051548957825e-01</leafValues></_>
    <_>
      <internalNodes>
        0 -1 8210 -280511678 475968764 287315752 -134334997 1485552435
        -466058992 -106320981 1149155171</internalNodes>
      <leafValues>
        -4.5300883054733276e-01 2.1360068023204803e-01</leafValues></_>
    <_>
      <internalNodes>
        0 -1 37 -1373471560 -1538927604 33982896 -1497591419 -70259986
        973066168 -1614085970 1057989700</internalNodes>
      <leafValues>
        -4.9489441514015198e-01 1.9116751849651337e-01</leafValues></_>
    <_>
      <internalNodes>
        0 -1 14560 33558608 -784512928 39392351 1507810494 -1744131952
        -1900386050 135304942 974688697</internalNodes>
      <leafValues>
        -3.3046352863311768e-01 2.6898333430290222e-01</leafValues></_>
    <_>
      <internalNodes>
        0 -1 11281 143472518 1675489442 640625802 -1509169114 1379303176
        292767767 860355331 1127730039</internalNodes>
      <leafValues>
        -5.0546491146087646e-01 1.9359655678272247e-01</leafValues></_>
    <_>
      <internalNodes>
        0 -1 15 -1006323456 -112188166 -1618153551 -572939013
        -1414792705 -343942690 -939659125 -1677780738</internalNodes>
      <leafValues>
        -2.9625067114830017e-01 3.2520279288291931e-01</leafValues></_>
    <_>
      <internalNodes>
        0 -1 10086 1504706559 -2119706813 -1347670548 1751483055
        2113785564 1173741038 1979451982 -153638289</internalNodes>
      <leafValues>
        -2.4490629136562347e-01 3.8322275876998901e-01</leafValues></_>
    <_>
      <internalNodes>
        0 -1 56 -2131850774 2031796740 1305494011 1977178568 1616574399
        -45504101 577992875 568029323</internalNodes>
      <leafValues>
        -5.1127195358276367e-01 1.9133415818214417e-01</leafValues></_>
    <_>
      <internalNodes>
        0 -1 15341 710888294 2010871766 -967676402 1852286602 -15507712
        -1222034688 1918487832 -498804905</internalNodes>
      <leafValues>
        -4.4491967558860779e-01 2.1138399839401245e-01</leafValues></_>
    <_>
      <internalNodes>
        0 -1 9633 -2076176363 -646013744 962802169 -717380251
        -1914138470 -403272263 707580351 -1966327368</internalNodes>
      <leafValues>
        -2.2261229157447815e-01 4.1613870859146118e-01</leafValues></_></weakClassifiers></stage11>
</opencv_storage>
