<?xml version="1.0"?>
<opencv_storage>
<stage15>
  <maxWeakCount>25</maxWeakCount>
  <stageThreshold>-1.0390224456787109e+00</stageThreshold>
  <weakClassifiers>
    <_>
      <internalNodes>
        0 -1 10012 1341063150 -487653401 -755080472 552533998 -302057536
        -136380428 2012477252 -201588785</internalNodes>
      <leafValues>
        -3.1785714626312256e-01 4.9913436174392700e-01</leafValues></_>
    <_>
      <internalNodes>
        0 -1 4589 -52975602 -19082762 727813391 -1355972223 -622748161
        1594860261 -553501427 1326168367</internalNodes>
      <leafValues>
        -3.5719200968742371e-01 2.4786849319934845e-01</leafValues></_>
    <_>
      <internalNodes>
        0 -1 5197 -225 -1073807377 -536923218 -524305 2013257695
        2013265915 -973668353 -16786083</internalNodes>
      <leafValues>
        -2.8801938891410828e-01 2.9527246952056885e-01</leafValues></_>
    <_>
      <internalNodes>
        0 -1 12393 -210763777 -1075446851 -1342227824 -1142248790
        -545320372 -1384173763 -539623348 -111156758</internalNodes>
      <leafValues>
        -2.7668720483779907e-01 3.0959895253181458e-01</leafValues></_>
    <_>
      <internalNodes>
        0 -1 10785 -202463532 20518079 -105655305 -471289089 809923415
        3342459 1984397079 897038255</internalNodes>
      <leafValues>
        -3.6340939998626709e-01 2.1396312117576599e-01</leafValues></_>
    <_>
      <internalNodes>
        0 -1 14354 -67244530 -536873190 -1475843410 307927654
        -1363678714 125385264 -1352492850 -495453558</internalNodes>
      <leafValues>
        -3.5205999016761780e-01 2.0393139123916626e-01</leafValues></_>
    <_>
      <internalNodes>
        0 -1 12480 402653392 -679929615 222329841 2068654577 918856427
        -1120984912 515417082 -1919413016</internalNodes>
      <leafValues>
        -2.8782156109809875e-01 2.7808770537376404e-01</leafValues></_>
    <_>
      <internalNodes>
        0 -1 6996 -1208224022 -5266816 -1263758302 -548418832 1530766227
        231337585 1170568580 -576723539</internalNodes>
      <leafValues>
        -2.3525881767272949e-01 3.4252363443374634e-01</leafValues></_>
    <_>
      <internalNodes>
        0 -1 1601 6357201 1568937511 454432073 -855635812 788594595
        -72951542 1325513393 228196571</internalNodes>
      <leafValues>
        -4.0918743610382080e-01 2.0392559468746185e-01</leafValues></_>
    <_>
      <internalNodes>
        0 -1 12292 -755664928 29614476 -1450540794 652731971 300167971
        1227037011 1941435235 -188223317</internalNodes>
      <leafValues>
        -3.7769737839698792e-01 2.0537775754928589e-01</leafValues></_>
    <_>
      <internalNodes>
        0 -1 12474 -260041264 1971129863 490605165 2139039224
        -1605697537 -330007700 -600261893 -1851925</internalNodes>
      <leafValues>
        -2.1835988759994507e-01 3.8260081410408020e-01</leafValues></_>
    <_>
      <internalNodes>
        0 -1 2204 -1969084510 -58699892 282194902 -579016068 1807477175
        -353556204 72262816 -732441834</internalNodes>
      <leafValues>
        -2.9461163282394409e-01 2.7049660682678223e-01</leafValues></_>
    <_>
      <internalNodes>
        0 -1 9221 1915396270 1779409540 1646225568 1122353160 1371240341
        1081128194 1897871237 1464727114</internalNodes>
      <leafValues>
        -4.3548294901847839e-01 1.7580726742744446e-01</leafValues></_>
    <_>
      <internalNodes>
        0 -1 13606 540004011 -1429599990 -1073658608 -200433201
        651140067 1613163266 -458000637 -973078561</internalNodes>
      <leafValues>
        -2.7860468626022339e-01 2.6798450946807861e-01</leafValues></_>
    <_>
      <internalNodes>
        0 -1 12546 8258062 852531709 1406533469 963041622 -1039021640
        -1647503781 1376083384 843784202</internalNodes>
      <leafValues>
        -3.5875785350799561e-01 2.1656243503093719e-01</leafValues></_>
    <_>
      <internalNodes>
        0 -1 78 143167704 -1436481416 1495449079 -104766992 -1492472641
        -1344656471 -1685268241 -1681157160</internalNodes>
      <leafValues>
        -2.4014604091644287e-01 3.3943018317222595e-01</leafValues></_>
    <_>
      <internalNodes>
        0 -1 7185 -1498090532 -305450337 -89947090 -2019217457
        1133469549 -886865014 -68211409 -844668937</internalNodes>
      <leafValues>
        -3.5289919376373291e-01 2.2307571768760681e-01</leafValues></_>
    <_>
      <internalNodes>
        0 -1 12607 -151266955 813315071 -89128965 2067758966 -251728386
        -1812465811 -252379142 -253479044</internalNodes>
      <leafValues>
        -2.2963276505470276e-01 3.4040343761444092e-01</leafValues></_>
    <_>
      <internalNodes>
        0 -1 830 -1374805344 -1939325916 -1823763375 -1968299481
        -1345589133 -1941199709 407047220 485448917</internalNodes>
      <leafValues>
        -5.0965678691864014e-01 1.4902365207672119e-01</leafValues></_>
    <_>
      <internalNodes>
        0 -1 10280 939438071 -605558153 -1242648692 -1118545 -413139521
        -1082820761 715442107 1902569087</internalNodes>
      <leafValues>
        -2.3858146369457245e-01 3.2925584912300110e-01</leafValues></_>
    <_>
      <internalNodes>
        0 -1 7770 -94948353 867668871 381755532 1886580452 33554474
        163578698 -1459416384 1442305727</internalNodes>
      <leafValues>
        -2.7515074610710144e-01 2.8351622819900513e-01</leafValues></_>
    <_>
      <internalNodes>
        0 -1 5545 1885218086 846607836 -1904533972 -2088778554
        -1950667937 -455186172 -101856846 1725302731</internalNodes>
      <leafValues>
        -5.1303952932357788e-01 1.5450677275657654e-01</leafValues></_>
    <_>
      <internalNodes>
        0 -1 15130 -965082088 -546803524 548101229 -1613795054
        1608392541 -246099673 1264255947 1223639226</internalNodes>
      <leafValues>
        -4.2199054360389709e-01 1.9470471143722534e-01</leafValues></_>
    <_>
      <internalNodes>
        0 -1 4094 124907065 457745392 -2132942750 1462337680 -1435107613
        571094591 170854653 -114465289</internalNodes>
      <leafValues>
        -2.6019242405891418e-01 3.1312152743339539e-01</leafValues></_>
    <_>
      <internalNodes>
        0 -1 16238 -1647886628 -74760325 -690996690 1549228899
        -703021520 -137971182 -1432321933 -905388464</internalNodes>
      <leafValues>
        -3.0319121479988098e-01 2.6396039128303528e-01</leafValues></_></weakClassifiers></stage15>
</opencv_storage>
