<?xml version="1.0"?>
<opencv_storage>
<stage4>
  <maxWeakCount>10</maxWeakCount>
  <stageThreshold>-1.4811156988143921e+00</stageThreshold>
  <weakClassifiers>
    <_>
      <internalNodes>
        0 -1 7437 -923867954 -101187589 -1074282497 -16406 1124069375
        -620773393 2013261775 -1308938295</internalNodes>
      <leafValues>
        -4.8464912176132202e-01 6.2480944395065308e-01</leafValues></_>
    <_>
      <internalNodes>
        0 -1 11014 -545390610 -247348761 -372247648 -403839510
        2068018947 824181139 2000758530 -143133701</internalNodes>
      <leafValues>
        -5.1238465309143066e-01 4.8365813493728638e-01</leafValues></_>
    <_>
      <internalNodes>
        0 -1 8461 -34603013 -412106753 -2102456790 -1548776785
        -335609857 -872415233 -33616853 -272650609</internalNodes>
      <leafValues>
        -3.8859659433364868e-01 5.0781023502349854e-01</leafValues></_>
    <_>
      <internalNodes>
        0 -1 54 4718847 1977034711 -1657833985 -72478897 -1342185473
        -101720066 1605353393 -37756993</internalNodes>
      <leafValues>
        -3.6570170521736145e-01 5.2160370349884033e-01</leafValues></_>
    <_>
      <internalNodes>
        0 -1 8977 -210241537 299859887 1919807138 1089463206 -1302086929
        1569952298 -11031802 -771758097</internalNodes>
      <leafValues>
        -4.4021925330162048e-01 4.2030829191207886e-01</leafValues></_>
    <_>
      <internalNodes>
        0 -1 7337 1932730628 -1212696265 1570411455 867627892
        -1300956243 -1918072721 830668541 -1285193093</internalNodes>
      <leafValues>
        -6.1053258180618286e-01 2.8088325262069702e-01</leafValues></_>
    <_>
      <internalNodes>
        0 -1 12253 -680806422 -392826240 -2099270014 -1905820738
        1383932480 47034470 -127455484 -478679289</internalNodes>
      <leafValues>
        -4.9432939291000366e-01 3.4455603361129761e-01</leafValues></_>
    <_>
      <internalNodes>
        0 -1 8989 870317503 -179891977 88647174 -305411089 320279549
        2314635 -430707954 2001730383</internalNodes>
      <leafValues>
        -4.1775107383728027e-01 4.0836146473884583e-01</leafValues></_>
    <_>
      <internalNodes>
        0 -1 14575 1148191756 -539083649 -1126637570 -6558209 -392717396
        -1745293430 -82658629 -1431803681</internalNodes>
      <leafValues>
        -4.0276083350181580e-01 4.0315255522727966e-01</leafValues></_>
    <_>
      <internalNodes>
        0 -1 5962 2083157720 -560271650 -1109569 -7275096 -936386316
        -184713738 -3211573 -270729377</internalNodes>
      <leafValues>
        -3.3021941781044006e-01 4.8879399895668030e-01</leafValues></_></weakClassifiers></stage4>
</opencv_storage>
