<?xml version="1.0"?>
<opencv_storage>
<stage27>
  <maxWeakCount>33</maxWeakCount>
  <stageThreshold>-9.2377328872680664e-01</stageThreshold>
  <weakClassifiers>
    <_>
      <internalNodes>
        0 -1 11263 627477804 1468204059 -2009021760 -846358264
        -534375420 1446220357 1619420704 610764770</internalNodes>
      <leafValues>
        -3.6683416366577148e-01 4.5738333463668823e-01</leafValues></_>
    <_>
      <internalNodes>
        0 -1 12403 1979085182 -27340567 -2068284164 -207946766
        -372654219 974487627 -69230596 -1219407810</internalNodes>
      <leafValues>
        -2.5039315223693848e-01 2.4563021957874298e-01</leafValues></_>
    <_>
      <internalNodes>
        0 -1 54 5244159 1366331635 402745611 423112282 -382681677
        -1081880336 -116802155 -71070258</internalNodes>
      <leafValues>
        -2.7208971977233887e-01 2.1818733215332031e-01</leafValues></_>
    <_>
      <internalNodes>
        0 -1 12475 -541124336 1530478077 -1184123331 -1644297090
        -572863767 -640443405 -930219688 -608256065</internalNodes>
      <leafValues>
        -1.9601112604141235e-01 2.9801952838897705e-01</leafValues></_>
    <_>
      <internalNodes>
        0 -1 11613 -67715082 284591836 -750767620 -1677815844
        -1640012495 1652765339 982716536 1841262798</internalNodes>
      <leafValues>
        -2.9339474439620972e-01 1.9957081973552704e-01</leafValues></_>
    <_>
      <internalNodes>
        0 -1 10170 269724859 375976329 -1057544990 -587626014
        -2146222005 1107427329 1740059075 -201875473</internalNodes>
      <leafValues>
        -2.7419835329055786e-01 2.2002944350242615e-01</leafValues></_>
    <_>
      <internalNodes>
        0 -1 15874 -386921467 -205606625 526015998 -177327137
        -1195591740 -1365335 -553072150 -1441777666</internalNodes>
      <leafValues>
        -2.4937891960144043e-01 2.3827314376831055e-01</leafValues></_>
    <_>
      <internalNodes>
        0 -1 4872 2069305107 -556646921 2088107601 -147464 -537919841
        -1342980994 223679656 -77621032</internalNodes>
      <leafValues>
        -1.6342721879482269e-01 3.7585234642028809e-01</leafValues></_>
    <_>
      <internalNodes>
        0 -1 14926 -139530548 585416866 935389218 -2133329734
        -1408674239 1618137893 -1083778558 1934529123</internalNodes>
      <leafValues>
        -4.3853557109832764e-01 1.3814161717891693e-01</leafValues></_>
    <_>
      <internalNodes>
        0 -1 3495 715267219 1244283722 -800595493 -175379156 570663707
        -1239550185 92371047 226708944</internalNodes>
      <leafValues>
        -3.2144635915756226e-01 1.8552067875862122e-01</leafValues></_>
    <_>
      <internalNodes>
        0 -1 15020 -118250338 1604353281 819726010 1894645515 -161499072
        956712215 707970558 -213124502</internalNodes>
      <leafValues>
        -2.3029492795467377e-01 2.5701832771301270e-01</leafValues></_>
    <_>
      <internalNodes>
        0 -1 11680 -690962190 -155441660 131203186 1502972073
        -1836875302 -2043672947 1387794619 864201219</internalNodes>
      <leafValues>
        -2.2114741802215576e-01 2.7031758427619934e-01</leafValues></_>
    <_>
      <internalNodes>
        0 -1 14820 513215238 1845236007 -1589086942 1781960047 152594948
        1479886137 -211376402 -267914688</internalNodes>
      <leafValues>
        -3.4713917970657349e-01 1.7009423673152924e-01</leafValues></_>
    <_>
      <internalNodes>
        0 -1 5781 -1618615621 -282140942 1608880693 2112822560
        -1494512161 17089765 373707205 -536889937</internalNodes>
      <leafValues>
        -1.6652315855026245e-01 3.5042506456375122e-01</leafValues></_>
    <_>
      <internalNodes>
        0 -1 9467 -2081027482 -1940500165 2136498238 -930073555
        -1547613979 547537795 -41827878 99081794</internalNodes>
      <leafValues>
        -4.3855953216552734e-01 1.4483687281608582e-01</leafValues></_>
    <_>
      <internalNodes>
        0 -1 14141 1985383531 -1255790754 -1073157733 144861151
        -2012849984 -330462489 -335222134 140684522</internalNodes>
      <leafValues>
        -2.6765018701553345e-01 2.3982352018356323e-01</leafValues></_>
    <_>
      <internalNodes>
        0 -1 4829 -1291078966 614692771 563586456 -523786002 -1888809824
        328770178 1340375462 1206216714</internalNodes>
      <leafValues>
        -3.1043708324432373e-01 2.0098526775836945e-01</leafValues></_>
    <_>
      <internalNodes>
        0 -1 7281 -653198030 -257112883 1062837449 -1746329675
        -1078332097 -645641 -70403687 -1112795804</internalNodes>
      <leafValues>
        -1.9344024360179901e-01 3.2748699188232422e-01</leafValues></_>
    <_>
      <internalNodes>
        0 -1 10713 -2077220684 -1692998135 -518663204 -1613074424
        -355755335 -1397894420 -1316509638 -1959325425</internalNodes>
      <leafValues>
        -3.4178546071052551e-01 1.7903366684913635e-01</leafValues></_>
    <_>
      <internalNodes>
        0 -1 15433 1347948490 -1324765170 -1738397110 -533799350
        -1254346236 -500594683 -1725507904 -26184759</internalNodes>
      <leafValues>
        -3.1467106938362122e-01 1.9885742664337158e-01</leafValues></_>
    <_>
      <internalNodes>
        0 -1 14087 -2111041 -733606342 -700629 -1656809459 1198696122
        -449409883 1700452331 -310658561</internalNodes>
      <leafValues>
        -1.3550595939159393e-01 4.9569225311279297e-01</leafValues></_>
    <_>
      <internalNodes>
        0 -1 13245 -618626832 1497431237 10629682 -173556932 -546395472
        -1601943776 58819227 -2095085413</internalNodes>
      <leafValues>
        -1.8631072342395782e-01 3.3357405662536621e-01</leafValues></_>
    <_>
      <internalNodes>
        0 -1 16092 -558297892 1463639645 2117176543 859796302 997104650
        -1385105 511742715 -1089970386</internalNodes>
      <leafValues>
        -2.3377107083797455e-01 2.7225881814956665e-01</leafValues></_>
    <_>
      <internalNodes>
        0 -1 4706 -1330080781 -144646558 -78778603 1036947435 -797402439
        -1108363273 1555999995 -1628632042</internalNodes>
      <leafValues>
        -1.4021526277065277e-01 4.4265845417976379e-01</leafValues></_>
    <_>
      <internalNodes>
        0 -1 1068 -1918407745 -1525895424 -1122804250 -1921124103
        -292635285 -1124366982 1136242965 -1147810220</internalNodes>
      <leafValues>
        -2.2885246574878693e-01 2.8074005246162415e-01</leafValues></_>
    <_>
      <internalNodes>
        0 -1 2048 1404045487 876942231 1700262410 194561026 2097311
        -779091831 -514733157 297909209</internalNodes>
      <leafValues>
        -3.2768926024436951e-01 1.9029192626476288e-01</leafValues></_>
    <_>
      <internalNodes>
        0 -1 9313 -589050646 -621027490 462619456 -1327600960 -958842078
        1718011400 1521603826 -1217136641</internalNodes>
      <leafValues>
        -2.5617194175720215e-01 2.6611045002937317e-01</leafValues></_>
    <_>
      <internalNodes>
        0 -1 12466 -782975360 -1116634229 89397567 1404670253
        -1434154720 -601777662 644543451 -1162499237</internalNodes>
      <leafValues>
        -2.7045816183090210e-01 2.5972974300384521e-01</leafValues></_>
    <_>
      <internalNodes>
        0 -1 3826 515254970 1760069122 -1556756892 -1306903998
        2017176467 -987682656 727844192 120762436</internalNodes>
      <leafValues>
        -4.2816007137298584e-01 1.4283476769924164e-01</leafValues></_>
    <_>
      <internalNodes>
        0 -1 15216 -1695086065 -1634233064 976744890 -1235080911
        -1625705960 -1647456387 2117794734 -2084880485</internalNodes>
      <leafValues>
        -2.2563806176185608e-01 2.9333582520484924e-01</leafValues></_>
    <_>
      <internalNodes>
        0 -1 13607 -1392574545 -1144902101 -268435800 -307527892
        1325122463 -1971398785 1693841220 -975704097</internalNodes>
      <leafValues>
        -2.2438900172710419e-01 2.9248800873756409e-01</leafValues></_>
    <_>
      <internalNodes>
        0 -1 3212 570815008 -2059996196 2041934071 1605640514 1048465589
        -857757008 536114545 -1856226994</internalNodes>
      <leafValues>
        -3.2770723104476929e-01 1.9654209911823273e-01</leafValues></_>
    <_>
      <internalNodes>
        0 -1 13894 -503388512 984962398 -1600705376 -745807124
        1993016325 172331599 1995053986 1164107326</internalNodes>
      <leafValues>
        -3.9172661304473877e-01 1.6441230475902557e-01</leafValues></_></weakClassifiers></stage27>
</opencv_storage>
