<?xml version="1.0"?>
<opencv_storage>
<stage3>
  <maxWeakCount>9</maxWeakCount>
  <stageThreshold>-1.6111885309219360e+00</stageThreshold>
  <weakClassifiers>
    <_>
      <internalNodes>
        0 -1 10676 -449370365 -142606531 -142606465 -129 -16385 -129
        -8931329 -276828353</internalNodes>
      <leafValues>
        -3.4426230192184448e-01 7.2597044706344604e-01</leafValues></_>
    <_>
      <internalNodes>
        0 -1 7783 -704643137 -537919570 -1118212606 -993073334
        -539492353 -1879048371 -1074266354 -537923633</internalNodes>
      <leafValues>
        -4.4207838177680969e-01 5.9787279367446899e-01</leafValues></_>
    <_>
      <internalNodes>
        0 -1 10209 -470 -1500596274 -1398764544 -1882390994 2069827340
        -1131976305 2135908100 -268435457</internalNodes>
      <leafValues>
        -5.5119341611862183e-01 4.0692108869552612e-01</leafValues></_>
    <_>
      <internalNodes>
        0 -1 1629 -179324018 -537657377 1934812155 -139395112
        -1145308161 -67111939 -67393797 -134479877</internalNodes>
      <leafValues>
        -6.5035521984100342e-01 3.3295577764511108e-01</leafValues></_>
    <_>
      <internalNodes>
        0 -1 9886 -388237588 -1917853009 -243908086 -923998590
        1540618055 -716453425 1551333954 -721420289</internalNodes>
      <leafValues>
        -5.7893031835556030e-01 3.3876857161521912e-01</leafValues></_>
    <_>
      <internalNodes>
        0 -1 7185 -268587282 -306195065 -1548998648 -1550866545
        -547422453 -269746721 -537981173 -269493877</internalNodes>
      <leafValues>
        -5.0171446800231934e-01 3.7932139635086060e-01</leafValues></_>
    <_>
      <internalNodes>
        0 -1 7297 15134467 -536881527 -170395729 -203958309 15990703
        -806634334 1172045823 1081598771</internalNodes>
      <leafValues>
        -6.3565915822982788e-01 2.5864368677139282e-01</leafValues></_>
    <_>
      <internalNodes>
        0 -1 12051 2145894383 -1897091122 -577914 -1374843221 -13147545
        2147434036 1176858371 -297275805</internalNodes>
      <leafValues>
        -3.9549201726913452e-01 4.6389698982238770e-01</leafValues></_>
    <_>
      <internalNodes>
        0 -1 10024 -782274577 -175913481 -170137942 -271092257
        -215652753 565607129 1450567360 1969749743</internalNodes>
      <leafValues>
        -4.5246437191963196e-01 3.7511640787124634e-01</leafValues></_></weakClassifiers></stage3>
</opencv_storage>
