<?xml version="1.0"?>
<opencv_storage>
<stage22>
  <maxWeakCount>33</maxWeakCount>
  <stageThreshold>-1.0086908340454102e+00</stageThreshold>
  <weakClassifiers>
    <_>
      <internalNodes>
        0 -1 11400 783169536 267304815 -1375754616 -1369071027
        -134252800 544407350 -245612768 1181012257</internalNodes>
      <leafValues>
        -4.3713957071304321e-01 4.5378082990646362e-01</leafValues></_>
    <_>
      <internalNodes>
        0 -1 10654 -81020144 2012348063 -2030100707 1575466461
        -282601476 -826295106 -168903940 -1913667681</internalNodes>
      <leafValues>
        -1.7124383151531219e-01 3.4291329979896545e-01</leafValues></_>
    <_>
      <internalNodes>
        0 -1 13577 261066735 -1020279262 -444554942 -1630563324 78471879
        66554753 1086813541 100656583</internalNodes>
      <leafValues>
        -3.4029957652091980e-01 1.7617990076541901e-01</leafValues></_>
    <_>
      <internalNodes>
        0 -1 144 7735313 943882293 69074807 1613381669 -744875084
        -91145173 -81637862 1334523931</internalNodes>
      <leafValues>
        -2.5656899809837341e-01 2.2201077640056610e-01</leafValues></_>
    <_>
      <internalNodes>
        0 -1 11237 -241701145 -1528335637 1800859138 213999623
        1346414534 696340882 -80479742 1547010735</internalNodes>
      <leafValues>
        -2.5807029008865356e-01 2.2342355549335480e-01</leafValues></_>
    <_>
      <internalNodes>
        0 -1 9772 -1901422095 -67708270 -538977385 -571173674
        -1533827612 -129220365 -1754605641 -841482175</internalNodes>
      <leafValues>
        -2.4601264297962189e-01 2.4274715781211853e-01</leafValues></_>
    <_>
      <internalNodes>
        0 -1 11619 -581763593 1431820855 -915167701 -906245493
        -237756641 1733895003 -159970782 -296277413</internalNodes>
      <leafValues>
        -2.5320515036582947e-01 2.2593176364898682e-01</leafValues></_>
    <_>
      <internalNodes>
        0 -1 6896 1062187683 -515577914 -204140896 -322185754 901571443
        1614393306 1373332576 -705568282</internalNodes>
      <leafValues>
        -2.6299187541007996e-01 2.2102752327919006e-01</leafValues></_>
    <_>
      <internalNodes>
        0 -1 13558 -1091859316 -253280761 -135337491 -114143437
        1357864462 -1593891313 -178323969 -1832911089</internalNodes>
      <leafValues>
        -2.1688656508922577e-01 2.7223449945449829e-01</leafValues></_>
    <_>
      <internalNodes>
        0 -1 12558 -636469136 -628073934 -857152129 986266996
        -1541633904 -158554004 -1584910659 150998352</internalNodes>
      <leafValues>
        -2.9853302240371704e-01 1.9559039175510406e-01</leafValues></_>
    <_>
      <internalNodes>
        0 -1 9897 -105566978 -1877933641 -437410582 -994539314
        1712614212 35651637 1981243396 1987522909</internalNodes>
      <leafValues>
        -5.1453113555908203e-01 1.1259330809116364e-01</leafValues></_>
    <_>
      <internalNodes>
        0 -1 9399 1064971854 251622118 -1454203008 -2111783730 595705643
        78756699 -77438358 1693950735</internalNodes>
      <leafValues>
        -5.1392740011215210e-01 1.1967452615499496e-01</leafValues></_>
    <_>
      <internalNodes>
        0 -1 13261 3145728 -1701148235 511515133 276643081 -1912586269
        -1689679263 -1390382005 439367698</internalNodes>
      <leafValues>
        -5.2569085359573364e-01 1.0784884542226791e-01</leafValues></_>
    <_>
      <internalNodes>
        0 -1 14386 1028115991 2146434942 -83957960 -529078734 1600452314
        1498234845 -673087747 2147352031</internalNodes>
      <leafValues>
        -2.1149277687072754e-01 3.0004963278770447e-01</leafValues></_>
    <_>
      <internalNodes>
        0 -1 8355 -553972088 -856791164 -1944640768 2046683018
        -1966111868 1107648971 -671599678 -673319955</internalNodes>
      <leafValues>
        -2.5859418511390686e-01 2.3170340061187744e-01</leafValues></_>
    <_>
      <internalNodes>
        0 -1 1640 -1400319256 -534971918 -1435110917 -70667372
        -1555866739 -337456424 900969979 -550435812</internalNodes>
      <leafValues>
        -2.5691047310829163e-01 2.4171750247478485e-01</leafValues></_>
    <_>
      <internalNodes>
        0 -1 16133 2042103922 -578876908 1613787519 1398786031
        -1753706344 -646206903 689027530 -1156007447</internalNodes>
      <leafValues>
        -1.9924199581146240e-01 3.1180551648139954e-01</leafValues></_>
    <_>
      <internalNodes>
        0 -1 11712 -120275252 293458582 1359207405 -2046594663
        2025206170 1216580234 13924615 1243052323</internalNodes>
      <leafValues>
        -3.4586638212203979e-01 1.8643511831760406e-01</leafValues></_>
    <_>
      <internalNodes>
        0 -1 9601 -144792616 -1074224440 206441366 214708009 -561280277
        -458769490 -382281812 -45439572</internalNodes>
      <leafValues>
        -2.5519180297851562e-01 2.4127893149852753e-01</leafValues></_>
    <_>
      <internalNodes>
        0 -1 2430 186921774 183031182 -483440962 -313650039 539000207
        108683343 834336116 21348368</internalNodes>
      <leafValues>
        -4.2289084196090698e-01 1.4720125496387482e-01</leafValues></_>
    <_>
      <internalNodes>
        0 -1 14446 -423952690 -18792620 854221562 814655482 -87769344
        -998904317 -539498614 -205523973</internalNodes>
      <leafValues>
        -2.3478794097900391e-01 2.7380815148353577e-01</leafValues></_>
    <_>
      <internalNodes>
        0 -1 4764 -226378605 5294493 -2087740307 -845702980 -1308752712
        122818848 -1613821782 363283456</internalNodes>
      <leafValues>
        -3.0776160955429077e-01 2.1227715909481049e-01</leafValues></_>
    <_>
      <internalNodes>
        0 -1 13292 -102835973 -8781883 -8553712 -10748019 1157070591
        -142616740 -34670198 -278934033</internalNodes>
      <leafValues>
        -1.4120428264141083e-01 4.4900199770927429e-01</leafValues></_>
    <_>
      <internalNodes>
        0 -1 14 2101536 -823102784 1669297653 1432113632 -2103923725
        -1159091608 490593691 134483236</internalNodes>
      <leafValues>
        -3.6543822288513184e-01 1.6914580762386322e-01</leafValues></_>
    <_>
      <internalNodes>
        0 -1 219 -1069044280 -665612054 67174545 271859764 -1304939527
        -1195792198 1758462914 2025392365</internalNodes>
      <leafValues>
        -6.3249748945236206e-01 9.4773560762405396e-02</leafValues></_>
    <_>
      <internalNodes>
        0 -1 12986 -6960438 -2115585703 -813460602 -817130785
        -1573769322 542377572 -1346118133 -1609570646</internalNodes>
      <leafValues>
        -2.5594165921211243e-01 2.5715911388397217e-01</leafValues></_>
    <_>
      <internalNodes>
        0 -1 8405 -501026368 -895807192 -1810639072 524481513 1442809761
        81001960 -707542109 -745561101</internalNodes>
      <leafValues>
        -2.4351890385150909e-01 2.5959029793739319e-01</leafValues></_>
    <_>
      <internalNodes>
        0 -1 10660 268457008 -647491177 966100951 -578878392 -1195852359
        -1477411204 1030533115 -1356068535</internalNodes>
      <leafValues>
        -2.3807634413242340e-01 2.7073010802268982e-01</leafValues></_>
    <_>
      <internalNodes>
        0 -1 7025 -80900678 -150757662 2070634752 1028646112 -1345013831
        201426162 1967624512 -874513286</internalNodes>
      <leafValues>
        -2.1290574967861176e-01 2.9743960499763489e-01</leafValues></_>
    <_>
      <internalNodes>
        0 -1 16147 -661246380 1354774643 1096981879 2106748747
        -283379196 -84156708 -299110178 -1173864807</internalNodes>
      <leafValues>
        -2.8434804081916809e-01 2.4038429558277130e-01</leafValues></_>
    <_>
      <internalNodes>
        0 -1 15511 -1685863922 2067782477 -1532833678 271629127
        2143036056 -709439401 -1150635266 -82912805</internalNodes>
      <leafValues>
        -2.2088338434696198e-01 2.9071786999702454e-01</leafValues></_>
    <_>
      <internalNodes>
        0 -1 12471 -1793815308 -176353811 296813747 931725755
        -1564824935 -1558967114 976776207 927929395</internalNodes>
      <leafValues>
        -2.3904751241207123e-01 2.7102273702621460e-01</leafValues></_>
    <_>
      <internalNodes>
        0 -1 14408 979573983 1986380349 1960998144 35835999 1424771916
        269037607 -1989487898 -61524131</internalNodes>
      <leafValues>
        -2.8557866811752319e-01 2.3036660254001617e-01</leafValues></_></weakClassifiers></stage22>
</opencv_storage>
