<?xml version="1.0"?>
<opencv_storage>
<stage7>
  <maxWeakCount>15</maxWeakCount>
  <stageThreshold>-1.1417759656906128e+00</stageThreshold>
  <weakClassifiers>
    <_>
      <internalNodes>
        0 -1 10729 -135858432 -145295569 1610610687 -1217398841
        -134744065 -16828425 1996421115 -168314937</internalNodes>
      <leafValues>
        -3.8400945067405701e-01 5.8047318458557129e-01</leafValues></_>
    <_>
      <internalNodes>
        0 -1 10527 -100728836 -204537859 -268648452 -134221843
        -1343356929 -285345922 -34340897 -1048833</internalNodes>
      <leafValues>
        -2.5037252902984619e-01 5.7263010740280151e-01</leafValues></_>
    <_>
      <internalNodes>
        0 -1 11395 -68945238 -2074684785 -1060126720 -1024986228
        -74992829 171041259 -1878531582 -1060132289</internalNodes>
      <leafValues>
        -3.9494943618774414e-01 3.5727423429489136e-01</leafValues></_>
    <_>
      <internalNodes>
        0 -1 7424 -491788307 -206440560 -812271781 -711474911
        -2084445197 -980172150 218747387 2211971</internalNodes>
      <leafValues>
        -4.3517288565635681e-01 3.1453776359558105e-01</leafValues></_>
    <_>
      <internalNodes>
        0 -1 13580 1993408506 -288357810 -787414857 -1979494052
        1383113411 843059729 1349849875 1903686499</internalNodes>
      <leafValues>
        -4.3568289279937744e-01 3.1616866588592529e-01</leafValues></_>
    <_>
      <internalNodes>
        0 -1 9663 858223872 1937199735 -1727258113 937838950 1614998943
        -1851309909 67125423 925196515</internalNodes>
      <leafValues>
        -6.6963404417037964e-01 1.5934146940708160e-01</leafValues></_>
    <_>
      <internalNodes>
        0 -1 10653 -2078273384 2142523224 738081557 -7299706 1830057384
        -277315916 461437640 -5255768</internalNodes>
      <leafValues>
        -3.1399145722389221e-01 4.0575474500656128e-01</leafValues></_>
    <_>
      <internalNodes>
        0 -1 11136 1997668047 -1047183153 -251962996 -441460786
        1405997482 1507091030 1405297154 1364721391</internalNodes>
      <leafValues>
        -4.1959539055824280e-01 2.9945608973503113e-01</leafValues></_>
    <_>
      <internalNodes>
        0 -1 17 86674636 -1089855040 -1525739380 -547928894 -888480545
        -71458899 -2096898561 -1885355841</internalNodes>
      <leafValues>
        -3.6256030201911926e-01 3.4492367506027222e-01</leafValues></_>
    <_>
      <internalNodes>
        0 -1 3062 1823386542 -322387740 -2045753077 -809203425
        1925968109 1200146442 463129866 -809816421</internalNodes>
      <leafValues>
        -4.4365403056144714e-01 2.9628458619117737e-01</leafValues></_>
    <_>
      <internalNodes>
        0 -1 63 -1060853590 -1874032243 150708896 -706351153 2143081471
        -338047313 -673653841 368943487</internalNodes>
      <leafValues>
        -5.1717370748519897e-01 2.2310496866703033e-01</leafValues></_>
    <_>
      <internalNodes>
        0 -1 8974 -783057409 1901812703 2009187816 1616432874 151065002
        1113792719 -514084310 1365764863</internalNodes>
      <leafValues>
        -3.8833001255989075e-01 3.4132933616638184e-01</leafValues></_>
    <_>
      <internalNodes>
        0 -1 8620 1310812 -1126384513 -1589320963 -1084403695 1083748543
        -1933907557 269824188 209992056</internalNodes>
      <leafValues>
        -3.6375656723976135e-01 3.6490359902381897e-01</leafValues></_>
    <_>
      <internalNodes>
        0 -1 9340 -992247064 -1058247806 -1070165024 -1259340924
        -225711230 42617102 1738961587 2004349879</internalNodes>
      <leafValues>
        -4.6987003087997437e-01 2.5615838170051575e-01</leafValues></_>
    <_>
      <internalNodes>
        0 -1 12252 1506518146 -1976569216 1387325440 1317397902
        1102279522 160047875 -1304069088 1098365475</internalNodes>
      <leafValues>
        -5.1504743099212646e-01 2.4178978800773621e-01</leafValues></_></weakClassifiers></stage7>
</opencv_storage>
