<?xml version="1.0"?>
<opencv_storage>
<stage14>
  <maxWeakCount>24</maxWeakCount>
  <stageThreshold>-1.0197678804397583e+00</stageThreshold>
  <weakClassifiers>
    <_>
      <internalNodes>
        0 -1 7122 -201462272 -218103826 -805380242 -483390 2130179568
        -723451917 -176333345 -89132069</internalNodes>
      <leafValues>
        -4.2577676475048065e-02 5.5145549774169922e-01</leafValues></_>
    <_>
      <internalNodes>
        0 -1 10653 -2080368624 -238801032 1946057085 -1612800578
        -849027332 -491884 -269942792 -30692712</internalNodes>
      <leafValues>
        -2.3019258677959442e-01 3.4852731227874756e-01</leafValues></_>
    <_>
      <internalNodes>
        0 -1 12483 -311089389 -169965219 -53169953 -719717681
        -1010304289 -1064713654 -712775505 -948526762</internalNodes>
      <leafValues>
        -3.8241937756538391e-01 2.1996229887008667e-01</leafValues></_>
    <_>
      <internalNodes>
        0 -1 14337 -287487478 -96550169 -889263030 -1301122642
        -1409294586 919041383 -795547425 -256919169</internalNodes>
      <leafValues>
        -3.3429154753684998e-01 2.3213410377502441e-01</leafValues></_>
    <_>
      <internalNodes>
        0 -1 11672 -268250384 -1163884328 -1270044207 -775871876
        -1043926884 -60774782 -192619589 -535105</internalNodes>
      <leafValues>
        -1.9404818117618561e-01 4.0481251478195190e-01</leafValues></_>
    <_>
      <internalNodes>
        0 -1 13274 3145797 -665321601 -96217601 -216113699 -2087151670
        -65598883 -98034241 -1695995266</internalNodes>
      <leafValues>
        -2.9715430736541748e-01 2.6624307036399841e-01</leafValues></_>
    <_>
      <internalNodes>
        0 -1 3685 1809839217 1913996567 2039980192 -604702222
        -1987362123 -1902567166 -411617036 -514920073</internalNodes>
      <leafValues>
        -4.1138511896133423e-01 1.9538317620754242e-01</leafValues></_>
    <_>
      <internalNodes>
        0 -1 12107 -1590289 1286593999 -822116638 -1469055537 1873671687
        -1619533833 -1032336125 -825237529</internalNodes>
      <leafValues>
        -2.6267486810684204e-01 3.1557083129882812e-01</leafValues></_>
    <_>
      <internalNodes>
        0 -1 10776 -1808787952 -193841865 -632850851 67530629
        -2002483072 -1597133671 1211676346 -1878521320</internalNodes>
      <leafValues>
        -3.0337655544281006e-01 2.6891145110130310e-01</leafValues></_>
    <_>
      <internalNodes>
        0 -1 5406 774840906 -991906161 -1289095568 -168340512 -165727309
        1694087095 2010479008 1979184742</internalNodes>
      <leafValues>
        -3.7668088078498840e-01 2.0997905731201172e-01</leafValues></_>
    <_>
      <internalNodes>
        0 -1 14393 -1392573942 1615911438 -1501672958 276999770
        2084389184 1430481990 -1602993326 1885837438</internalNodes>
      <leafValues>
        -5.2161872386932373e-01 1.4303763210773468e-01</leafValues></_>
    <_>
      <internalNodes>
        0 -1 6123 579985521 -250716045 1295012305 -681290512 95646198
        -1207716894 1143883205 1090523571</internalNodes>
      <leafValues>
        -3.7052303552627563e-01 2.1433831751346588e-01</leafValues></_>
    <_>
      <internalNodes>
        0 -1 8481 -590598145 -391186881 -292149205 -1453520625
        1342102899 1308622847 -277115597 -8396849</internalNodes>
      <leafValues>
        -2.6847854256629944e-01 2.9859954118728638e-01</leafValues></_>
    <_>
      <internalNodes>
        0 -1 974 -1506922575 -1937592832 1683889649 -1407286024
        -1496612881 -1791891276 1339532148 -1131565864</internalNodes>
      <leafValues>
        -3.6417499184608459e-01 2.0942558348178864e-01</leafValues></_>
    <_>
      <internalNodes>
        0 -1 9300 -54582720 1700467829 -453660882 -1879673490 113179172
        913598817 1300456236 1196289396</internalNodes>
      <leafValues>
        -5.6540465354919434e-01 1.5408684313297272e-01</leafValues></_>
    <_>
      <internalNodes>
        0 -1 14435 -1975313842 72696181 1077985454 1111547294 -129537778
        1421897828 -1594053432 -262754565</internalNodes>
      <leafValues>
        -3.2584884762763977e-01 2.4953578412532806e-01</leafValues></_>
    <_>
      <internalNodes>
        0 -1 14829 779824642 -495586257 437420108 -1335942233 -943342910
        1684361697 -79630598 -261883009</internalNodes>
      <leafValues>
        -3.0178281664848328e-01 2.7161356806755066e-01</leafValues></_>
    <_>
      <internalNodes>
        0 -1 1802 765980964 2045472442 -315786256 -134223106 -1890623683
        -1579224321 -838922019 -478442236</internalNodes>
      <leafValues>
        -2.6673534512519836e-01 2.9858794808387756e-01</leafValues></_>
    <_>
      <internalNodes>
        0 -1 15157 1620707406 -562817195 598638446 131621870 -16877940
        -33964585 -89481506 -23558118</internalNodes>
      <leafValues>
        -2.7422648668289185e-01 3.0264571309089661e-01</leafValues></_>
    <_>
      <internalNodes>
        0 -1 11459 -1292461382 -114953785 -860819720 1618843635
        2033415132 2075007745 -80197800 1399699563</internalNodes>
      <leafValues>
        -3.6915287375450134e-01 2.1784700453281403e-01</leafValues></_>
    <_>
      <internalNodes>
        0 -1 1628 1217179466 -1602767371 810370111 2129658090
        -1826520078 719753408 2063082154 -1414881045</internalNodes>
      <leafValues>
        -5.3369617462158203e-01 1.5254572033882141e-01</leafValues></_>
    <_>
      <internalNodes>
        0 -1 8246 -185505014 1893945707 -177310940 634203110 -341501060
        72249821 670137186 83884875</internalNodes>
      <leafValues>
        -5.3155338764190674e-01 1.4159509539604187e-01</leafValues></_>
    <_>
      <internalNodes>
        0 -1 8696 -708898569 -153012208 -101231239 -680172524
        -1327040270 -566052893 401928630 -1921775999</internalNodes>
      <leafValues>
        -2.0304955542087555e-01 4.2607063055038452e-01</leafValues></_>
    <_>
      <internalNodes>
        0 -1 8042 -5165334 751281646 1940037440 -825229643 1471372594
        360138612 1699477280 1373616461</internalNodes>
      <leafValues>
        -3.4781786799430847e-01 2.4406722187995911e-01</leafValues></_></weakClassifiers></stage14>
</opencv_storage>
