<?xml version="1.0"?>
<opencv_storage>
<stage16>
  <maxWeakCount>26</maxWeakCount>
  <stageThreshold>-1.1159045696258545e+00</stageThreshold>
  <weakClassifiers>
    <_>
      <internalNodes>
        0 -1 7336 857880064 -8946889 -12701921 930472812 1060284335
        -8912901 2004219535 -1251608714</internalNodes>
      <leafValues>
        -3.1618145108222961e-01 4.8481497168540955e-01</leafValues></_>
    <_>
      <internalNodes>
        0 -1 12914 -170393605 1129304366 1079607680 -1785878065
        1441081090 1801832967 1400463362 -210240601</internalNodes>
      <leafValues>
        -2.7579522132873535e-01 3.1165832281112671e-01</leafValues></_>
    <_>
      <internalNodes>
        0 -1 10657 822668508 1471180792 -105316867 -142954652 366259964
        -1111136523 -1695367192 -392111040</internalNodes>
      <leafValues>
        -2.6724427938461304e-01 3.1565040349960327e-01</leafValues></_>
    <_>
      <internalNodes>
        0 -1 11564 -174982145 -1691700326 -2049022960 145392146
        1662717272 719016579 -757137332 -142085493</internalNodes>
      <leafValues>
        -2.7995556592941284e-01 2.8158721327781677e-01</leafValues></_>
    <_>
      <internalNodes>
        0 -1 7361 -454037521 -178921215 -511351019 -250338939 1133899727
        -6111191 1303085435 295813281</internalNodes>
      <leafValues>
        -3.4558030962944031e-01 2.1032333374023438e-01</leafValues></_>
    <_>
      <internalNodes>
        0 -1 6132 1475256156 338534528 1107428289 544995627 -1422221179
        162441344 -146683767 1431933379</internalNodes>
      <leafValues>
        -4.2194476723670959e-01 1.5389063954353333e-01</leafValues></_>
    <_>
      <internalNodes>
        0 -1 16134 1486095444 -12904725 1229538047 -579738121
        -1310409711 -94934374 -1908359169 -1857019698</internalNodes>
      <leafValues>
        -2.9920709133148193e-01 2.4381066858768463e-01</leafValues></_>
    <_>
      <internalNodes>
        0 -1 8531 1143933188 -1138965066 1865027341 1202585387
        -1708788875 974707277 -1088479425 1605085951</internalNodes>
      <leafValues>
        -3.7993001937866211e-01 1.8984429538249969e-01</leafValues></_>
    <_>
      <internalNodes>
        0 -1 5994 287453491 2138087799 -36309121 1571959077 -1812016394
        -1073811499 -27512837 -1942158233</internalNodes>
      <leafValues>
        -2.4178987741470337e-01 3.0857455730438232e-01</leafValues></_>
    <_>
      <internalNodes>
        0 -1 11449 1502908366 173998 -381599488 1623712715 -944281754
        1149047102 321878594 -1069159454</internalNodes>
      <leafValues>
        -4.3833354115486145e-01 1.8518808484077454e-01</leafValues></_>
    <_>
      <internalNodes>
        0 -1 11968 -14942210 -1850671076 564113834 1234243586 357829838
        537792234 1965367556 1431808990</internalNodes>
      <leafValues>
        -4.5424273610115051e-01 1.5579974651336670e-01</leafValues></_>
    <_>
      <internalNodes>
        0 -1 13619 1054223880 1060988702 2014445676 382864709 1467445284
        609531677 -2123187221 81042403</internalNodes>
      <leafValues>
        -4.4610068202018738e-01 1.6704380512237549e-01</leafValues></_>
    <_>
      <internalNodes>
        0 -1 2470 1629204648 1155209713 -1203755648 1618866954
        1368822117 2071044988 1561638412 550288330</internalNodes>
      <leafValues>
        -5.9148347377777100e-01 1.1634602397680283e-01</leafValues></_>
    <_>
      <internalNodes>
        0 -1 11814 -1213257838 -28113664 957472125 -1824109047
        -1077564002 -1399311876 84978328 -2146429438</internalNodes>
      <leafValues>
        -3.1868106126785278e-01 2.3649758100509644e-01</leafValues></_>
    <_>
      <internalNodes>
        0 -1 11688 1343489224 -390372 578881305 501024629 -1295776770
        -1322966909 582036191 326705179</internalNodes>
      <leafValues>
        -2.7615320682525635e-01 2.6582986116409302e-01</leafValues></_>
    <_>
      <internalNodes>
        0 -1 13363 1140031566 -134742017 -138477639 866670522
        -1598376711 -286333082 -470878326 -234574518</internalNodes>
      <leafValues>
        -2.5053852796554565e-01 3.1075409054756165e-01</leafValues></_>
    <_>
      <internalNodes>
        0 -1 8231 -1678771541 -206970293 -120086366 -1756365184
        2007459829 -2130672722 1170399552 -536874618</internalNodes>
      <leafValues>
        -2.0466718077659607e-01 3.7378188967704773e-01</leafValues></_>
    <_>
      <internalNodes>
        0 -1 373 -1440492133 -827530024 -856179312 -911839336
        -1410531329 -302075970 442075086 -1981987704</internalNodes>
      <leafValues>
        -2.6244291663169861e-01 2.9831480979919434e-01</leafValues></_>
    <_>
      <internalNodes>
        0 -1 11198 436187823 888365952 -245993202 552524782 -794040028
        2098549124 -249417468 -171568217</internalNodes>
      <leafValues>
        -3.3305129408836365e-01 2.3235581815242767e-01</leafValues></_>
    <_>
      <internalNodes>
        0 -1 3936 -1026743130 620572910 -402670840 -591928932 1404305398
        564540281 365123378 1153680959</internalNodes>
      <leafValues>
        -4.2454195022583008e-01 1.7525522410869598e-01</leafValues></_>
    <_>
      <internalNodes>
        0 -1 11790 -1609563048 -1808783686 2046884955 102096271
        -1064781672 -1469106962 -1878086692 -1608500949</internalNodes>
      <leafValues>
        -2.9811102151870728e-01 2.5238487124443054e-01</leafValues></_>
    <_>
      <internalNodes>
        0 -1 12994 -92388476 1027590398 525617194 815094238 1725677568
        374729841 1837574850 1349385298</internalNodes>
      <leafValues>
        -4.9689534306526184e-01 1.6173711419105530e-01</leafValues></_>
    <_>
      <internalNodes>
        0 -1 15444 316016156 -151949253 843852802 978592573 -28175768
        -572257383 -283867670 1647970138</internalNodes>
      <leafValues>
        -3.8871517777442932e-01 1.9438134133815765e-01</leafValues></_>
    <_>
      <internalNodes>
        0 -1 2859 532641212 -91477720 365393529 -1246369664 719694565
        -1987229684 333516992 218070220</internalNodes>
      <leafValues>
        -3.4033361077308655e-01 2.2445635497570038e-01</leafValues></_>
    <_>
      <internalNodes>
        0 -1 13831 -606647450 293558091 -2109429048 -770461030
        -788559040 625210369 -151085050 1969747595</internalNodes>
      <leafValues>
        -3.5389360785484314e-01 2.1594224870204926e-01</leafValues></_>
    <_>
      <internalNodes>
        0 -1 10643 1365252432 -624542595 94947789 1701606245 -512189964
        -499936543 -1937921096 -874145362</internalNodes>
      <leafValues>
        -3.2137715816497803e-01 2.4718403816223145e-01</leafValues></_></weakClassifiers></stage16>
</opencv_storage>
