<?xml version="1.0"?>
<opencv_storage>
<stage24>
  <maxWeakCount>35</maxWeakCount>
  <stageThreshold>-9.9789726734161377e-01</stageThreshold>
  <weakClassifiers>
    <_>
      <internalNodes>
        0 -1 10826 -427843072 -143130797 -231433 -17438730 666150911
        -8962185 -154150925 1884632866</internalNodes>
      <leafValues>
        -2.0447482168674469e-01 4.7844791412353516e-01</leafValues></_>
    <_>
      <internalNodes>
        0 -1 11692 -799751168 -168786564 871083453 -12632787 -185815303
        -454029316 -1159663942 -8260789</internalNodes>
      <leafValues>
        -1.7396081984043121e-01 3.2281118631362915e-01</leafValues></_>
    <_>
      <internalNodes>
        0 -1 12375 -117731550 46257359 -742424278 -874522133 1399014658
        107923863 -201394110 -1032597181</internalNodes>
      <leafValues>
        -3.8696098327636719e-01 1.4436119794845581e-01</leafValues></_>
    <_>
      <internalNodes>
        0 -1 13313 1082114429 -776200362 2062548991 1965714239
        -910173282 -358623362 -1195845154 -1471128977</internalNodes>
      <leafValues>
        -1.7781825363636017e-01 3.1054297089576721e-01</leafValues></_>
    <_>
      <internalNodes>
        0 -1 8081 -9991262 -8014918 -1124532878 -1242591361 2144105106
        1357235211 1709815494 -705168194</internalNodes>
      <leafValues>
        -2.3387734591960907e-01 2.4957813322544098e-01</leafValues></_>
    <_>
      <internalNodes>
        0 -1 9090 -1849367074 -1555257390 1895974662 550298860
        -115175220 11894802 -1634470835 -135664430</internalNodes>
      <leafValues>
        -3.9853584766387939e-01 1.6256575286388397e-01</leafValues></_>
    <_>
      <internalNodes>
        0 -1 16120 -630192871 -67409413 521255167 1540304345 -88571686
        -1090864544 -88932641 -1149723941</internalNodes>
      <leafValues>
        -1.7197404801845551e-01 3.5041880607604980e-01</leafValues></_>
    <_>
      <internalNodes>
        0 -1 13368 -107455284 -107888241 1037717785 -6335990 282527094
        1403652358 -1725906054 -1291071926</internalNodes>
      <leafValues>
        -2.6228338479995728e-01 2.1280895173549652e-01</leafValues></_>
    <_>
      <internalNodes>
        0 -1 5742 -1366583785 254162209 85143780 -1931491826 -141496027
        788252645 537648988 73379708</internalNodes>
      <leafValues>
        -3.7896725535392761e-01 1.4050374925136566e-01</leafValues></_>
    <_>
      <internalNodes>
        0 -1 9988 273806591 1093780163 -1053424466 -250724114 1732249864
        173086725 929263620 2050121839</internalNodes>
      <leafValues>
        -4.1917562484741211e-01 1.3882857561111450e-01</leafValues></_>
    <_>
      <internalNodes>
        0 -1 522 -1944180704 10799332 -2037569028 41043728 -1470277692
        -1439853720 568290044 108274704</internalNodes>
      <leafValues>
        -6.3228619098663330e-01 9.3565389513969421e-02</leafValues></_>
    <_>
      <internalNodes>
        0 -1 172 -1425337324 -1996972996 -482484524 -1444761426
        420302749 -937784930 -1939895011 227904513</internalNodes>
      <leafValues>
        -3.7092107534408569e-01 1.5329977869987488e-01</leafValues></_>
    <_>
      <internalNodes>
        0 -1 14307 1400776992 1063082963 87168304 689077623 753090579
        -1217238960 -962938118 1846689786</internalNodes>
      <leafValues>
        -3.1927680969238281e-01 1.9215199351310730e-01</leafValues></_>
    <_>
      <internalNodes>
        0 -1 7081 -6908494 260997810 1439783393 -705068824 193632243
        781963097 1436230129 -845290266</internalNodes>
      <leafValues>
        -2.3373772203922272e-01 2.4931956827640533e-01</leafValues></_>
    <_>
      <internalNodes>
        0 -1 16161 760618072 -27583249 1320080086 -1489812513 -933136192
        -1615715921 -1138843348 2065705900</internalNodes>
      <leafValues>
        -3.6476245522499084e-01 1.6235035657882690e-01</leafValues></_>
    <_>
      <internalNodes>
        0 -1 11453 1561599920 -1222113674 -2091633472 201900474
        261360028 332662937 1402819472 429522767</internalNodes>
      <leafValues>
        -4.1589596867561340e-01 1.4591920375823975e-01</leafValues></_>
    <_>
      <internalNodes>
        0 -1 10712 -199702575 -13357210 1039154615 -9624075 -41056080
        -1073828177 535865259 -1736178503</internalNodes>
      <leafValues>
        -1.6120931506156921e-01 3.7700414657592773e-01</leafValues></_>
    <_>
      <internalNodes>
        0 -1 15323 1650408010 1598820955 1795585518 978226772 2031080004
        865292669 -498030506 570782486</internalNodes>
      <leafValues>
        -4.1740655899047852e-01 1.3851706683635712e-01</leafValues></_>
    <_>
      <internalNodes>
        0 -1 7320 266845 -2074683300 1628813789 740204513 -1549494798
        -736580 1630147775 -861099877</internalNodes>
      <leafValues>
        -2.3609781265258789e-01 2.5340035557746887e-01</leafValues></_>
    <_>
      <internalNodes>
        0 -1 8159 1915356119 -318767369 -285906990 -1620660230
        -414900481 -717492409 -1277372693 2137008731</internalNodes>
      <leafValues>
        -2.0412978529930115e-01 3.0158734321594238e-01</leafValues></_>
    <_>
      <internalNodes>
        0 -1 3558 -1551068016 -106249160 970969552 -45418616 -1250099539
        -1901331200 425555744 -880556784</internalNodes>
      <leafValues>
        -2.2753565013408661e-01 2.6152184605598450e-01</leafValues></_>
    <_>
      <internalNodes>
        0 -1 15911 -159989419 1800289709 228909503 486696026 -1289743920
        -151109257 2005987928 1747608094</internalNodes>
      <leafValues>
        -2.7422472834587097e-01 2.1715161204338074e-01</leafValues></_>
    <_>
      <internalNodes>
        0 -1 13239 -126304060 1397954080 -730595301 1952281231
        -251722616 -1219527454 1987064490 -798268614</internalNodes>
      <leafValues>
        -2.2792081534862518e-01 2.6497653126716614e-01</leafValues></_>
    <_>
      <internalNodes>
        0 -1 14376 -892395262 -2113343772 163636864 2047993439 691356480
        1684194358 -312292016 1883760598</internalNodes>
      <leafValues>
        -4.8606610298156738e-01 1.3502465188503265e-01</leafValues></_>
    <_>
      <internalNodes>
        0 -1 10521 1650188782 -929659646 53003628 -135800419 2106900893
        156321544 1034323639 -988155461</internalNodes>
      <leafValues>
        -2.5308677554130554e-01 2.4281306564807892e-01</leafValues></_>
    <_>
      <internalNodes>
        0 -1 6896 865025010 742454222 -330888416 -293343070 722889706
        24611285 2096185858 1171899531</internalNodes>
      <leafValues>
        -3.3826842904090881e-01 1.7810793220996857e-01</leafValues></_>
    <_>
      <internalNodes>
        0 -1 921 250428041 1252932384 465088417 -587940749 -19624206
        -2034377281 -2130935083 -641337425</internalNodes>
      <leafValues>
        -2.4241490662097931e-01 2.5767195224761963e-01</leafValues></_>
    <_>
      <internalNodes>
        0 -1 2671 -1662124140 -1375820112 -1224771850 -677471449
        2138947445 1340991092 1569033675 1606141356</internalNodes>
      <leafValues>
        -2.4735285341739655e-01 2.5681242346763611e-01</leafValues></_>
    <_>
      <internalNodes>
        0 -1 13550 -233113906 1351484931 -803761690 -1173663730
        570435211 111879522 558961922 1359187686</internalNodes>
      <leafValues>
        -3.2039576768875122e-01 1.9461601972579956e-01</leafValues></_>
    <_>
      <internalNodes>
        0 -1 16274 1410156172 -151110102 1072609886 -449637616 -35793587
        -277136043 -1418287188 -1420648039</internalNodes>
      <leafValues>
        -2.4039606750011444e-01 2.6904380321502686e-01</leafValues></_>
    <_>
      <internalNodes>
        0 -1 7345 1494269105 -643267952 1903287709 -4868675 -1292722441
        -172840979 963401722 -537361200</internalNodes>
      <leafValues>
        -1.7161819338798523e-01 3.8223472237586975e-01</leafValues></_>
    <_>
      <internalNodes>
        0 -1 440 9574840 174357844 1315231953 -655611492 247378867
        -644443251 1048543373 203769160</internalNodes>
      <leafValues>
        -4.0173840522766113e-01 1.5976232290267944e-01</leafValues></_>
    <_>
      <internalNodes>
        0 -1 11120 -183729956 2085610710 1984659749 1084335237
        -1979372574 1067099186 -280836013 -1679840869</internalNodes>
      <leafValues>
        -2.8668642044067383e-01 2.3110809922218323e-01</leafValues></_>
    <_>
      <internalNodes>
        0 -1 8655 -91311190 830812806 -769940732 9365121 -1023323697
        -1876885503 -1288633763 1457244943</internalNodes>
      <leafValues>
        -4.3970382213592529e-01 1.4800572395324707e-01</leafValues></_>
    <_>
      <internalNodes>
        0 -1 10605 1237869604 1134319967 -1512626145 -1368552453
        -208557218 -521117471 -1653000653 -340852313</internalNodes>
      <leafValues>
        -3.0578491091728210e-01 2.1385154128074646e-01</leafValues></_></weakClassifiers></stage24>
</opencv_storage>
