<?xml version="1.0"?>
<opencv_storage>
<stage10>
  <maxWeakCount>20</maxWeakCount>
  <stageThreshold>-1.1952807903289795e+00</stageThreshold>
  <weakClassifiers>
    <_>
      <internalNodes>
        0 -1 9786 -1024712192 -19267585 -4105 -591010058 -671088641
        -285262145 -84953095 -218677563</internalNodes>
      <leafValues>
        -4.4206008315086365e-01 5.1314544677734375e-01</leafValues></_>
    <_>
      <internalNodes>
        0 -1 9492 -2126352 -555746825 -318849108 -1542 -1155666572
        -106503373 -135155875 -67114257</internalNodes>
      <leafValues>
        -3.9087817072868347e-01 3.3395671844482422e-01</leafValues></_>
    <_>
      <internalNodes>
        0 -1 11693 822654480 1368469432 1037928221 -572527107
        -1112736068 -1158115588 -52494372 -1521155</internalNodes>
      <leafValues>
        -2.5602376461029053e-01 4.2386990785598755e-01</leafValues></_>
    <_>
      <internalNodes>
        0 -1 12050 -581965329 5108110 1078184078 -424742738 1406757446
        919104274 1912055298 -219154558</internalNodes>
      <leafValues>
        -3.2608377933502197e-01 3.2979503273963928e-01</leafValues></_>
    <_>
      <internalNodes>
        0 -1 4720 539099473 -1309245083 -1750671365 1542772117
        -2081269008 -67111617 1639842747 -977534211</internalNodes>
      <leafValues>
        -3.0597877502441406e-01 3.5247084498405457e-01</leafValues></_>
    <_>
      <internalNodes>
        0 -1 14392 -131604818 -221626645 -286279136 -1026625873
        -1092702331 1669197667 -408224593 -203688193</internalNodes>
      <leafValues>
        -2.9065749049186707e-01 3.4846875071525574e-01</leafValues></_>
    <_>
      <internalNodes>
        0 -1 10812 -1978990157 -537585452 -1007560705 -35843788
        -1160928579 -221723231 264889851 -1941176312</internalNodes>
      <leafValues>
        -3.3894178271293640e-01 3.0842259526252747e-01</leafValues></_>
    <_>
      <internalNodes>
        0 -1 11334 -767297600 -1464900886 -788166624 15682478 -388951258
        751254283 148310562 -975329509</internalNodes>
      <leafValues>
        -4.3917179107666016e-01 2.4419775605201721e-01</leafValues></_>
    <_>
      <internalNodes>
        0 -1 1539 -1934980534 -354641668 -467998522 -1429981824
        -825696585 -1599522566 -1113295668 -34625058</internalNodes>
      <leafValues>
        -5.4354631900787354e-01 1.8027409911155701e-01</leafValues></_>
    <_>
      <internalNodes>
        0 -1 14263 -214279668 -86025453 -286855281 2013428041 -457484985
        -1395139837 -1352147793 -681074901</internalNodes>
      <leafValues>
        -3.3274748921394348e-01 2.9414936900138855e-01</leafValues></_>
    <_>
      <internalNodes>
        0 -1 12507 41551938 -654944393 1913159647 -1822568993 -795209256
        -1738962625 807107514 -1703797482</internalNodes>
      <leafValues>
        -3.6660468578338623e-01 2.7039146423339844e-01</leafValues></_>
    <_>
      <internalNodes>
        0 -1 6806 -728933238 1492350559 888271364 -1075904633 1001143127
        -691959740 1766403455 1086799330</internalNodes>
      <leafValues>
        -4.9765747785568237e-01 2.1427419781684875e-01</leafValues></_>
    <_>
      <internalNodes>
        0 -1 8632 469897264 -685558684 855527901 -713702923 -1357017926
        -1687402607 629522939 -1891626768</internalNodes>
      <leafValues>
        -3.0739846825599670e-01 3.1539085507392883e-01</leafValues></_>
    <_>
      <internalNodes>
        0 -1 15475 1998308506 -1740169809 -1291916692 2018037486
        2138770394 -160559851 -84505906 -495210598</internalNodes>
      <leafValues>
        -2.7220237255096436e-01 3.6484643816947937e-01</leafValues></_>
    <_>
      <internalNodes>
        0 -1 9156 462009057 -1595819120 -985553592 1208876588 675109340
        677714291 830804061 1433271062</internalNodes>
      <leafValues>
        -3.6178216338157654e-01 2.8354254364967346e-01</leafValues></_>
    <_>
      <internalNodes>
        0 -1 501 -1840963329 1742295132 -1319781470 -387720657 806465979
        -356351848 1861347829 -915541031</internalNodes>
      <leafValues>
        -3.6119565367698669e-01 2.7998930215835571e-01</leafValues></_>
    <_>
      <internalNodes>
        0 -1 1653 -217958620 -714113284 -950063655 -606356772 1171193819
        -2107177 -406346795 -1109440700</internalNodes>
      <leafValues>
        -2.8349441289901733e-01 3.6994537711143494e-01</leafValues></_>
    <_>
      <internalNodes>
        0 -1 12431 -539224231 -170425923 -1994971903 154505103
        -478736580 1163349052 773458187 1585151566</internalNodes>
      <leafValues>
        -3.7635123729705811e-01 2.7223774790763855e-01</leafValues></_>
    <_>
      <internalNodes>
        0 -1 7336 859027204 -25692033 -1380972033 -1210715804 560118951
        -17508165 -239790402 -1117134602</internalNodes>
      <leafValues>
        -5.4343914985656738e-01 1.8667790293693542e-01</leafValues></_>
    <_>
      <internalNodes>
        0 -1 463 -270308442 -1566323193 1877895154 1999484154 -316808262
        -370279450 722192881 -1009269041</internalNodes>
      <leafValues>
        -3.4946188330650330e-01 3.1221747398376465e-01</leafValues></_></weakClassifiers></stage10>
</opencv_storage>
