<?xml version="1.0"?>
<opencv_storage>
<stage13>
  <maxWeakCount>25</maxWeakCount>
  <stageThreshold>-1.1251168251037598e+00</stageThreshold>
  <weakClassifiers>
    <_>
      <internalNodes>
        0 -1 1923 -218533142 1560215551 1877636852 -1605901 2146959355
        -1342177281 -524290 -403177514</internalNodes>
      <leafValues>
        -4.5705521106719971e-01 4.8859825730323792e-01</leafValues></_>
    <_>
      <internalNodes>
        0 -1 10593 -1519272965 -1409309761 -2019612133 -1414059869
        -947777 -33947665 -50396613 -138691653</internalNodes>
      <leafValues>
        -2.3296530544757843e-01 3.9252203702926636e-01</leafValues></_>
    <_>
      <internalNodes>
        0 -1 11792 -176298233 1465252115 -605236865 -732848113
        -1596149521 -2139586471 541389038 1933672966</internalNodes>
      <leafValues>
        -4.1138115525245667e-01 2.4037179350852966e-01</leafValues></_>
    <_>
      <internalNodes>
        0 -1 11453 1372520446 -1962738938 -1806822464 495510506
        1394491356 890881569 -606243048 -67371041</internalNodes>
      <leafValues>
        -3.5642054677009583e-01 2.4494630098342896e-01</leafValues></_>
    <_>
      <internalNodes>
        0 -1 15095 41681924 -33868297 2055011839 -40683073 -1653428358
        -147822 -99304470 -1080001622</internalNodes>
      <leafValues>
        -3.2093682885169983e-01 2.7124074101448059e-01</leafValues></_>
    <_>
      <internalNodes>
        0 -1 12885 -27682 -1027082450 1917591564 -2066881396 1909782275
        863215866 -1670031548 -176947362</internalNodes>
      <leafValues>
        -3.9845785498619080e-01 2.1164323389530182e-01</leafValues></_>
    <_>
      <internalNodes>
        0 -1 1665 565375392 -139730703 1476350839 -675367754 632271863
        -269491713 502719484 -1091702668</internalNodes>
      <leafValues>
        -2.3388235270977020e-01 3.5435187816619873e-01</leafValues></_>
    <_>
      <internalNodes>
        0 -1 14361 -1678788918 1224060927 -1644024288 -1562329346
        -536887563 107462559 -8407410 -211816785</internalNodes>
      <leafValues>
        -2.6035445928573608e-01 3.2558122277259827e-01</leafValues></_>
    <_>
      <internalNodes>
        0 -1 8595 -2079413955 -172971147 -83829825 -575471343
        -1285311747 -67520121 -369036524 -384826886</internalNodes>
      <leafValues>
        -3.1166288256645203e-01 2.6897320151329041e-01</leafValues></_>
    <_>
      <internalNodes>
        0 -1 9095 -210535428 409236143 1515205408 8321166 286314727
        1082736661 2099747627 -243271729</internalNodes>
      <leafValues>
        -3.9976981282234192e-01 2.0239533483982086e-01</leafValues></_>
    <_>
      <internalNodes>
        0 -1 3120 671092880 -1719336944 491722971 1473335313 -1332509989
        -1423394094 268982235 1494813848</internalNodes>
      <leafValues>
        -3.2161971926689148e-01 2.6116481423377991e-01</leafValues></_>
    <_>
      <internalNodes>
        0 -1 4138 -1075352670 -1366903831 -1567907680 -257451224
        -605432969 1313784530 1471637088 -984683695</internalNodes>
      <leafValues>
        -3.8011515140533447e-01 2.2212940454483032e-01</leafValues></_>
    <_>
      <internalNodes>
        0 -1 11681 -550177316 -167950612 87295484 1602029897 -545739798
        142775261 487111323 -172260625</internalNodes>
      <leafValues>
        -2.4292062222957611e-01 3.4794872999191284e-01</leafValues></_>
    <_>
      <internalNodes>
        0 -1 14942 -211827541 1753188218 -83852678 841022219 -1152056690
        -26260383 -208233847 -631570722</internalNodes>
      <leafValues>
        -2.3691119253635406e-01 3.5460138320922852e-01</leafValues></_>
    <_>
      <internalNodes>
        0 -1 8860 830260636 -486420384 1769023012 1129147566 1158623293
        276856866 1933968902 609744231</internalNodes>
      <leafValues>
        -5.5639922618865967e-01 1.5820297598838806e-01</leafValues></_>
    <_>
      <internalNodes>
        0 -1 384 655299003 -141601035 -77077656 -540673184 -282591329
        -340499203 -1041823479 -573050386</internalNodes>
      <leafValues>
        -2.0566195249557495e-01 4.3316486477851868e-01</leafValues></_>
    <_>
      <internalNodes>
        0 -1 13774 2056455944 1958079583 -904903672 1655764815
        -1746006782 588530527 -1325409006 1894084471</internalNodes>
      <leafValues>
        -5.1273751258850098e-01 1.7206943035125732e-01</leafValues></_>
    <_>
      <internalNodes>
        0 -1 7320 537002584 -556396453 -217123361 -1969714951
        -2117486148 -72701699 -804899416 -1907049712</internalNodes>
      <leafValues>
        -2.9739856719970703e-01 2.8499457240104675e-01</leafValues></_>
    <_>
      <internalNodes>
        0 -1 8687 -525863069 -11276365 1879048191 -4212741 1174271749
        -239075459 1911919431 1345443009</internalNodes>
      <leafValues>
        -2.7799916267395020e-01 3.0179381370544434e-01</leafValues></_>
    <_>
      <internalNodes>
        0 -1 15194 -35846497 -1724149773 2076073302 2138066750
        -1141563396 -1075976853 -1075971864 -12928309</internalNodes>
      <leafValues>
        -1.9173674285411835e-01 4.3787613511085510e-01</leafValues></_>
    <_>
      <internalNodes>
        0 -1 5913 -1434415228 -1965699187 -1487598427 233809359
        355590641 261339899 -133293110 -1111538161</internalNodes>
      <leafValues>
        -3.5805848240852356e-01 2.4015016853809357e-01</leafValues></_>
    <_>
      <internalNodes>
        0 -1 7056 1401658410 187409056 1147269264 -141823676 482293780
        -2144015344 1159218640 -848846146</internalNodes>
      <leafValues>
        -3.0481234192848206e-01 2.7658769488334656e-01</leafValues></_>
    <_>
      <internalNodes>
        0 -1 8489 -32875 -75661383 -18518779 -1079100509 -1086326740
        890746639 792132654 -1893030961</internalNodes>
      <leafValues>
        -2.5265362858772278e-01 3.3771941065788269e-01</leafValues></_>
    <_>
      <internalNodes>
        0 -1 15967 872091679 2079291772 -1147119873 1203724111
        -110722270 -565432604 -417270338 -285027597</internalNodes>
      <leafValues>
        -2.3648796975612640e-01 3.6643838882446289e-01</leafValues></_>
    <_>
      <internalNodes>
        0 -1 9169 -167647400 -1989897782 -1673250254 1828122488
        1128366240 740933715 1942819542 212859366</internalNodes>
      <leafValues>
        -4.7485351562500000e-01 1.8846249580383301e-01</leafValues></_></weakClassifiers></stage13>
</opencv_storage>
