<?xml version="1.0"?>
<opencv_storage>
<stage3>
  <maxWeakCount>6</maxWeakCount>
  <stageThreshold>-1.2010886669158936e+00</stageThreshold>
  <weakClassifiers>
    <_>
      <internalNodes>
        0 -1 31535 -252316690 -67111937 -134742017 -134217729 -134219777
        -1 -524289 -2049</internalNodes>
      <leafValues>
        -4.6314972639083862e-01 7.2214972972869873e-01</leafValues></_>
    <_>
      <internalNodes>
        0 -1 57046 -203953170 -1903233374 -1069383264 -2006128094
        1398236674 1217118379 -14220032 -858788093</internalNodes>
      <leafValues>
        -5.9613436460494995e-01 5.1729720830917358e-01</leafValues></_>
    <_>
      <internalNodes>
        0 -1 55505 -466147581 -142760875 -245369347 -2229249 -530598913
        -100798209 -364776705 -411180234</internalNodes>
      <leafValues>
        -5.9713655710220337e-01 3.7727305293083191e-01</leafValues></_>
    <_>
      <internalNodes>
        0 -1 46956 -142610514 -806371601 -1527271902 -806883354 -8433895
        1321156374 -2623655 -1048625</internalNodes>
      <leafValues>
        -4.5072877407073975e-01 5.0007122755050659e-01</leafValues></_>
    <_>
      <internalNodes>
        0 -1 45679 -203980806 285046702 -1865219456 15639206 -78646293
        431223163 -11015420 -722468881</internalNodes>
      <leafValues>
        -6.2366318702697754e-01 3.3373031020164490e-01</leafValues></_>
    <_>
      <internalNodes>
        0 -1 21915 14862307 1439147403 1594980351 -672047261 -2032665605
        -575408469 -140545089 1440737231</internalNodes>
      <leafValues>
        -5.3450769186019897e-01 3.8293367624282837e-01</leafValues></_></weakClassifiers></stage3>
</opencv_storage>
