<?xml version="1.0"?>
<opencv_storage>
<stage13>
  <maxWeakCount>16</maxWeakCount>
  <stageThreshold>-7.7848362922668457e-01</stageThreshold>
  <weakClassifiers>
    <_>
      <internalNodes>
        0 -1 58314 -538183682 639824890 -1073828220 -1969034326
        1467962704 1073545055 -8426932 -17</internalNodes>
      <leafValues>
        -9.8322577774524689e-02 5.5539721250534058e-01</leafValues></_>
    <_>
      <internalNodes>
        0 -1 62282 -209717497 1449451903 -1270426545 1901578319
        -2134671105 -1060992884 185499866 1616299655</internalNodes>
      <leafValues>
        -3.7283325195312500e-01 2.7645000815391541e-01</leafValues></_>
    <_>
      <internalNodes>
        0 -1 73957 -824193246 -1493174617 -423755260 -490810627
        -2095059637 278329807 -402654529 1727524799</internalNodes>
      <leafValues>
        -3.4896644949913025e-01 2.7744331955909729e-01</leafValues></_>
    <_>
      <internalNodes>
        0 -1 11122 -433533206 -19208708 -543274500 -289088085 -842219521
        -488860931 -1098609 -16782929</internalNodes>
      <leafValues>
        -3.8314077258110046e-01 2.5867325067520142e-01</leafValues></_>
    <_>
      <internalNodes>
        0 -1 41454 -245893698 1149239694 1969303208 1089388262 1056955
        270802961 -1314835482 1173351406</internalNodes>
      <leafValues>
        -5.5070060491561890e-01 1.6454489529132843e-01</leafValues></_>
    <_>
      <internalNodes>
        0 -1 44312 4689 -250441929 -103623691 -1651437797 -1649754121
        -99592 -1524484823 -1945892752</internalNodes>
      <leafValues>
        -3.1562510132789612e-01 3.0649098753929138e-01</leafValues></_>
    <_>
      <internalNodes>
        0 -1 47072 -101722749 -470817373 -1090531888 -139987281
        1995831111 38598149 1408750912 -686820269</internalNodes>
      <leafValues>
        -2.5657811760902405e-01 3.8785314559936523e-01</leafValues></_>
    <_>
      <internalNodes>
        0 -1 78513 -2140403708 -111604137 -1940431633 -546078745
        -1743143344 -50439789 1813113850 -1892139126</internalNodes>
      <leafValues>
        -3.7997895479202271e-01 2.3814050853252411e-01</leafValues></_>
    <_>
      <internalNodes>
        0 -1 64144 1324826620 -240232995 -1051441088 1036367322
        2108841339 -1103216765 1562202388 1971289035</internalNodes>
      <leafValues>
        -4.2971664667129517e-01 2.1583515405654907e-01</leafValues></_>
    <_>
      <internalNodes>
        0 -1 26907 542637349 11661809 -438234287 768332167 85039105
        84799625 488179784 21039364</internalNodes>
      <leafValues>
        -5.3975391387939453e-01 1.7187477648258209e-01</leafValues></_>
    <_>
      <internalNodes>
        0 -1 71698 1743978572 -264266274 -1664916752 -1341204485
        -456830233 1079079502 -1224232261 1885599647</internalNodes>
      <leafValues>
        -3.2592216134071350e-01 2.8678038716316223e-01</leafValues></_>
    <_>
      <internalNodes>
        0 -1 21851 254282771 -544427534 122156917 -11988775 225242035
        -1363574594 1265547263 265686089</internalNodes>
      <leafValues>
        -3.3563444018363953e-01 2.8102034330368042e-01</leafValues></_>
    <_>
      <internalNodes>
        0 -1 34597 -1220545613 -1223972246 -1346649950 518628512
        94058483 486091125 2000146433 -806883423</internalNodes>
      <leafValues>
        -2.7398675680160522e-01 3.4454041719436646e-01</leafValues></_>
    <_>
      <internalNodes>
        0 -1 199 -46617688 -1321503291 268739328 -1409830752 -1853496321
        1884357253 -646150767 1794503245</internalNodes>
      <leafValues>
        -6.3539570569992065e-01 1.5025226771831512e-01</leafValues></_>
    <_>
      <internalNodes>
        0 -1 72612 1311044 -252444329 -1176638465 -1076071081 718992316
        -573719309 -1205749330 -1437458858</internalNodes>
      <leafValues>
        -3.5858410596847534e-01 2.4925146996974945e-01</leafValues></_>
    <_>
      <internalNodes>
        0 -1 41528 -3201277 824929140 -1584949042 1077213117 -1834351424
        393576962 -1986524927 1165490103</internalNodes>
      <leafValues>
        -3.5660359263420105e-01 2.6585355401039124e-01</leafValues></_></weakClassifiers></stage13>
</opencv_storage>
