<?xml version="1.0"?>
<opencv_storage>
<stage27>
  <maxWeakCount>23</maxWeakCount>
  <stageThreshold>-8.5907590389251709e-01</stageThreshold>
  <weakClassifiers>
    <_>
      <internalNodes>
        0 -1 59781 -167848508 -135270417 -134283524 -286261526
        1685419524 1903654900 2012573728 1433925610</internalNodes>
      <leafValues>
        -3.1868132948875427e-01 4.3280577659606934e-01</leafValues></_>
    <_>
      <internalNodes>
        0 -1 61920 227122960 494081119 -1183108231 -33673742 -80224272
        -1157646411 -1142124660 -1970632264</internalNodes>
      <leafValues>
        -2.5075674057006836e-01 2.9479950666427612e-01</leafValues></_>
    <_>
      <internalNodes>
        0 -1 61366 -235671382 540596447 1774426664 -1467495473
        1972108038 1578108705 1435497282 -525865213</internalNodes>
      <leafValues>
        -3.3977690339088440e-01 2.0532216131687164e-01</leafValues></_>
    <_>
      <internalNodes>
        0 -1 21892 321073922 -863770 -646711329 -576630234 -169965579
        -294256651 -2047583745 -2001648455</internalNodes>
      <leafValues>
        -2.3692731559276581e-01 2.8462940454483032e-01</leafValues></_>
    <_>
      <internalNodes>
        0 -1 46276 1473455618 1191669028 -2091543904 1081001471
        -1333293264 1904441171 -2021448459 1358407595</internalNodes>
      <leafValues>
        -2.9799684882164001e-01 2.3083990812301636e-01</leafValues></_>
    <_>
      <internalNodes>
        0 -1 74103 -764563966 679476719 -100286462 -488703934 -33142634
        589408148 -1823228348 1903623611</internalNodes>
      <leafValues>
        -4.7332403063774109e-01 1.2169627100229263e-01</leafValues></_>
    <_>
      <internalNodes>
        0 -1 80556 1317668445 -552511141 -557287425 234923882
        -1881104548 1608010635 1498471288 -1574929030</internalNodes>
      <leafValues>
        -2.9005703330039978e-01 2.4624988436698914e-01</leafValues></_>
    <_>
      <internalNodes>
        0 -1 44695 629277520 -710096222 -820653787 -2042231024
        -1406952997 -377442816 1104303748 68486149</internalNodes>
      <leafValues>
        -4.1127765178680420e-01 1.5017370879650116e-01</leafValues></_>
    <_>
      <internalNodes>
        0 -1 64810 268582976 1432789568 -1842338319 -176054809
        -466478902 -1844077100 -406737254 -181937341</internalNodes>
      <leafValues>
        -2.3960247635841370e-01 2.8730040788650513e-01</leafValues></_>
    <_>
      <internalNodes>
        0 -1 43237 -1087407358 -1956437080 -738817408 1492624392
        495401251 87504297 1495565221 -875574799</internalNodes>
      <leafValues>
        -2.6450613141059875e-01 2.7142030000686646e-01</leafValues></_>
    <_>
      <internalNodes>
        0 -1 35413 73395990 1343558967 -1510324244 110756842 134781296
        -1073610605 -643533537 1916654067</internalNodes>
      <leafValues>
        -4.4897913932800293e-01 1.5522368252277374e-01</leafValues></_>
    <_>
      <internalNodes>
        0 -1 74139 -67173460 1778330607 1056859654 1614719998
        -1214132864 1886781276 -111380562 -210898946</internalNodes>
      <leafValues>
        -2.3720987141132355e-01 3.0690121650695801e-01</leafValues></_>
    <_>
      <internalNodes>
        0 -1 67872 -2135945132 -584056582 -103521571 -1294374123
        -603833133 -544460435 -729667939 -1994179008</internalNodes>
      <leafValues>
        -3.0138060450553894e-01 2.4665629863739014e-01</leafValues></_>
    <_>
      <internalNodes>
        0 -1 75124 -1059075363 -823500813 -1360302305 -1201262021
        -654749747 -202787976 -164170326 -1733772935</internalNodes>
      <leafValues>
        -2.0633301138877869e-01 3.6733013391494751e-01</leafValues></_>
    <_>
      <internalNodes>
        0 -1 42942 -1924140502 -1499498656 662972240 1209070166
        520612866 81446933 885257298 1155912050</internalNodes>
      <leafValues>
        -4.0605664253234863e-01 1.9002947211265564e-01</leafValues></_>
    <_>
      <internalNodes>
        0 -1 31415 857944834 -1267912579 1362578869 -1586954235 1058217
        -1196326696 182659323 -1259634448</internalNodes>
      <leafValues>
        -5.5827224254608154e-01 1.2604761123657227e-01</leafValues></_>
    <_>
      <internalNodes>
        0 -1 11434 1202714940 -1780690612 -1185584676 1571233966
        1247247593 2102578571 30607756 -1319286687</internalNodes>
      <leafValues>
        -2.8127318620681763e-01 2.5018057227134705e-01</leafValues></_>
    <_>
      <internalNodes>
        0 -1 78851 402276870 -1384701657 -1362299562 -1442706909
        666052312 -2015772591 1973084920 -1490319359</internalNodes>
      <leafValues>
        -3.2300171256065369e-01 2.3365893959999084e-01</leafValues></_>
    <_>
      <internalNodes>
        0 -1 36013 -2080251855 -662571317 870314159 -630274943
        -281437703 -1978930163 -49717795 146292804</internalNodes>
      <leafValues>
        -3.3506846427917480e-01 2.2350047528743744e-01</leafValues></_>
    <_>
      <internalNodes>
        0 -1 81204 -678180152 -623080022 -427446080 1615534469
        -217889980 1176528914 1461482130 -16279541</internalNodes>
      <leafValues>
        -2.9920524358749390e-01 2.5332158803939819e-01</leafValues></_>
    <_>
      <internalNodes>
        0 -1 75148 1203946760 -1958015698 -907798266 -477578486
        617779564 -657809321 -203461622 50987242</internalNodes>
      <leafValues>
        -3.5322803258895874e-01 2.1323193609714508e-01</leafValues></_>
    <_>
      <internalNodes>
        0 -1 23438 719984034 -545593584 1366737008 -103771186
        -1148791819 -2067410032 -1673146144 226898748</internalNodes>
      <leafValues>
        -3.6606919765472412e-01 2.0839777588844299e-01</leafValues></_>
    <_>
      <internalNodes>
        0 -1 68302 -249882256 -96859023 -374309123 -1602278093 -84097636
        -349411523 -1343160390 -1442806736</internalNodes>
      <leafValues>
        -2.7236387133598328e-01 2.8310236334800720e-01</leafValues></_></weakClassifiers></stage27>
</opencv_storage>
