<?xml version="1.0"?>
<opencv_storage>
<stage17>
  <maxWeakCount>20</maxWeakCount>
  <stageThreshold>-7.6580226421356201e-01</stageThreshold>
  <weakClassifiers>
    <_>
      <internalNodes>
        0 -1 54548 1979365298 187350986 -1971573212 216719358 1283108700
        342515573 -545259815 417328991</internalNodes>
      <leafValues>
        -1.6272078454494476e-01 4.9081474542617798e-01</leafValues></_>
    <_>
      <internalNodes>
        0 -1 48313 -239338732 -707405995 -1096418851 -570564843
        -1637376491 -235143579 -1384271944 -1076235271</internalNodes>
      <leafValues>
        -2.5236076116561890e-01 3.2521659135818481e-01</leafValues></_>
    <_>
      <internalNodes>
        0 -1 1805 1957785836 -1823010339 1477566900 -1856925551
        -230608469 -5533551 -1474252549 -84888398</internalNodes>
      <leafValues>
        -6.2857699394226074e-01 1.2980498373508453e-01</leafValues></_>
    <_>
      <internalNodes>
        0 -1 36437 -1031604233 -150884011 -544162509 -184223920 50443191
        -485977716 1143692761 27443490</internalNodes>
      <leafValues>
        -3.3777955174446106e-01 2.2770933806896210e-01</leafValues></_>
    <_>
      <internalNodes>
        0 -1 76186 2145132239 -959976733 -824907096 1089653867 -75658680
        1965132318 -13678902 2052570879</internalNodes>
      <leafValues>
        -2.9669976234436035e-01 2.6784038543701172e-01</leafValues></_>
    <_>
      <internalNodes>
        0 -1 33822 -1441896790 1641013422 525508176 -708052126
        -2076695051 1188154231 -992774624 1744289363</internalNodes>
      <leafValues>
        -3.4836205840110779e-01 2.1908591687679291e-01</leafValues></_>
    <_>
      <internalNodes>
        0 -1 43 237644832 -573009808 1576523257 -572681847 -1106553665
        -54546433 -1578111589 -1449328519</internalNodes>
      <leafValues>
        -3.3214932680130005e-01 2.2793592512607574e-01</leafValues></_>
    <_>
      <internalNodes>
        0 -1 70581 -53221428 -101223542 -1189582021 2142314248
        1418978382 -73658873 -134030549 -1325147381</internalNodes>
      <leafValues>
        -3.0330711603164673e-01 2.7913442254066467e-01</leafValues></_>
    <_>
      <internalNodes>
        0 -1 57130 1467183611 550161354 1942475488 1223654062 229921543
        2027008194 2077358592 -704644398</internalNodes>
      <leafValues>
        -3.5421717166900635e-01 2.2339141368865967e-01</leafValues></_>
    <_>
      <internalNodes>
        0 -1 72570 -665059120 -178430879 421799375 2134445795
        -1165182278 -303274915 184598250 -1155913637</internalNodes>
      <leafValues>
        -2.0275589823722839e-01 3.7910220026969910e-01</leafValues></_>
    <_>
      <internalNodes>
        0 -1 51893 1552981212 -40413612 1467912093 -607621378 1702112505
        -1082573236 -21472341 -20154260</internalNodes>
      <leafValues>
        -2.5211155414581299e-01 3.0193108320236206e-01</leafValues></_>
    <_>
      <internalNodes>
        0 -1 29875 -1353732314 -387908125 234037504 -2002403322
        1295251447 -1022755865 1475490048 -792071225</internalNodes>
      <leafValues>
        -3.7040430307388306e-01 2.2190912067890167e-01</leafValues></_>
    <_>
      <internalNodes>
        0 -1 70630 -2097159121 2002090061 -813400109 254025638 670180291
        -68786985 -90786898 69519055</internalNodes>
      <leafValues>
        -3.0315852165222168e-01 2.5255104899406433e-01</leafValues></_>
    <_>
      <internalNodes>
        0 -1 59385 -1811937136 -220441136 403260889 290004112
        -1959994668 -1177807408 684765176 150995080</internalNodes>
      <leafValues>
        -3.7599611282348633e-01 2.1292985975742340e-01</leafValues></_>
    <_>
      <internalNodes>
        0 -1 61890 -601034560 -804355966 280557760 -206241568 -110827796
        67126559 -986862881 -736768817</internalNodes>
      <leafValues>
        -2.4822534620761871e-01 3.3721375465393066e-01</leafValues></_>
    <_>
      <internalNodes>
        0 -1 78529 1551501584 -552922222 1241913692 -143040744
        -562751267 -1410658373 1381764796 1289501114</internalNodes>
      <leafValues>
        -4.6788790822029114e-01 1.8101933598518372e-01</leafValues></_>
    <_>
      <internalNodes>
        0 -1 58739 -42926096 26079163 1932798359 -2121880943 -724229366
        298648419 -781516577 -934575613</internalNodes>
      <leafValues>
        -3.1017714738845825e-01 2.6732355356216431e-01</leafValues></_>
    <_>
      <internalNodes>
        0 -1 3544 38646662 -378038925 -192150236 1907697150 -757089369
        -2101903112 -101684784 -1487022708</internalNodes>
      <leafValues>
        -4.5485702157020569e-01 1.8241785466670990e-01</leafValues></_>
    <_>
      <internalNodes>
        0 -1 31351 307763473 -1696450434 -1753787011 -1140942627
        -227633729 -352538722 47337911 -1938554057</internalNodes>
      <leafValues>
        -2.3521552979946136e-01 3.5833317041397095e-01</leafValues></_>
    <_>
      <internalNodes>
        0 -1 53918 -263229214 -1865232116 1414727404 -1530158356
        -787426976 1142243739 1129461010 1709896687</internalNodes>
      <leafValues>
        -4.6862548589706421e-01 1.8070147931575775e-01</leafValues></_></weakClassifiers></stage17>
</opencv_storage>
