<?xml version="1.0"?>
<opencv_storage>
<stage16>
  <maxWeakCount>18</maxWeakCount>
  <stageThreshold>-9.7065597772598267e-01</stageThreshold>
  <weakClassifiers>
    <_>
      <internalNodes>
        0 -1 56965 -32786 -18 -20993050 -268435474 -134912545 1987411677
        1467471104 863895551</internalNodes>
      <leafValues>
        -1.5312045812606812e-01 4.9454927444458008e-01</leafValues></_>
    <_>
      <internalNodes>
        0 -1 58963 -2002745584 1500626480 423599037 520744957
        -1721712712 -1103130724 -1920292180 -1081218337</internalNodes>
      <leafValues>
        -2.6141417026519775e-01 3.2913041114807129e-01</leafValues></_>
    <_>
      <internalNodes>
        0 -1 54870 -405279825 16103311 -439867994 -436213849 -145295601
        104725374 -73400321 -1040210981</internalNodes>
      <leafValues>
        -2.9236692190170288e-01 2.9341247677803040e-01</leafValues></_>
    <_>
      <internalNodes>
        0 -1 19519 -1479752218 1185722348 -371817148 -572146808
        -510273306 1319560107 -67378746 -706217857</internalNodes>
      <leafValues>
        -3.3672320842742920e-01 2.4991801381111145e-01</leafValues></_>
    <_>
      <internalNodes>
        0 -1 59404 -1087766473 -1076528779 -65322179 -1860359107
        -1110317573 -48210215 -662127683 2561</internalNodes>
      <leafValues>
        -3.9164221286773682e-01 2.1503040194511414e-01</leafValues></_>
    <_>
      <internalNodes>
        0 -1 78849 -613806305 -1086361505 -71607010 -16630518 -67764244
        -1176154213 -70866694 -83182597</internalNodes>
      <leafValues>
        -2.4579364061355591e-01 3.6702185869216919e-01</leafValues></_>
    <_>
      <internalNodes>
        0 -1 45549 2002727916 92386209 -1710456094 5683718 -2147350376
        225381121 -217763510 1358138035</internalNodes>
      <leafValues>
        -4.4016617536544800e-01 1.8500263988971710e-01</leafValues></_>
    <_>
      <internalNodes>
        0 -1 43826 -26738755 227491093 -434197918 -1953526877 -741442897
        190862663 -249862535 -1948291261</internalNodes>
      <leafValues>
        -3.1322950124740601e-01 2.6773938536643982e-01</leafValues></_>
    <_>
      <internalNodes>
        0 -1 31470 555791153 -1687780617 -110685895 -541621835 263771123
        -570428297 503182207 -1980930956</internalNodes>
      <leafValues>
        -2.7781912684440613e-01 3.0404320359230042e-01</leafValues></_>
    <_>
      <internalNodes>
        0 -1 71744 -218107350 283342061 -1664171518 -1567470865
        -777001330 1097805151 1639906192 1962408879</internalNodes>
      <leafValues>
        -3.4927704930305481e-01 2.5261819362640381e-01</leafValues></_>
    <_>
      <internalNodes>
        0 -1 16661 581959984 -228979400 -1667813505 -34431655 -443722771
        -90952715 268526633 -1028281445</internalNodes>
      <leafValues>
        -2.7346149086952209e-01 3.0306604504585266e-01</leafValues></_>
    <_>
      <internalNodes>
        0 -1 51033 -1883822700 -1537354865 -338771064 -810657087
        1758718131 862112821 -2097710290 2002247239</internalNodes>
      <leafValues>
        -3.9320799708366394e-01 2.2169408202171326e-01</leafValues></_>
    <_>
      <internalNodes>
        0 -1 59000 -1275064080 -243199292 352326555 1608325877
        -1300190561 -1681106896 -2096331013 194708621</internalNodes>
      <leafValues>
        -2.8467196226119995e-01 3.0066466331481934e-01</leafValues></_>
    <_>
      <internalNodes>
        0 -1 64562 2054501343 -710938407 -1336270176 -1461886808
        1834026053 703360630 -60880896 1680044126</internalNodes>
      <leafValues>
        -4.7623604536056519e-01 1.7964208126068115e-01</leafValues></_>
    <_>
      <internalNodes>
        0 -1 82624 947549764 1598444355 96902987 -110902697 -1754399348
        -844657506 -1151960869 -1078691944</internalNodes>
      <leafValues>
        -3.3836215734481812e-01 2.5400114059448242e-01</leafValues></_>
    <_>
      <internalNodes>
        0 -1 1519 709836479 -2107730248 1175972700 1641932314
        -1361907985 -1220819379 12634264 -1654656884</internalNodes>
      <leafValues>
        -3.0826449394226074e-01 2.7598252892494202e-01</leafValues></_>
    <_>
      <internalNodes>
        0 -1 68251 -1016598713 1482039823 382659583 2053302303
        -662510730 -269811069 -2109486851 1155960907</internalNodes>
      <leafValues>
        -3.5146823525428772e-01 2.4952812492847443e-01</leafValues></_>
    <_>
      <internalNodes>
        0 -1 76037 1855685314 1617838127 -1520774654 -1977049910
        -269155584 1078396993 -540144877 -681515786</internalNodes>
      <leafValues>
        -3.5525292158126831e-01 2.5339058041572571e-01</leafValues></_></weakClassifiers></stage16>
</opencv_storage>
