<?xml version="1.0"?>
<opencv_storage>
<stage5>
  <maxWeakCount>8</maxWeakCount>
  <stageThreshold>-1.0712866783142090e+00</stageThreshold>
  <weakClassifiers>
    <_>
      <internalNodes>
        0 -1 756 2133852110 -524305 2145246207 2147483388 -1073741829
        -131073 -226564098 -67502129</internalNodes>
      <leafValues>
        -5.2924293279647827e-01 6.0689872503280640e-01</leafValues></_>
    <_>
      <internalNodes>
        0 -1 53337 -203949074 1665389518 -721949982 -1001456658
        -673874961 1468729836 -177733888 -34078737</internalNodes>
      <leafValues>
        -5.7581210136413574e-01 4.2977929115295410e-01</leafValues></_>
    <_>
      <internalNodes>
        0 -1 47865 -201327156 -722665473 -335544374 -5363 -268 -87556122
        -67108865 -6145</internalNodes>
      <leafValues>
        -3.8946872949600220e-01 5.1187938451766968e-01</leafValues></_>
    <_>
      <internalNodes>
        0 -1 45677 -167774230 284686255 -109577726 15347330 1627400702
        1884520648 -235674878 1425014479</internalNodes>
      <leafValues>
        -6.7738318443298340e-01 2.3824954032897949e-01</leafValues></_>
    <_>
      <internalNodes>
        0 -1 124 2490615 1561843153 -1650771617 -587002914 -5652481
        -4588629 2097265107 -134327329</internalNodes>
      <leafValues>
        -4.3991833925247192e-01 4.2425191402435303e-01</leafValues></_>
    <_>
      <internalNodes>
        0 -1 57461 -524305 -857329685 -1347429344 -319826202 1060218626
        1156874175 2120742658 -235413697</internalNodes>
      <leafValues>
        -4.0450295805931091e-01 4.4791755080223083e-01</leafValues></_>
    <_>
      <internalNodes>
        0 -1 62188 -505026809 1428353599 -1060693505 -465337985
        -2119257089 1036241374 -1328810517 1616282534</internalNodes>
      <leafValues>
        -4.6516540646553040e-01 3.8024556636810303e-01</leafValues></_>
    <_>
      <internalNodes>
        0 -1 55399 -638014448 2102964116 -594975915 -536937187
        -647234732 -7868774 -577458244 -3539234</internalNodes>
      <leafValues>
        -4.0940272808074951e-01 4.2865437269210815e-01</leafValues></_></weakClassifiers></stage5>
</opencv_storage>
