<?xml version="1.0"?>
<opencv_storage>
<stage19>
  <maxWeakCount>20</maxWeakCount>
  <stageThreshold>-7.0573765039443970e-01</stageThreshold>
  <weakClassifiers>
    <_>
      <internalNodes>
        0 -1 45449 -4102 298844079 -100663638 12758766 -32818 1174405119
        -8393686 1424994031</internalNodes>
      <leafValues>
        -1.3046620786190033e-01 4.8871865868568420e-01</leafValues></_>
    <_>
      <internalNodes>
        0 -1 31223 -299217710 -26075938 221908991 -217154 223207324
        -757272578 -847912977 -539003265</internalNodes>
      <leafValues>
        -2.3316027224063873e-01 3.1546103954315186e-01</leafValues></_>
    <_>
      <internalNodes>
        0 -1 46198 1944174561 95027041 -1872424276 14395970 178061696
        145828629 2034970735 1347939043</internalNodes>
      <leafValues>
        -3.7654820084571838e-01 1.9606025516986847e-01</leafValues></_>
    <_>
      <internalNodes>
        0 -1 61991 269429 2023586555 708819957 -1272103203 -1111974664
        -2108773 -1171751941 -1977074817</internalNodes>
      <leafValues>
        -2.3756159842014313e-01 3.1314268708229065e-01</leafValues></_>
    <_>
      <internalNodes>
        0 -1 73854 -1495314942 1216328357 -1062035378 -84083973 78089856
        587117509 -143136018 2013128111</internalNodes>
      <leafValues>
        -3.2646703720092773e-01 2.1490217745304108e-01</leafValues></_>
    <_>
      <internalNodes>
        0 -1 38889 -109062469 -805306422 -1949831456 -875563398
        -21252349 -1543569428 1571280742 -39847969</internalNodes>
      <leafValues>
        -2.0683017373085022e-01 3.6508843302726746e-01</leafValues></_>
    <_>
      <internalNodes>
        0 -1 125 -1059110417 1438856043 354504509 -1655813877 1545650091
        -49108328 1971339178 -1178942677</internalNodes>
      <leafValues>
        -3.3263036608695984e-01 2.1769353747367859e-01</leafValues></_>
    <_>
      <internalNodes>
        0 -1 48249 -995548160 548960100 -2121724667 -1793004115
        -1614963935 2010261853 -1891964101 -1156975685</internalNodes>
      <leafValues>
        -4.1424936056137085e-01 1.7147602140903473e-01</leafValues></_>
    <_>
      <internalNodes>
        0 -1 82882 834799647 -145682017 -334562566 699544339 -1143415212
        -627093797 -1142753016 -1155383462</internalNodes>
      <leafValues>
        -3.0852636694908142e-01 2.2825711965560913e-01</leafValues></_>
    <_>
      <internalNodes>
        0 -1 69025 417037934 -1831696466 -1056839670 2018223186
        275865411 1615929453 1628793937 1105454899</internalNodes>
      <leafValues>
        -4.9925681948661804e-01 1.5762713551521301e-01</leafValues></_>
    <_>
      <internalNodes>
        0 -1 46531 -1922198281 1084084701 1904100462 1842595045
        289583471 -1252802301 -506462225 -495781019</internalNodes>
      <leafValues>
        -2.7581009268760681e-01 2.7062129974365234e-01</leafValues></_>
    <_>
      <internalNodes>
        0 -1 68158 -1338506032 -756012383 1593211869 1087183959
        -1707427912 -1262600419 -671573058 -99602668</internalNodes>
      <leafValues>
        -2.5167387723922729e-01 2.9359042644500732e-01</leafValues></_>
    <_>
      <internalNodes>
        0 -1 61600 -544211766 -526493990 -828896224 -913726945
        1086037601 1099109393 -1156384397 -1044927521</internalNodes>
      <leafValues>
        -3.4162405133247375e-01 2.2085659205913544e-01</leafValues></_>
    <_>
      <internalNodes>
        0 -1 44542 328208561 -72776798 -1015472171 533546177 -1273956419
        -1719423808 1329597931 -828898848</internalNodes>
      <leafValues>
        -2.0762977004051208e-01 3.7623989582061768e-01</leafValues></_>
    <_>
      <internalNodes>
        0 -1 6146 -2085130238 -2083394637 -288141605 -270291249
        1300999844 262397309 215813166 -975186914</internalNodes>
      <leafValues>
        -2.5933480262756348e-01 2.8752419352531433e-01</leafValues></_>
    <_>
      <internalNodes>
        0 -1 74350 -897588534 1365847277 49769379 -264542558 -1837845232
        1096283972 -671749457 -741343526</internalNodes>
      <leafValues>
        -2.5394046306610107e-01 3.0057847499847412e-01</leafValues></_>
    <_>
      <internalNodes>
        0 -1 64840 -557002032 -67699004 3150016 -752750459 -653884212
        113252172 -194993169 -1810767606</internalNodes>
      <leafValues>
        -2.1186554431915283e-01 3.5103151202201843e-01</leafValues></_>
    <_>
      <internalNodes>
        0 -1 74539 -564532499 -148931861 -1560661397 1659645517
        -211842038 2038238740 -201468769 -211030021</internalNodes>
      <leafValues>
        -2.2325846552848816e-01 3.4708124399185181e-01</leafValues></_>
    <_>
      <internalNodes>
        0 -1 42018 -1726259239 -1744764685 2068594536 -472985092
        -1508917899 858294281 1867682412 -1841313417</internalNodes>
      <leafValues>
        -3.3410125970840454e-01 2.2382026910781860e-01</leafValues></_>
    <_>
      <internalNodes>
        0 -1 29964 -1415610591 -1094308694 1641382936 -1781814023
        1057618471 1537174510 73557488 -844236895</internalNodes>
      <leafValues>
        -2.7948236465454102e-01 2.7495571970939636e-01</leafValues></_></weakClassifiers></stage19>
</opencv_storage>
