<?xml version="1.0"?>
<opencv_storage>
<stage12>
  <maxWeakCount>15</maxWeakCount>
  <stageThreshold>-9.1798716783523560e-01</stageThreshold>
  <weakClassifiers>
    <_>
      <internalNodes>
        0 -1 40844 -487657498 -251921441 -258179081 -17495042
        -1442846209 620703907 -65569 -234881155</internalNodes>
      <leafValues>
        -4.0972611308097839e-01 4.7863328456878662e-01</leafValues></_>
    <_>
      <internalNodes>
        0 -1 55015 -8978700 -98817 -237046788 -67217 -1148584331
        -459185645 -210501635 -71305413</internalNodes>
      <leafValues>
        -3.4479242563247681e-01 3.3818981051445007e-01</leafValues></_>
    <_>
      <internalNodes>
        0 -1 63414 2144860910 -610393965 -1274314624 -1595522866
        1693496133 823445663 1986221312 -193466513</internalNodes>
      <leafValues>
        -4.9907615780830383e-01 1.9735457003116608e-01</leafValues></_>
    <_>
      <internalNodes>
        0 -1 44377 1998796548 -8949377 -69126049 1096263935 -1801134420
        -1179613009 -2120711937 -1102994393</internalNodes>
      <leafValues>
        -5.1345556974411011e-01 1.9688534736633301e-01</leafValues></_>
    <_>
      <internalNodes>
        0 -1 60605 836363951 -477571633 2061320938 -857218065 -621317417
        1933791395 1200617282 -304614425</internalNodes>
      <leafValues>
        -3.2512173056602478e-01 2.9562628269195557e-01</leafValues></_>
    <_>
      <internalNodes>
        0 -1 55435 1973460700 -178995215 -604105219 -1073814540
        -1136595204 -19031432 -852873304 -1362040144</internalNodes>
      <leafValues>
        -3.1180316209793091e-01 3.2169085741043091e-01</leafValues></_>
    <_>
      <internalNodes>
        0 -1 82882 1607948383 -4498353 -83198289 -1212532874 -82807792
        -8439541 -217400808 -80709360</internalNodes>
      <leafValues>
        -3.4997245669364929e-01 2.7886608242988586e-01</leafValues></_>
    <_>
      <internalNodes>
        0 -1 62425 -1240791823 -48756555 -2072938117 1562139126
        -1535595368 -1096003888 -1390887218 -1157626831</internalNodes>
      <leafValues>
        -3.0030789971351624e-01 3.4111991524696350e-01</leafValues></_>
    <_>
      <internalNodes>
        0 -1 73644 -1292875252 1658733427 -1872499190 774274919
        -965787385 1658669671 -1250951317 -696778886</internalNodes>
      <leafValues>
        -4.2573583126068115e-01 2.3050059378147125e-01</leafValues></_>
    <_>
      <internalNodes>
        0 -1 6956 -2094547168 1173026228 -151651236 -538997584
        -1101531458 -875759221 -984805308 -1043382184</internalNodes>
      <leafValues>
        -3.2911935448646545e-01 3.1127652525901794e-01</leafValues></_>
    <_>
      <internalNodes>
        0 -1 61682 -393249 -170536747 -1935860600 -2085893717 1576469261
        1952414581 -68746453 -83940513</internalNodes>
      <leafValues>
        -3.2161739468574524e-01 3.2108411192893982e-01</leafValues></_>
    <_>
      <internalNodes>
        0 -1 49871 1366669055 10684106 1389867398 1115857578 -208664134
        389230683 -1713728222 -671650421</internalNodes>
      <leafValues>
        -3.8623791933059692e-01 2.5933837890625000e-01</leafValues></_>
    <_>
      <internalNodes>
        0 -1 6022 555876914 -1318416649 1898304861 1065126129 1804588791
        -1147040325 1095243769 1192575449</internalNodes>
      <leafValues>
        -3.8190051913261414e-01 2.7992349863052368e-01</leafValues></_>
    <_>
      <internalNodes>
        0 -1 77975 -228858162 -723884706 1719594156 -487854365
        -170148862 -144935564 -95235602 -144706309</internalNodes>
      <leafValues>
        -2.7547544240951538e-01 3.5396686196327209e-01</leafValues></_>
    <_>
      <internalNodes>
        0 -1 52557 2011410428 1092161679 -412751200 635984126 846482260
        729169 1612067334 2004349231</internalNodes>
      <leafValues>
        -5.5951672792434692e-01 1.7090615630149841e-01</leafValues></_></weakClassifiers></stage12>
</opencv_storage>
