<?xml version="1.0"?>
<opencv_storage>
<stage24>
  <maxWeakCount>22</maxWeakCount>
  <stageThreshold>-8.5903131961822510e-01</stageThreshold>
  <weakClassifiers>
    <_>
      <internalNodes>
        0 -1 52636 -319508992 -16789702 -5259401 -260129049 -268439562
        -21119122 -430141581 -453611679</internalNodes>
      <leafValues>
        -2.6164078712463379e-01 4.5444148778915405e-01</leafValues></_>
    <_>
      <internalNodes>
        0 -1 60922 358071032 822841358 -1856617740 -1906968581
        -1070643380 852545 2000112484 2078767999</internalNodes>
      <leafValues>
        -3.9161714911460876e-01 1.9747076928615570e-01</leafValues></_>
    <_>
      <internalNodes>
        0 -1 40682 -754977825 -260046849 -3 -642974030 -905986151
        -240537740 1937581848 1897873728</internalNodes>
      <leafValues>
        -2.0200258493423462e-01 3.3917623758316040e-01</leafValues></_>
    <_>
      <internalNodes>
        0 -1 82442 -117519233 -134324305 510191859 408971025 -1093072884
        -117815012 -70768182 -631184678</internalNodes>
      <leafValues>
        -2.3870739340782166e-01 2.8462496399879456e-01</leafValues></_>
    <_>
      <internalNodes>
        0 -1 34326 -81709270 -558901072 -568827872 -22038720 911340019
        13023631 1435791808 1393423111</internalNodes>
      <leafValues>
        -3.5853978991508484e-01 1.8095135688781738e-01</leafValues></_>
    <_>
      <internalNodes>
        0 -1 70232 3145792 2025617789 -1752146049 -1123125889
        -1767721542 -678777873 -343355927 -1204810447</internalNodes>
      <leafValues>
        -3.6152255535125732e-01 2.0784868299961090e-01</leafValues></_>
    <_>
      <internalNodes>
        0 -1 70467 -1040189465 1140498407 -181707403 -770822401
        -189442754 528218094 -663814215 1125036987</internalNodes>
      <leafValues>
        -2.1576088666915894e-01 3.2118424773216248e-01</leafValues></_>
    <_>
      <internalNodes>
        0 -1 580 170033328 608194208 134338485 459253844 -1374426370
        -1945802624 148087995 454918360</internalNodes>
      <leafValues>
        -3.3065849542617798e-01 2.0499700307846069e-01</leafValues></_>
    <_>
      <internalNodes>
        0 -1 55409 1030751644 1433502319 31492409 1098351417 1028069550
        790721025 1090651423 354890299</internalNodes>
      <leafValues>
        -3.0212306976318359e-01 2.3268888890743256e-01</leafValues></_>
    <_>
      <internalNodes>
        0 -1 50691 -235456658 1217708832 -1059780830 553527438
        -1877937841 536953272 827372291 1089939967</internalNodes>
      <leafValues>
        -5.2706664800643921e-01 1.3402062654495239e-01</leafValues></_>
    <_>
      <internalNodes>
        0 -1 59329 -267517935 -958439877 1062516213 -1672353593
        -469710948 -1561441893 -1058420547 1909304</internalNodes>
      <leafValues>
        -3.3192026615142822e-01 2.0863227546215057e-01</leafValues></_>
    <_>
      <internalNodes>
        0 -1 74184 -1419400483 1920363623 754877066 1982186 -1113614039
        1885693901 -8626 -484970577</internalNodes>
      <leafValues>
        -2.3921629786491394e-01 3.2813790440559387e-01</leafValues></_>
    <_>
      <internalNodes>
        0 -1 29604 -297020374 -320548613 -1840413558 -333809186
        1942739298 666145797 1944876548 -1799031838</internalNodes>
      <leafValues>
        -3.9558437466621399e-01 1.9293601810932159e-01</leafValues></_>
    <_>
      <internalNodes>
        0 -1 26732 18879280 -582976236 389137145 -653978442 1852811513
        -1396407520 255869917 -2055995232</internalNodes>
      <leafValues>
        -3.8581290841102600e-01 1.8790444731712341e-01</leafValues></_>
    <_>
      <internalNodes>
        0 -1 75198 1080541774 -254208675 -742924070 37270878 -1780417864
        -1359412942 -1188692499 -361329123</internalNodes>
      <leafValues>
        -2.6929903030395508e-01 2.8379577398300171e-01</leafValues></_>
    <_>
      <internalNodes>
        0 -1 78854 706235916 -1947771352 319254910 -1077606331 861328128
        -1471235714 842021158 -218013878</internalNodes>
      <leafValues>
        -3.6953336000442505e-01 2.1136231720447540e-01</leafValues></_>
    <_>
      <internalNodes>
        0 -1 60706 2098178348 -1783430565 -1409268864 -1717632885
        -157859839 842459602 1110447200 29723423</internalNodes>
      <leafValues>
        -6.5790373086929321e-01 1.0781792551279068e-01</leafValues></_>
    <_>
      <internalNodes>
        0 -1 44270 134257841 -539980304 501626999 -581067115 -1406101096
        -1954180734 1595962523 -1908670347</internalNodes>
      <leafValues>
        -2.1249760687351227e-01 3.6586123704910278e-01</leafValues></_>
    <_>
      <internalNodes>
        0 -1 79951 383624926 -637658779 -128336788 1207986212 1832998400
        -878290844 974797704 2064145134</internalNodes>
      <leafValues>
        -3.3820587396621704e-01 2.2738395631313324e-01</leafValues></_>
    <_>
      <internalNodes>
        0 -1 62 9318656 1671847954 -1854831169 -708277051 -1617777217
        -1606708006 174590228 210965721</internalNodes>
      <leafValues>
        -3.7876573204994202e-01 1.8795591592788696e-01</leafValues></_>
    <_>
      <internalNodes>
        0 -1 27578 1939705915 1360072717 -783611378 -2082530093
        -2137931765 268566560 -388789973 1943910632</internalNodes>
      <leafValues>
        -3.1292304396629333e-01 2.3648950457572937e-01</leafValues></_>
    <_>
      <internalNodes>
        0 -1 57217 -117984339 617263203 282177906 -2067664213 -802082489
        1346478235 -1173098489 1890027535</internalNodes>
      <leafValues>
        -3.1838172674179077e-01 2.4667584896087646e-01</leafValues></_></weakClassifiers></stage24>
</opencv_storage>
