<?xml version="1.0"?>
<opencv_storage>
<stage6>
  <maxWeakCount>9</maxWeakCount>
  <stageThreshold>-1.1876953840255737e+00</stageThreshold>
  <weakClassifiers>
    <_>
      <internalNodes>
        0 -1 63487 -68420702 -337118229 -554720766 -810558686 -197049854
        863008598 1130586370 1931993987</internalNodes>
      <leafValues>
        -3.4118375182151794e-01 5.9510421752929688e-01</leafValues></_>
    <_>
      <internalNodes>
        0 -1 40166 -1058543633 -143273529 89379185 1979440563 33552379
        -1865328 1461828607 30932947</internalNodes>
      <leafValues>
        -4.7533455491065979e-01 4.4763231277465820e-01</leafValues></_>
    <_>
      <internalNodes>
        0 -1 6062 7479347 905394943 6526333 -172519467 1173857791
        -536585 1176837629 1190440957</internalNodes>
      <leafValues>
        -3.6060458421707153e-01 4.9468240141868591e-01</leafValues></_>
    <_>
      <internalNodes>
        0 -1 37574 -527361 -134217737 1607971756 -134348801 1879015423
        1476395005 -145358866 -135794701</internalNodes>
      <leafValues>
        -3.6615276336669922e-01 4.8837929964065552e-01</leafValues></_>
    <_>
      <internalNodes>
        0 -1 26182 -545783809 -270532929 -409268977 -1352159665
        2113798143 -1342177281 1336913423 -806375955</internalNodes>
      <leafValues>
        -3.5825666785240173e-01 5.1249080896377563e-01</leafValues></_>
    <_>
      <internalNodes>
        0 -1 68538 979565310 570556430 -2079800950 -649768680 1409311554
        4194390 1898280243 1903492983</internalNodes>
      <leafValues>
        -5.6589907407760620e-01 3.1745067238807678e-01</leafValues></_>
    <_>
      <internalNodes>
        0 -1 54218 -680528150 -2134447958 -263931702 -1058021238
        1514744773 551338682 -244892857 -973082705</internalNodes>
      <leafValues>
        -4.7096860408782959e-01 3.0556043982505798e-01</leafValues></_>
    <_>
      <internalNodes>
        0 -1 44375 1929454337 -170412559 1365515773 -1077697082
        808008367 -7022407 571675326 993242047</internalNodes>
      <leafValues>
        -5.2652764320373535e-01 2.8747642040252686e-01</leafValues></_>
    <_>
      <internalNodes>
        0 -1 18122 -967541761 -545783825 -302993662 1598934511 -4289
        256770046 -1183841 -706744353</internalNodes>
      <leafValues>
        -3.4308844804763794e-01 4.3489629030227661e-01</leafValues></_></weakClassifiers></stage6>
</opencv_storage>
