<?xml version="1.0"?>
<opencv_storage>
<stage28>
  <maxWeakCount>23</maxWeakCount>
  <stageThreshold>-8.0484485626220703e-01</stageThreshold>
  <weakClassifiers>
    <_>
      <internalNodes>
        0 -1 49699 -34668626 854523854 -7252 15265774 -151062636
        -603983876 -8390848 -201326597</internalNodes>
      <leafValues>
        -3.0434781312942505e-01 4.4304975867271423e-01</leafValues></_>
    <_>
      <internalNodes>
        0 -1 51895 833625560 -775945936 2102543645 522060240 -59241476
        -50855252 1536637704 -1374097760</internalNodes>
      <leafValues>
        -2.7679350972175598e-01 2.6001927256584167e-01</leafValues></_>
    <_>
      <internalNodes>
        0 -1 67790 -547499814 -781856850 -429914528 1942598301
        -1612840820 -304851135 -234360641 -144991077</internalNodes>
      <leafValues>
        -1.7626549303531647e-01 3.9232572913169861e-01</leafValues></_>
    <_>
      <internalNodes>
        0 -1 58300 -39716949 603958090 -1611747712 1658300650 -707161018
        634270532 -856496949 -529532977</internalNodes>
      <leafValues>
        -2.2828219830989838e-01 3.0480965971946716e-01</leafValues></_>
    <_>
      <internalNodes>
        0 -1 30416 -1682965986 -2085751380 -1996659872 -34604952
        -1866334467 21298346 1438753201 -537935377</internalNodes>
      <leafValues>
        -2.4353779852390289e-01 2.7989995479583740e-01</leafValues></_>
    <_>
      <internalNodes>
        0 -1 65397 -219152634 -696219570 -1987671382 -1861910386
        -1060871949 8618534 -1999978358 270942339</internalNodes>
      <leafValues>
        -3.6347812414169312e-01 1.8538837134838104e-01</leafValues></_>
    <_>
      <internalNodes>
        0 -1 78006 -1512718139 1348157527 -1059128302 585945759
        -854545912 2135432314 -688787934 2054609498</internalNodes>
      <leafValues>
        -3.2905492186546326e-01 2.0140770077705383e-01</leafValues></_>
    <_>
      <internalNodes>
        0 -1 16918 -108920957 4225995 385726205 -1855992613 28108078
        1560782799 -1916924786 -2063084091</internalNodes>
      <leafValues>
        -2.5860700011253357e-01 2.7129757404327393e-01</leafValues></_>
    <_>
      <internalNodes>
        0 -1 84390 374016092 -204406750 1376781013 287125573 -1399060440
        -694533928 361271530 188231820</internalNodes>
      <leafValues>
        -3.1105658411979675e-01 2.2786101698875427e-01</leafValues></_>
    <_>
      <internalNodes>
        0 -1 75857 -1695218688 978458779 -393964992 840366604
        -1937697278 308791570 -109850939 1886510444</internalNodes>
      <leafValues>
        -4.7169280052185059e-01 1.5064823627471924e-01</leafValues></_>
    <_>
      <internalNodes>
        0 -1 62240 -752838960 -2877304 2115823453 1039154392 -1705996368
        -7682182 1473261530 -1440742048</internalNodes>
      <leafValues>
        -2.3341995477676392e-01 3.0569449067115784e-01</leafValues></_>
    <_>
      <internalNodes>
        0 -1 4268 -1372962595 -1769049704 -262876915 1338888440
        -679764083 -1075123680 -1348322631 201102776</internalNodes>
      <leafValues>
        -3.1710064411163330e-01 2.2812372446060181e-01</leafValues></_>
    <_>
      <internalNodes>
        0 -1 75089 -990510570 1978089775 473312531 1027624438
        -1336337104 -1059520490 -1100772566 71983976</internalNodes>
      <leafValues>
        -4.0015128254890442e-01 1.7842721939086914e-01</leafValues></_>
    <_>
      <internalNodes>
        0 -1 50518 1846208266 874155007 41102 -427396657 1659879555
        18211330 1434673920 -671108141</internalNodes>
      <leafValues>
        -2.8559523820877075e-01 2.4710869789123535e-01</leafValues></_>
    <_>
      <internalNodes>
        0 -1 1500 545486261 -483198852 -1382024148 -678708216
        -1610892609 -1343295825 545198331 -1923152868</internalNodes>
      <leafValues>
        -2.3874375224113464e-01 3.0190065503120422e-01</leafValues></_>
    <_>
      <internalNodes>
        0 -1 64842 1489026028 -580934211 219417680 1487692555
        -1951331767 1260470428 611233981 899674754</internalNodes>
      <leafValues>
        -3.2248517870903015e-01 2.2438207268714905e-01</leafValues></_>
    <_>
      <internalNodes>
        0 -1 63403 1397877279 -498175967 1090641956 -291618679
        1909547318 538034504 -1191759549 -925788955</internalNodes>
      <leafValues>
        -2.6361998915672302e-01 2.8004106879234314e-01</leafValues></_>
    <_>
      <internalNodes>
        0 -1 43020 2073813706 -543610198 1051545314 2089807747
        -662850633 219918451 919958401 -1746019098</internalNodes>
      <leafValues>
        -2.2655273973941803e-01 3.3891034126281738e-01</leafValues></_>
    <_>
      <internalNodes>
        0 -1 74789 -1026286573 1732734322 -463719543 980837108
        -1082714251 -2027259001 -920478997 -1426011789</internalNodes>
      <leafValues>
        -2.6529359817504883e-01 2.8915256261825562e-01</leafValues></_>
    <_>
      <internalNodes>
        0 -1 80624 -730323357 -973334757 997353207 259210803 -348404082
        -1946935814 1118090426 1224906746</internalNodes>
      <leafValues>
        -2.5556582212448120e-01 2.9442194104194641e-01</leafValues></_>
    <_>
      <internalNodes>
        0 -1 8258 -2048026709 -1999646611 -856032159 -445590128
        -1140019225 -1199331329 -2115257219 -712123307</internalNodes>
      <leafValues>
        -2.3695167899131775e-01 3.2391619682312012e-01</leafValues></_>
    <_>
      <internalNodes>
        0 -1 24708 276756539 -103760142 1702176808 -1115378814
        1069398011 1313700607 1600021229 1135603727</internalNodes>
      <leafValues>
        -2.3562696576118469e-01 3.1418848037719727e-01</leafValues></_>
    <_>
      <internalNodes>
        0 -1 27065 -141729302 -1600288485 16978693 541296987 319524755
        -1248781174 262963406 -672761309</internalNodes>
      <leafValues>
        -2.9069861769676208e-01 2.8629526495933533e-01</leafValues></_></weakClassifiers></stage28>
</opencv_storage>
