<?xml version="1.0"?>
<opencv_storage>
<stage22>
  <maxWeakCount>20</maxWeakCount>
  <stageThreshold>-7.4788081645965576e-01</stageThreshold>
  <weakClassifiers>
    <_>
      <internalNodes>
        0 -1 747 -1999062872 -329399434 811631104 -1159869822 706775099
        -669908840 -335959652 14545889</internalNodes>
      <leafValues>
        -4.7194111347198486e-01 4.2903023958206177e-01</leafValues></_>
    <_>
      <internalNodes>
        0 -1 44808 -2024762381 -704939595 -771926913 -705903148
        1068824251 -34704294 775909715 1078019137</internalNodes>
      <leafValues>
        -2.2026781737804413e-01 3.2370501756668091e-01</leafValues></_>
    <_>
      <internalNodes>
        0 -1 55053 -69994497 -1976893538 -1398111702 -2004704342
        -553008563 -1488841838 -775606214 -708592981</internalNodes>
      <leafValues>
        -3.4310594201087952e-01 2.0194435119628906e-01</leafValues></_>
    <_>
      <internalNodes>
        0 -1 77955 -1813026930 1743765999 480209442 1122537302 -42310304
        1296009575 -13832370 -227082706</internalNodes>
      <leafValues>
        -3.2951095700263977e-01 2.1807853877544403e-01</leafValues></_>
    <_>
      <internalNodes>
        0 -1 11372 3875347 -1313370081 130327381 320018821 1089112439
        -90990118 1278036793 237369513</internalNodes>
      <leafValues>
        -3.2108476758003235e-01 2.0880275964736938e-01</leafValues></_>
    <_>
      <internalNodes>
        0 -1 62634 -782256186 356515931 1495262118 4284590 1630656974
        169873987 1734689282 -654183501</internalNodes>
      <leafValues>
        -3.3728852868080139e-01 2.0799840986728668e-01</leafValues></_>
    <_>
      <internalNodes>
        0 -1 71696 -269752808 1425996127 -59279326 -1304248915
        1760034205 1967122894 -1685592183 -232522993</internalNodes>
      <leafValues>
        -2.6661813259124756e-01 2.6687881350517273e-01</leafValues></_>
    <_>
      <internalNodes>
        0 -1 46089 -2149585 323303171 335827276 552520606 -1551499004
        392364033 -1924460414 1473772431</internalNodes>
      <leafValues>
        -3.4310710430145264e-01 2.0546916127204895e-01</leafValues></_>
    <_>
      <internalNodes>
        0 -1 443 -1472570712 198461040 -1532530626 25290359 -1651840146
        -1623023029 -2038066549 1066396575</internalNodes>
      <leafValues>
        -3.7841320037841797e-01 1.9811379909515381e-01</leafValues></_>
    <_>
      <internalNodes>
        0 -1 15443 -1596579673 -1906408313 2002289000 -1511274513
        1526733439 1123211401 -1280573605 1476373446</internalNodes>
      <leafValues>
        -3.6794432997703552e-01 2.0561206340789795e-01</leafValues></_>
    <_>
      <internalNodes>
        0 -1 64592 2000657194 -1212296899 -638790806 -12332177
        -1181141135 1647383074 -641420424 -179964991</internalNodes>
      <leafValues>
        -3.8642603158950806e-01 2.0079196989536285e-01</leafValues></_>
    <_>
      <internalNodes>
        0 -1 59310 -1742201351 -1323669164 -1416803843 965058001
        -142492687 -338586210 -1206376263 -1994390208</internalNodes>
      <leafValues>
        -2.9186308383941650e-01 2.7056971192359924e-01</leafValues></_>
    <_>
      <internalNodes>
        0 -1 29309 68004714 -2004418562 969345280 1804597015 30920997
        69394238 1916294180 357398860</internalNodes>
      <leafValues>
        -4.5418101549148560e-01 1.6441096365451813e-01</leafValues></_>
    <_>
      <internalNodes>
        0 -1 72621 -34419249 -788380117 -816171075 1526927118 1433839387
        -1117862011 -709264213 -1222377538</internalNodes>
      <leafValues>
        -1.9597813487052917e-01 3.9696559309959412e-01</leafValues></_>
    <_>
      <internalNodes>
        0 -1 61928 1702911452 -183168939 1641725213 -717382882 675849209
        954021904 -79710072 -1097852884</internalNodes>
      <leafValues>
        -2.9505857825279236e-01 2.6267123222351074e-01</leafValues></_>
    <_>
      <internalNodes>
        0 -1 31761 -151797983 -226126225 1553971621 -136913005
        -1678310260 1864666574 330501250 -214217727</internalNodes>
      <leafValues>
        -1.8740795552730560e-01 3.9522486925125122e-01</leafValues></_>
    <_>
      <internalNodes>
        0 -1 48762 -618761298 344297955 2086007603 1921632002 1137938467
        -2118088704 -687116167 1573560938</internalNodes>
      <leafValues>
        -3.0779439210891724e-01 2.4966348707675934e-01</leafValues></_>
    <_>
      <internalNodes>
        0 -1 5901 167776440 -1085046712 30621653 -680179501 217759663
        -1329954540 193264043 354418824</internalNodes>
      <leafValues>
        -3.8372296094894409e-01 2.0522214472293854e-01</leafValues></_>
    <_>
      <internalNodes>
        0 -1 66873 1609240868 -1878798180 -2063126496 -224614163
        163405095 1411668773 -298839772 868216558</internalNodes>
      <leafValues>
        -4.7974100708961487e-01 1.6163207590579987e-01</leafValues></_>
    <_>
      <internalNodes>
        0 -1 80749 1045704257 -1793176545 1404833535 1946096425
        -1957471724 1545496777 -1174274152 -1474149549</internalNodes>
      <leafValues>
        -3.5751241445541382e-01 2.2337098419666290e-01</leafValues></_></weakClassifiers></stage22>
</opencv_storage>
