<?xml version="1.0"?>
<opencv_storage>
<stage20>
  <maxWeakCount>19</maxWeakCount>
  <stageThreshold>-7.4601560831069946e-01</stageThreshold>
  <weakClassifiers>
    <_>
      <internalNodes>
        0 -1 55603 -1498143977 -51339 -536887301 -51732 -1476399105
        -1073758209 -1006923909 -1904265154</internalNodes>
      <leafValues>
        -1.7950889468193054e-01 4.7513589262962341e-01</leafValues></_>
    <_>
      <internalNodes>
        0 -1 51475 -594140044 -722594317 1029173756 -1221920257
        -1968574027 550503031 -1959789569 -1343226913</internalNodes>
      <leafValues>
        -3.0451729893684387e-01 2.6664909720420837e-01</leafValues></_>
    <_>
      <internalNodes>
        0 -1 61918 16825300 1979551101 488744955 1038453229 -1583231553
        -1174616652 1598995887 -1146106693</internalNodes>
      <leafValues>
        -2.2106641530990601e-01 3.2094824314117432e-01</leafValues></_>
    <_>
      <internalNodes>
        0 -1 76173 -771757365 1651507159 576630442 852295628 -83919924
        657975154 -17039477 -145754485</internalNodes>
      <leafValues>
        -1.9830277562141418e-01 3.6747074127197266e-01</leafValues></_>
    <_>
      <internalNodes>
        0 -1 61075 -1210321170 -2042113854 -1068866552 -2072519735
        -1278119932 -788361205 -265436414 -1058144713</internalNodes>
      <leafValues>
        -3.1400173902511597e-01 2.4073620140552521e-01</leafValues></_>
    <_>
      <internalNodes>
        0 -1 16520 102765752 -720894776 496603865 1610187513 -1601928979
        -2003810932 576758683 990384312</internalNodes>
      <leafValues>
        -3.0667442083358765e-01 2.4775135517120361e-01</leafValues></_>
    <_>
      <internalNodes>
        0 -1 68346 -1402752274 -962897394 -2054666036 -234350080
        78987333 1360920586 1949300339 1076298507</internalNodes>
      <leafValues>
        -5.0119090080261230e-01 1.4915215969085693e-01</leafValues></_>
    <_>
      <internalNodes>
        0 -1 335 459056 1002832371 -1055383721 122053719 -820164170
        -6683401 1620666864 361955837</internalNodes>
      <leafValues>
        -3.9371478557586670e-01 1.8710154294967651e-01</leafValues></_>
    <_>
      <internalNodes>
        0 -1 28228 269512767 1653674304 -206524886 -979415090 4339
        1610682496 -1279816937 1163913806</internalNodes>
      <leafValues>
        -3.8078016042709351e-01 2.1820144355297089e-01</leafValues></_>
    <_>
      <internalNodes>
        0 -1 56030 -1851391502 -576711402 481419261 -302152400
        -1408788239 -846060926 1850779313 -2002780144</internalNodes>
      <leafValues>
        -2.8791934251785278e-01 2.5847226381301880e-01</leafValues></_>
    <_>
      <internalNodes>
        0 -1 21655 -459241818 -388970786 -1350525681 -887142437
        -991052812 -997942355 1599030605 -1203985</internalNodes>
      <leafValues>
        -3.8149937987327576e-01 1.9097633659839630e-01</leafValues></_>
    <_>
      <internalNodes>
        0 -1 43019 1607987435 682537676 -515213632 -54593936 -90210430
        118468164 -745049310 -838879257</internalNodes>
      <leafValues>
        -2.6461702585220337e-01 2.9437381029129028e-01</leafValues></_>
    <_>
      <internalNodes>
        0 -1 75258 -405517617 -914455761 -278233201 -142404862
        -1991824385 -729950434 -141495566 -15990854</internalNodes>
      <leafValues>
        -1.9153074920177460e-01 4.1377529501914978e-01</leafValues></_>
    <_>
      <internalNodes>
        0 -1 13886 788430783 -1966298119 -823236818 -236982344 -145
        -436207617 -537526354 -235438722</internalNodes>
      <leafValues>
        -2.5235661864280701e-01 3.0386647582054138e-01</leafValues></_>
    <_>
      <internalNodes>
        0 -1 44352 538574938 284875132 -523582595 -1885728425
        -2139434755 -23373090 -2129413955 801717534</internalNodes>
      <leafValues>
        -2.9473379254341125e-01 2.7606496214866638e-01</leafValues></_>
    <_>
      <internalNodes>
        0 -1 6631 -251158604 666501626 -35669764 366426564 -2138753739
        -842174029 92480881 -1912616796</internalNodes>
      <leafValues>
        -3.1623286008834839e-01 2.5490698218345642e-01</leafValues></_>
    <_>
      <internalNodes>
        0 -1 73663 -1431233024 -627625445 -1664599578 276720572
        2055028836 1193146394 -580203456 1076057882</internalNodes>
      <leafValues>
        -5.6604140996932983e-01 1.5722465515136719e-01</leafValues></_>
    <_>
      <internalNodes>
        0 -1 55460 369234160 1601724836 1600797111 1503484153
        -1683440966 -1347848476 294960879 -1625422695</internalNodes>
      <leafValues>
        -2.5832769274711609e-01 3.0318331718444824e-01</leafValues></_>
    <_>
      <internalNodes>
        0 -1 66291 1847588586 -460517236 -1701888574 -1689941793
        635645156 1078042826 1957492562 401732303</internalNodes>
      <leafValues>
        -4.1326290369033813e-01 1.8928007781505585e-01</leafValues></_></weakClassifiers></stage20>
</opencv_storage>
