<?xml version="1.0"?>
<opencv_storage>
<stage4>
  <maxWeakCount>7</maxWeakCount>
  <stageThreshold>-1.2352558374404907e+00</stageThreshold>
  <weakClassifiers>
    <_>
      <internalNodes>
        0 -1 41585 -578 -1048635 -1000296960 -975700250 -572571681
        -8388658 -14717170 -11534513</internalNodes>
      <leafValues>
        -3.5277706384658813e-01 6.8083322048187256e-01</leafValues></_>
    <_>
      <internalNodes>
        0 -1 55603 -1363333321 -49281 -572663301 -3585 -338952193
        -345899077 -33816577 -285230217</internalNodes>
      <leafValues>
        -5.1169496774673462e-01 5.0068557262420654e-01</leafValues></_>
    <_>
      <internalNodes>
        0 -1 51595 -16385 -1349537841 -1901657568 -1364259838 -67407889
        -268436609 -16840190 -335561041</internalNodes>
      <leafValues>
        -4.3563938140869141e-01 5.1687854528427124e-01</leafValues></_>
    <_>
      <internalNodes>
        0 -1 56785 -677517329 -202403513 -963139670 -404245777
        1992650639 826489831 1913091904 -671613185</internalNodes>
      <leafValues>
        -4.4007691740989685e-01 4.7634115815162659e-01</leafValues></_>
    <_>
      <internalNodes>
        0 -1 5809 1654973088 -562135682 -1363299844 -329018 -270533651
        -677709156 -8658980 -35656758</internalNodes>
      <leafValues>
        -5.0302112102508545e-01 4.0841439366340637e-01</leafValues></_>
    <_>
      <internalNodes>
        0 -1 51983 823133469 -546235017 868564959 -1116513929 -787773030
        -101457441 -1780831233 1040829999</internalNodes>
      <leafValues>
        -5.0755417346954346e-01 3.9110514521598816e-01</leafValues></_>
    <_>
      <internalNodes>
        0 -1 60918 -536887417 -286261341 -1431427570 -355472881
        -168331453 1970632561 -563453 -335544353</internalNodes>
      <leafValues>
        -4.1329067945480347e-01 5.0215893983840942e-01</leafValues></_></weakClassifiers></stage4>
</opencv_storage>
